svm_type c_svc
kernel_type rbf
gamma 4
nr_class 2
total_sv 1219
rho -1.0332951739005134
label 1 -1
nr_sv 654 565
SV
512 1:-0.56655415 2:-0.56655415 
5.5125349567157613 1:-0.81713967 2:-0.81713967 
512 1:-0.36143417 2:-0.36143417 
512 1:0 2:0 
502.82459288868466 1:-0.38696683 2:-0.38696683 
512 1:-0.76969269 2:-0.76969269 
512 1:0.93243824 2:0.93243824 
123.4303624893318 1:-0.79024916 2:-0.79024916 
512 1:-0.51209481 2:-0.51209481 
512 1:-0.86918021 2:-0.86918021 
512 1:-0.0095977757 2:-0.0095977757 
512 1:0.21200672 2:0.21200672 
512 1:-0.52647992 2:-0.52647992 
495.77796497598735 1:-0.85192429 2:-0.85192429 
512 1:-0.65000428 2:-0.65000428 
512 1:-0.91813229 2:-0.91813229 
512 1:0.13789443 2:0.13789443 
511.53522709140748 1:-0.89754708 2:-0.89754708 
380.36382726039545 1:-0.29026912 2:-0.29026912 
476.45234729557905 1:0.17423842 2:0.17423842 
112.17529042509842 1:-0.95286844 2:-0.95286844 
512 1:-0.41494334 2:-0.41494334 
512 1:-0.93369526 2:-0.93369526 
512 1:0.96040076 2:0.96040076 
512 1:-0.14886848 2:-0.14886848 
512 1:0.34873999 2:0.34873999 
512 1:-0.38896652 2:-0.38896652 
250.27885610689313 1:0.10081238 2:0.10081238 
512 1:-0.18181572 2:-0.18181572 
512 1:0.79968308 2:0.79968308 
467.00367476914704 1:0.7535766 2:0.7535766 
26.984714039915918 1:0.94200301 2:0.94200301 
0.10804065608182645 1:-0.16329444 2:-0.16329444 
512 1:-0.6683259 2:-0.6683259 
512 1:-0.13765981 2:-0.13765981 
512 1:-0.14722746 2:-0.14722746 
512 1:-0.91442611 2:-0.91442611 
512 1:0.27964426 2:0.27964426 
512 1:-0.25552771 2:-0.25552771 
303.15359319291036 1:0.45345907 2:0.45345907 
512 1:0.28810592 2:0.28810592 
250.60830956321004 1:0.7293859 2:0.7293859 
512 1:-0.0022679386 2:-0.0022679386 
454.28711394395197 1:0.99584624 2:0.99584624 
512 1:-0.49035662 2:-0.49035662 
0.60109525380866835 1:0.66554158 2:0.66554158 
20.228521890799062 1:-0.68257915 2:-0.68257915 
512 1:0.83264503 2:0.83264503 
1.6566818369578744 1:0.8718006 2:0.8718006 
36.850551213821461 1:-0.56658947 2:-0.56658947 
477.97573053061853 1:0.81411797 2:0.81411797 
385.67707627425443 1:-0.5803285 2:-0.5803285 
29.77217062485407 1:0.25882115 2:0.25882115 
183.14088083335952 1:0.091713463 2:0.091713463 
510.8268818112025 1:-0.52650122 2:-0.52650122 
512 1:-0.24798201 2:-0.24798201 
9.9995971733207263 1:-0.72314574 2:-0.72314574 
512 1:0.9732618 2:0.9732618 
512 1:-0.90844545 2:-0.90844545 
325.09624163243546 1:0.14595314 2:0.14595314 
512 1:-0.19724892 2:-0.19724892 
512 1:-0.12365798 2:-0.12365798 
512 1:-0.31813047 2:-0.31813047 
512 1:-0.31072725 2:-0.31072725 
512 1:-0.79644577 2:-0.79644577 
512 1:-0.97451741 2:-0.97451741 
512 1:-0.81546108 2:-0.81546108 
512 1:0.33347658 2:0.33347658 
508.81079114471089 1:0.74209887 2:0.74209887 
512 1:-0.63534368 2:-0.63534368 
512 1:-0.062682887 2:-0.062682887 
35.888902000766599 1:0.8770516 2:0.8770516 
512 1:0.012373246 2:0.012373246 
512 1:0.21249739 2:0.21249739 
512 1:-0.31972806 2:-0.31972806 
512 1:-0.45684642 2:-0.45684642 
512 1:-0.018935882 2:-0.018935882 
512 1:0.016104178 2:0.016104178 
512 1:-0.66191664 2:-0.66191664 
512 1:-0.60325711 2:-0.60325711 
512 1:0.46285482 2:0.46285482 
512 1:-0.56960527 2:-0.56960527 
512 1:0.039638416 2:0.039638416 
428.94156255808929 1:-0.96401705 2:-0.96401705 
23.989451223761147 1:-0.70468728 2:-0.70468728 
512 1:0.028303868 2:0.028303868 
1.2648975646623453 1:-0.63576892 2:-0.63576892 
512 1:0.96564264 2:0.96564264 
498.77724013722838 1:-0.62916518 2:-0.62916518 
512 1:0.73945231 2:0.73945231 
168.78602511365176 1:0.33260586 2:0.33260586 
7.6879264096008715 1:0.46635969 2:0.46635969 
512 1:-0.21950686 2:-0.21950686 
512 1:0.51098543 2:0.51098543 
512 1:-0.33060477 2:-0.33060477 
512 1:0.9598544 2:0.9598544 
29.723121683636801 1:-0.90199197 2:-0.90199197 
274.09361079772907 1:0.41141289 2:0.41141289 
512 1:0.25568902 2:0.25568902 
512 1:-0.9831874 2:-0.9831874 
512 1:-0.23533467 2:-0.23533467 
338.26174898931981 1:0.27815994 2:0.27815994 
512 1:0.37056193 2:0.37056193 
444.38472983309356 1:0.2917966 2:0.2917966 
101.40508884465314 1:-0.26908131 2:-0.26908131 
512 1:-0.047375218 2:-0.047375218 
512 1:-0.69014776 2:-0.69014776 
512 1:-0.48578145 2:-0.48578145 
58.539405689332334 1:0.061575613 2:0.061575613 
512 1:-0.47390922 2:-0.47390922 
512 1:0.23319097 2:0.23319097 
238.49297301012297 1:0.57491792 2:0.57491792 
254.22355445883309 1:-0.7341371 2:-0.7341371 
512 1:-0.89180338 2:-0.89180338 
37.006060178895112 1:0.38382719 2:0.38382719 
512 1:-0.64864732 2:-0.64864732 
512 1:0.0040394594 2:0.0040394594 
512 1:-0.31821762 2:-0.31821762 
512 1:-0.48137153 2:-0.48137153 
426.1635266755867 1:0.50293161 2:0.50293161 
512 1:0.82124195 2:0.82124195 
512 1:-0.24188777 2:-0.24188777 
58.38739983331682 1:0.44181549 2:0.44181549 
0.98512123196175938 1:0.64363701 2:0.64363701 
512 1:0.56492085 2:0.56492085 
447.03670168547245 1:-0.91793256 2:-0.91793256 
167.27462631808351 1:0.23263586 2:0.23263586 
512 1:-0.26479497 2:-0.26479497 
512 1:-0.63257181 2:-0.63257181 
457.1272781211004 1:-0.52788344 2:-0.52788344 
500.1578279483204 1:0.40672757 2:0.40672757 
160.41371828735464 1:-0.97757036 2:-0.97757036 
29.469778059120156 1:0.84097926 2:0.84097926 
5.8340001134146817 1:0.049814064 2:0.049814064 
512 1:-0.124288 2:-0.124288 
512 1:-0.469026 2:-0.469026 
11.132167485934698 1:-0.36144747 2:-0.36144747 
512 1:-0.41593469 2:-0.41593469 
439.34184746463609 1:-0.64163834 2:-0.64163834 
512 1:0.78188389 2:0.78188389 
495.91078530338757 1:-0.17536461 2:-0.17536461 
107.31017808491434 1:-0.27256083 2:-0.27256083 
512 1:-0.40704291 2:-0.40704291 
512 1:-0.22237332 2:-0.22237332 
512 1:0.67730762 2:0.67730762 
512 1:0.77975248 2:0.77975248 
512 1:-0.94807396 2:-0.94807396 
512 1:-0.20995088 2:-0.20995088 
512 1:-0.58887391 2:-0.58887391 
512 1:-0.10003726 2:-0.10003726 
512 1:-0.37716602 2:-0.37716602 
512 1:0.99364386 2:0.99364386 
512 1:0.99206105 2:0.99206105 
293.3599184032492 1:0.58613874 2:0.58613874 
512 1:0.40855432 2:0.40855432 
512 1:-0.66192019 2:-0.66192019 
512 1:-0.063170049 2:-0.063170049 
512 1:-0.096949152 2:-0.096949152 
512 1:-0.27117172 2:-0.27117172 
512 1:0.18612456 2:0.18612456 
512 1:-0.51609993 2:-0.51609993 
499.62355469028734 1:-0.34144387 2:-0.34144387 
512 1:-0.86819505 2:-0.86819505 
512 1:-0.62953566 2:-0.62953566 
512 1:-0.77005155 2:-0.77005155 
512 1:-0.68901042 2:-0.68901042 
512 1:0.023780728 2:0.023780728 
512 1:0.43247029 2:0.43247029 
436.43065790068488 1:0.39099963 2:0.39099963 
430.77142709131493 1:0.65957387 2:0.65957387 
512 1:0.44188181 2:0.44188181 
512 1:0.76960961 2:0.76960961 
367.76946528835254 1:-0.47305758 2:-0.47305758 
512 1:0.2562272 2:0.2562272 
512 1:-0.14873684 2:-0.14873684 
48.335463353719696 1:0.35630882 2:0.35630882 
512 1:0.35282837 2:0.35282837 
512 1:0.24311536 2:0.24311536 
512 1:-0.36574921 2:-0.36574921 
512 1:-0.6341773 2:-0.6341773 
512 1:-0.59938974 2:-0.59938974 
0.8907465400243193 1:0.71328228 2:0.71328228 
67.573091090455691 1:1 2:1 
431.60262383939175 1:0.22849655 2:0.22849655 
512 1:1 2:1 
512 1:1 2:1 
512 1:0.56066286 2:0.56066286 
427.25409883640367 1:-0.84857897 2:-0.84857897 
14.838541422135931 1:0.60828512 2:0.60828512 
511.49658601850581 1:0.39393976 2:0.39393976 
512 1:-0.41680084 2:-0.41680084 
512 1:-0.28272928 2:-0.28272928 
512 1:1 2:1 
512 1:1 2:1 
512 1:1 2:1 
512 1:0.023599588 2:0.023599588 
512 1:-0.40516483 2:-0.40516483 
511.98929994640889 1:0.64688941 2:0.64688941 
0.49297230921813173 1:-0.36465307 2:-0.36465307 
512 1:-0.90191435 2:-0.90191435 
512 1:0.35136448 2:0.35136448 
512 1:1 2:1 
512 1:0.30163537 2:0.30163537 
512 1:1 2:1 
141.42379364875862 1:-0.86364697 2:-0.86364697 
512 1:-0.091547468 2:-0.091547468 
512 1:-0.74528995 2:-0.74528995 
512 1:0.21823383 2:0.21823383 
378.19797696039984 1:-0.38037271 2:-0.38037271 
512 1:1 2:1 
512 1:-0.27806323 2:-0.27806323 
512 1:1 2:1 
512 1:1 2:1 
512 1:-0.85663339 2:-0.85663339 
512 1:-0.70524351 2:-0.70524351 
512 1:1 2:1 
512 1:0.88219856 2:0.88219856 
512 1:1 2:1 
491.71593732238347 1:0.85332635 2:0.85332635 
512 1:-0.32788238 2:-0.32788238 
168.96134444524876 1:-0.95833911 2:-0.95833911 
512 1:-1 2:-1 
512 1:-0.027947819 2:-0.027947819 
512 1:0.47877774 2:0.47877774 
512 1:-0.60599519 2:-0.60599519 
512 1:0.1068492 2:0.1068492 
512 1:-1 2:-1 
496.89004057872921 1:0.36488466 2:0.36488466 
512 1:-1 2:-1 
473.15721092879812 1:-0.6544476 2:-0.6544476 
512 1:1 2:1 
511.41165763889154 1:0.82516547 2:0.82516547 
512 1:1 2:1 
512 1:1 2:1 
58.319676803388674 1:-0.066510834 2:-0.066510834 
281.72879977277535 1:-0.65256339 2:-0.65256339 
512 1:1 2:1 
512 1:-1 2:-1 
512 1:-0.12247137 2:-0.12247137 
512 1:-1 2:-1 
512 1:-0.19195705 2:-0.19195705 
512 1:-0.29085309 2:-0.29085309 
374.56600692167711 1:-0.32388173 2:-0.32388173 
512 1:1 2:1 
512 1:-0.33771631 2:-0.33771631 
512 1:-1 2:-1 
254.58667567022437 1:0.12540513 2:0.12540513 
512 1:1 2:1 
512 1:-1 2:-1 
512 1:1 2:1 
512 1:-0.08145785 2:-0.08145785 
506.63366879815425 1:-0.44233343 2:-0.44233343 
512 1:-1 2:-1 
239.16118230545999 1:-0.17715849 2:-0.17715849 
512 1:-1 2:-1 
512 1:-1 2:-1 
177.30464708162609 1:0.79768531 2:0.79768531 
512 1:-1 2:-1 
512 1:1 2:1 
512 1:-1 2:-1 
512 1:1 2:1 
512 1:-1 2:-1 
512 1:-1 2:-1 
512 1:0.13679934 2:0.13679934 
512 1:0.037847299 2:0.037847299 
512 1:1 2:1 
512 1:-0.43597084 2:-0.43597084 
504.24902346408902 1:0.5347056 2:0.5347056 
512 1:-0.14766407 2:-0.14766407 
59.528899976769765 1:-0.42822159 2:-0.42822159 
512 1:1 2:1 
512 1:0.17600868 2:0.17600868 
512 1:1 2:1 
512 1:-0.040399673 2:-0.040399673 
31.336374171416889 1:0.95737498 2:0.95737498 
512 1:-1 2:-1 
512 1:1 2:1 
512 1:-0.49909853 2:-0.49909853 
463.2876381813399 1:-0.22792729 2:-0.22792729 
512 1:1 2:1 
512 1:-0.44449277 2:-0.44449277 
512 1:-0.35728448 2:-0.35728448 
512 1:-1 2:-1 
512 1:1 2:1 
512 1:-0.48061568 2:-0.48061568 
512 1:-0.51917795 2:-0.51917795 
512 1:0.89097024 2:0.89097024 
285.14688978187297 1:0.42960823 2:0.42960823 
512 1:-0.98760485 2:-0.98760485 
512 1:0.1207251 2:0.1207251 
512 1:-0.30238389 2:-0.30238389 
459.12472806151845 1:0.32403991 2:0.32403991 
512 1:-0.94187316 2:-0.94187316 
512 1:-0.11580144 2:-0.11580144 
512 1:-1 2:-1 
512 1:0.31137021 2:0.31137021 
512 1:-0.17027458 2:-0.17027458 
512 1:-1 2:-1 
512 1:-1 2:-1 
512 1:-0.78363568 2:-0.78363568 
512 1:1 2:1 
510.08829723149802 1:0.75824021 2:0.75824021 
512 1:-0.63827934 2:-0.63827934 
512 1:1 2:1 
512 1:-1 2:-1 
512 1:-1 2:-1 
512 1:1 2:1 
512 1:0.25135149 2:0.25135149 
512 1:1 2:1 
512 1:-0.16221153 2:-0.16221153 
512 1:-0.67157356 2:-0.67157356 
512 1:-0.84225103 2:-0.84225103 
512 1:1 2:1 
43.668018005353659 1:0.91629113 2:0.91629113 
22.711603250891017 1:0.77598632 2:0.77598632 
512 1:1 2:1 
512 1:1 2:1 
497.0686955806994 1:0.49068312 2:0.49068312 
512 1:1 2:1 
512 1:1 2:1 
512 1:-0.60450145 2:-0.60450145 
512 1:-0.43879929 2:-0.43879929 
512 1:1 2:1 
512 1:1 2:1 
512 1:-0.75830649 2:-0.75830649 
512 1:-0.86692667 2:-0.86692667 
512 1:0.0012349228 2:0.0012349228 
0.63095373854674441 1:0.79334785 2:0.79334785 
88.555723950354405 1:-0.74888032 2:-0.74888032 
512 1:1 2:1 
512 1:-0.40311567 2:-0.40311567 
512 1:0.079985688 2:0.079985688 
86.15496699504186 1:-0.43109461 2:-0.43109461 
421.61250844353566 1:-0.22136035 2:-0.22136035 
385.34276253748646 1:-0.04287946 2:-0.04287946 
512 1:0.87102635 2:0.87102635 
512 1:-1 2:-1 
512 1:-0.44215937 2:-0.44215937 
512 1:1 2:1 
512 1:-0.81879814 2:-0.81879814 
512 1:-1 2:-1 
512 1:0.10147977 2:0.10147977 
512 1:-0.11718704 2:-0.11718704 
4.6999270413920078 1:0.15131193 2:0.15131193 
512 1:-0.34514585 2:-0.34514585 
512 1:-1 2:-1 
346.88754227936096 1:-0.55458496 2:-0.55458496 
512 1:1 2:1 
512 1:-0.45339192 2:-0.45339192 
512 1:-0.83308359 2:-0.83308359 
11.507514230744952 1:-0.16666551 2:-0.16666551 
22.492923120340002 1:-0.64959464 2:-0.64959464 
512 1:-0.27306305 2:-0.27306305 
66.900674290019651 1:-0.26433579 2:-0.26433579 
512 1:-0.1033852 2:-0.1033852 
511.55610216014372 1:1 2:1 
512 1:-0.26066904 2:-0.26066904 
512 1:-0.18871201 2:-0.18871201 
512 1:-0.69739597 2:-0.69739597 
512 1:-1 2:-1 
512 1:1 2:1 
512 1:-0.30444324 2:-0.30444324 
512 1:1 2:1 
504.81500438482146 1:1 2:1 
36.769884498704528 1:0.14021693 2:0.14021693 
512 1:0.14958388 2:0.14958388 
512 1:0.76053438 2:0.76053438 
8.8211862819245734 1:-0.60279557 2:-0.60279557 
2.0185221105218929 1:-0.67297431 2:-0.67297431 
512 1:-0.7708078 2:-0.7708078 
512 1:-1 2:-1 
512 1:-0.12098795 2:-0.12098795 
512 1:0.28022341 2:0.28022341 
512 1:-0.84466887 2:-0.84466887 
85.724770517216385 1:-0.14022491 2:-0.14022491 
87.692087856705498 1:-0.6509938 2:-0.6509938 
268.87959498765952 1:0.23654936 2:0.23654936 
512 1:0.17281451 2:0.17281451 
512 1:-1 2:-1 
512 1:-1 2:-1 
512 1:-1 2:-1 
505.38529442359072 1:1 2:1 
2.4069431204506824 1:-0.77692166 2:-0.77692166 
511.98878765361661 1:-1 2:-1 
512 1:0.11292515 2:0.11292515 
510.29830470491675 1:1 2:1 
512 1:-1 2:-1 
508.18469440869177 1:1 2:1 
510.31992526631416 1:1 2:1 
512 1:0.95450034 2:0.95450034 
512 1:-1 2:-1 
512 1:-0.3426389 2:-0.3426389 
512 1:-0.65593165 2:-0.65593165 
512 1:0.088313182 2:0.088313182 
512 1:-0.0727912 2:-0.0727912 
354.30205076426319 1:-0.82456831 2:-0.82456831 
512 1:-1 2:-1 
509.40936882554632 1:1 2:1 
512 1:0.82094616 2:0.82094616 
509.58299000038147 1:-1 2:-1 
507.88238881310315 1:1 2:1 
512 1:0.39060703 2:0.39060703 
508.72223644507619 1:-1 2:-1 
512 1:-0.013353401 2:-0.013353401 
0.02472612877890229 1:0.1376612 2:0.1376612 
342.58543719616023 1:-0.89763806 2:-0.89763806 
512 1:-0.060106436 2:-0.060106436 
512 1:-0.040833566 2:-0.040833566 
511.68756748149491 1:1 2:1 
512 1:-1 2:-1 
405.00541402511715 1:0.67000961 2:0.67000961 
507.91876308065343 1:0.85728176 2:0.85728176 
145.04353595912573 1:0.034552018 2:0.034552018 
512 1:0.94704673 2:0.94704673 
5.7964894864325176 1:0.6816286 2:0.6816286 
512 1:-0.71093785 2:-0.71093785 
512 1:-0.013011174 2:-0.013011174 
511.86171762881571 1:-1 2:-1 
44.47155792920028 1:0.60033611 2:0.60033611 
512 1:1 2:1 
512 1:-0.97411697 2:-0.97411697 
511.28554015631528 1:1 2:1 
512 1:0.84793207 2:0.84793207 
512 1:-1 2:-1 
512 1:-0.36581151 2:-0.36581151 
512 1:-0.49402263 2:-0.49402263 
512 1:-0.068275845 2:-0.068275845 
511.34600818725573 1:1 2:1 
512 1:-0.47243213 2:-0.47243213 
510.71966728734458 1:1 2:1 
225.07411858981811 1:0.73595029 2:0.73595029 
164.90110660933075 1:-0.66286436 2:-0.66286436 
512 1:-1 2:-1 
512 1:-1 2:-1 
512 1:-1 2:-1 
500.38969595576486 1:-0.17061947 2:-0.17061947 
512 1:-0.934381 2:-0.934381 
510.80213249382939 1:1 2:1 
512 1:-0.80610558 2:-0.80610558 
512 1:-1 2:-1 
511.06240484349007 1:1 2:1 
512 1:0.77890194 2:0.77890194 
512 1:-0.97799154 2:-0.97799154 
5.051475684870594 1:-0.87704389 2:-0.87704389 
512 1:-1 2:-1 
511.2384234721884 1:-0.74261622 2:-0.74261622 
5.876309364475353 1:-0.20612849 2:-0.20612849 
445.86077717479884 1:-0.45526729 2:-0.45526729 
512 1:-0.41262313 2:-0.41262313 
510.09098593662776 1:1 2:1 
512 1:-0.81823736 2:-0.81823736 
512 1:-0.065771212 2:-0.065771212 
511.19929350435996 1:1 2:1 
512 1:-0.25947771 2:-0.25947771 
510.82435710199655 1:-1 2:-1 
511.87943797937561 1:1 2:1 
511.81751814878419 1:1 2:1 
222.08974084661301 1:0.32730227 2:0.32730227 
512 1:-0.30648834 2:-0.30648834 
312.28463679319708 1:-0.10617947 2:-0.10617947 
3.6124941072036183 1:-0.35587356 2:-0.35587356 
511.93222383680899 1:0 2:0 
351.42661843670044 1:0.18501459 2:0.18501459 
512 1:-1 2:-1 
512 1:-0.74866883 2:-0.74866883 
511.63140267518992 1:-1 2:-1 
1.2826654232339612 1:-0.08047617 2:-0.08047617 
512 1:-0.056783064 2:-0.056783064 
201.33741214696843 1:-0.94980157 2:-0.94980157 
504.17103980002179 1:1 2:1 
512 1:-0.23952469 2:-0.23952469 
511.72055443532662 1:-1 2:-1 
510.48249008240708 1:-1 2:-1 
505.04222367089045 1:1 2:1 
511.24779990270849 1:-1 2:-1 
512 1:0.9836295 2:0.9836295 
503.47137159746126 1:1 2:1 
33.495854577073047 1:-0.73069736 2:-0.73069736 
511.56715633240157 1:-1 2:-1 
495.93759283078015 1:1 2:1 
0.018076423752274497 1:-0.06125681 2:-0.06125681 
511.99509609417134 1:-1 2:-1 
511.96954475903203 1:-1 2:-1 
512 1:-0.38444298 2:-0.38444298 
511.78865989545272 1:-1 2:-1 
512 1:0.21651051 2:0.21651051 
512 1:-0.35086207 2:-0.35086207 
512 1:-0.50188776 2:-0.50188776 
512 1:-1 2:-1 
441.35521533822032 1:-0.35435438 2:-0.35435438 
25.266103702975119 1:0.63285548 2:0.63285548 
512 1:-0.087387006 2:-0.087387006 
512 1:0.23885767 2:0.23885767 
512 1:-0.7608707 2:-0.7608707 
512 1:1 2:1 
511.89792702265231 1:0.14247938 2:0.14247938 
512 1:1 2:1 
421.42324706591739 1:-0.69090434 2:-0.69090434 
510.21288033393358 1:1 2:1 
511.52184019697484 1:1 2:1 
512 1:-1 2:-1 
512 1:-0.9398856 2:-0.9398856 
512 1:-1 2:-1 
421.48325433648591 1:-0.26953762 2:-0.26953762 
510.69586747171627 1:1 2:1 
512 1:-0.28779998 2:-0.28779998 
511.23000979868726 1:1 2:1 
474.53208572038812 1:0.351388 2:0.351388 
512 1:-0.025971868 2:-0.025971868 
511.97065866292905 1:-1 2:-1 
492.50042218312285 1:-0.95805937 2:-0.95805937 
512 1:-0.53757194 2:-0.53757194 
512 1:0.0080892649 2:0.0080892649 
512 1:-0.24353096 2:-0.24353096 
512 1:0.20439907 2:0.20439907 
512 1:0.36706896 2:0.36706896 
511.44699741468281 1:-1 2:-1 
13.659797465835961 1:-0.54487209 2:-0.54487209 
512 1:-0.60241885 2:-0.60241885 
512 1:0.45123282 2:0.45123282 
512 1:-1 2:-1 
495.92777835217549 1:1 2:1 
512 1:-0.61642881 2:-0.61642881 
512 1:-0.46255435 2:-0.46255435 
511.84147880643093 1:-1 2:-1 
511.87485724084121 1:-1 2:-1 
512 1:-1 2:-1 
509.34771705690486 1:1 2:1 
510.54813137004106 1:0.7714044 2:0.7714044 
512 1:-0.080019359 2:-0.080019359 
511.43162180221566 1:-1 2:-1 
512 1:-0.54547522 2:-0.54547522 
512 1:0.38468127 2:0.38468127 
504.94775541712374 1:1 2:1 
512 1:0.37599056 2:0.37599056 
512 1:-0.67794587 2:-0.67794587 
512 1:-0.54207323 2:-0.54207323 
308.34532423288817 1:0.5846747 2:0.5846747 
512 1:-0.25880586 2:-0.25880586 
512 1:1 2:1 
498.34614755646669 1:1 2:1 
512 1:-1 2:-1 
511.25987060454651 1:-1 2:-1 
512 1:-0.41310887 2:-0.41310887 
383.73684449473637 1:0.51741341 2:0.51741341 
512 1:-0.16006501 2:-0.16006501 
511.62112911817957 1:1 2:1 
474.54716910426544 1:1 2:1 
512 1:-0.37501107 2:-0.37501107 
303.43496431980429 1:0.42075592 2:0.42075592 
507.54390945394675 1:1 2:1 
512 1:-0.35561168 2:-0.35561168 
511.76003877223621 1:-1 2:-1 
512 1:0.26123847 2:0.26123847 
505.28361180329597 1:1 2:1 
475.4986711193111 1:-0.013362167 2:-0.013362167 
480.62139154525244 1:1 2:1 
512 1:-1 2:-1 
511.97600448204486 1:-1 2:-1 
512 1:0.96051551 2:0.96051551 
511.694934724311 1:-1 2:-1 
415.89297004149108 1:-0.51157754 2:-0.51157754 
380.67137479103104 1:0.96291901 2:0.96291901 
389.38568678722686 1:-0.11713651 2:-0.11713651 
482.12348991320096 1:-0.89145361 2:-0.89145361 
512 1:0.55191924 2:0.55191924 
451.17689052497252 1:1 2:1 
512 1:-0.77356806 2:-0.77356806 
512 1:-0.45396882 2:-0.45396882 
510.96663575229451 1:-1 2:-1 
42.043215885070737 1:0.028382289 2:0.028382289 
478.06631952605125 1:0.64958259 2:0.64958259 
46.955133058604247 1:0.61428654 2:0.61428654 
197.91979052346682 1:0.25488091 2:0.25488091 
510.21061430831082 1:-0.11160542 2:-0.11160542 
512 1:-1 2:-1 
512 1:-0.42614572 2:-0.42614572 
512 1:0.24446877 2:0.24446877 
512 1:-0.34578404 2:-0.34578404 
464.75410756630714 1:0.41728483 2:0.41728483 
511.56361790621651 1:-1 2:-1 
512 1:0.73533376 2:0.73533376 
386.08161693602852 1:0.70321461 2:0.70321461 
512 1:0.47903013 2:0.47903013 
510.79425875500471 1:-1 2:-1 
512 1:-0.34461992 2:-0.34461992 
512 1:0.71587691 2:0.71587691 
507.54165125823653 1:1 2:1 
508.08479937505547 1:-0.80893354 2:-0.80893354 
512 1:-0.080101291 2:-0.080101291 
13.694692941409569 1:0.11271144 2:0.11271144 
512 1:0.21694352 2:0.21694352 
507.7851367738113 1:1 2:1 
512 1:0.68533284 2:0.68533284 
490.80652647964729 1:-0.37762418 2:-0.37762418 
454.78245799483585 1:-0.60057371 2:-0.60057371 
512 1:0.59066479 2:0.59066479 
512 1:1 2:1 
512 1:-0.60904938 2:-0.60904938 
512 1:1 2:1 
509.69034679438028 1:1 2:1 
505.23531446923755 1:1 2:1 
511.99374536234785 1:-1 2:-1 
512 1:-0.52702825 2:-0.52702825 
496.35812657076707 1:1 2:1 
512 1:0 2:0 
460.58345323012111 1:0.89682206 2:0.89682206 
512 1:-0.18861592 2:-0.18861592 
512 1:-0.68403377 2:-0.68403377 
0.10321901050984246 1:0.11687728 2:0.11687728 
512 1:0.75059922 2:0.75059922 
495.87489867092722 1:1 2:1 
512 1:-1 2:-1 
512 1:-0.95000854 2:-0.95000854 
512 1:0.29634546 2:0.29634546 
512 1:-0.71754828 2:-0.71754828 
495.84598686065175 1:1 2:1 
512 1:0.43515621 2:0.43515621 
512 1:-0.20845653 2:-0.20845653 
512 1:0.27233686 2:0.27233686 
512 1:-0.25252663 2:-0.25252663 
512 1:-0.20788184 2:-0.20788184 
512 1:-1 2:-1 
493.7316640941109 1:1 2:1 
492.91468253082076 1:-0.90690034 2:-0.90690034 
512 1:-0.10395214 2:-0.10395214 
512 1:-0.57427245 2:-0.57427245 
512 1:-1 2:-1 
512 1:-0.024364174 2:-0.024364174 
510.4665298150295 1:-1 2:-1 
37.916284406438017 1:0.20103568 2:0.20103568 
62.83291322635408 1:0.11742126 2:0.11742126 
461.4131048494682 1:0.54979797 2:0.54979797 
471.34640358846781 1:-1 2:-1 
512 1:-0.23216882 2:-0.23216882 
512 1:-0.84417671 2:-0.84417671 
349.13931441573845 1:0.30944612 2:0.30944612 
495.43606850529113 1:1 2:1 
512 1:0.18165814 2:0.18165814 
512 1:1 2:1 
460.25946496280216 1:1 2:1 
512 1:-0.18474522 2:-0.18474522 
512 1:0.32247351 2:0.32247351 
497.03816798824084 1:1 2:1 
492.95630094534158 1:1 2:1 
511.70651756291755 1:-1 2:-1 
4.8474963593098703 1:0.15818548 2:0.15818548 
25.339329903823035 1:0.20552268 2:0.20552268 
462.02770283710362 1:1 2:1 
512 1:0.71740078 2:0.71740078 
476.38619239898026 1:-0.12066776 2:-0.12066776 
509.57499101856575 1:-1 2:-1 
512 1:-0.449802 2:-0.449802 
373.18922621460985 1:1 2:1 
-512 1:-0.96027266 2:-0.96027266 
-512 1:-0.35954036 2:-0.35954036 
-512 1:-0.4208627 2:-0.4208627 
-512 1:0.71630462 2:0.71630462 
-512 1:1 2:1 
-512 1:0.6571391 2:0.6571391 
-512 1:-0.32433165 2:-0.32433165 
-512 1:-0.61460123 2:-0.61460123 
-512 1:0.56341969 2:0.56341969 
-512 1:1 2:1 
-512 1:1 2:1 
-512 1:1 2:1 
-512 1:0.26642932 2:0.26642932 
-512 1:-1 2:-1 
-512 1:-0.31849381 2:-0.31849381 
-512 1:0.10583357 2:0.10583357 
-512 1:-1 2:-1 
-512 1:-0.87555755 2:-0.87555755 
-512 1:0.17242234 2:0.17242234 
-512 1:-0.58181915 2:-0.58181915 
-512 1:-0.45797798 2:-0.45797798 
-512 1:-0.76134712 2:-0.76134712 
-512 1:-0.84632258 2:-0.84632258 
-512 1:-0.20083028 2:-0.20083028 
-512 1:0.28741403 2:0.28741403 
-512 1:0.1861471 2:0.1861471 
-512 1:-1 2:-1 
-512 1:-0.33551736 2:-0.33551736 
-512 1:0.30262566 2:0.30262566 
-512 1:-0.29112982 2:-0.29112982 
-512 1:-0.25294084 2:-0.25294084 
-512 1:0.013199051 2:0.013199051 
-512 1:1 2:1 
-512 1:-1 2:-1 
-512 1:0.3038077 2:0.3038077 
-512 1:-0.62381354 2:-0.62381354 
-512 1:0.91108836 2:0.91108836 
-512 1:-0.10061276 2:-0.10061276 
-512 1:-0.91618419 2:-0.91618419 
-512 1:4.2528373e-05 2:4.2528373e-05 
-512 1:-0.1207759 2:-0.1207759 
-512 1:1 2:1 
-512 1:-1 2:-1 
-512 1:0.83041143 2:0.83041143 
-512 1:-0.39609542 2:-0.39609542 
-512 1:0.74004749 2:0.74004749 
-512 1:-0.35350364 2:-0.35350364 
-512 1:0.51800597 2:0.51800597 
-512 1:0.96305932 2:0.96305932 
-512 1:-1 2:-1 
-512 1:-0.87998519 2:-0.87998519 
-512 1:-0.61235723 2:-0.61235723 
-512 1:-1 2:-1 
-512 1:-0.88430608 2:-0.88430608 
-512 1:-1 2:-1 
-512 1:-0.33253538 2:-0.33253538 
-512 1:-0.74295408 2:-0.74295408 
-512 1:-0.15631412 2:-0.15631412 
-512 1:0.13892674 2:0.13892674 
-512 1:1 2:1 
-512 1:-1 2:-1 
-512 1:-0.079557349 2:-0.079557349 
-512 1:-1 2:-1 
-512 1:0.33593519 2:0.33593519 
-512 1:-0.33580133 2:-0.33580133 
-512 1:0.42801358 2:0.42801358 
-512 1:0.55956934 2:0.55956934 
-512 1:-1 2:-1 
-512 1:0.41508532 2:0.41508532 
-512 1:0.9664307 2:0.9664307 
-512 1:-0.24419735 2:-0.24419735 
-512 1:-0.24977718 2:-0.24977718 
-512 1:1 2:1 
-512 1:0.6611634 2:0.6611634 
-512 1:-0.34175929 2:-0.34175929 
-512 1:-1 2:-1 
-512 1:0.47350995 2:0.47350995 
-512 1:-0.36484494 2:-0.36484494 
-512 1:-0.39953513 2:-0.39953513 
-512 1:-0.49631372 2:-0.49631372 
-512 1:0.056590555 2:0.056590555 
-512 1:-1 2:-1 
-512 1:-0.062535647 2:-0.062535647 
-512 1:-0.49287418 2:-0.49287418 
-512 1:0.37114243 2:0.37114243 
-512 1:0.8236065 2:0.8236065 
-512 1:-0.48562107 2:-0.48562107 
-512 1:0.51350653 2:0.51350653 
-512 1:-0.12271466 2:-0.12271466 
-512 1:-0.19511267 2:-0.19511267 
-512 1:-0.53364596 2:-0.53364596 
-512 1:-0.079034865 2:-0.079034865 
-512 1:1 2:1 
-512 1:-0.55689658 2:-0.55689658 
-512 1:-0.56893125 2:-0.56893125 
-512 1:-1 2:-1 
-512 1:-0.29954921 2:-0.29954921 
-512 1:0.39149121 2:0.39149121 
-512 1:-1 2:-1 
-512 1:-0.30414262 2:-0.30414262 
-512 1:0.15151053 2:0.15151053 
-512 1:-0.34627428 2:-0.34627428 
-512 1:1 2:1 
-512 1:0.48252948 2:0.48252948 
-512 1:-1 2:-1 
-512 1:-0.24274971 2:-0.24274971 
-512 1:0.28724128 2:0.28724128 
-512 1:0.39825279 2:0.39825279 
-512 1:0.25029842 2:0.25029842 
-512 1:0.13115559 2:0.13115559 
-512 1:-0.094338809 2:-0.094338809 
-512 1:1 2:1 
-512 1:1 2:1 
-512 1:0 2:0 
-512 1:-1 2:-1 
-512 1:-0.25826358 2:-0.25826358 
-512 1:0.52428225 2:0.52428225 
-512 1:-1 2:-1 
-512 1:0.036125541 2:0.036125541 
-512 1:-0.86833217 2:-0.86833217 
-512 1:0.97528791 2:0.97528791 
-512 1:0.67812451 2:0.67812451 
-512 1:-0.13622671 2:-0.13622671 
-512 1:0.57328852 2:0.57328852 
-512 1:-0.58179971 2:-0.58179971 
-512 1:-0.99451096 2:-0.99451096 
-512 1:-0.23541796 2:-0.23541796 
-512 1:1 2:1 
-512 1:-1 2:-1 
-512 1:1 2:1 
-512 1:0.27399479 2:0.27399479 
-512 1:-1 2:-1 
-512 1:1 2:1 
-512 1:-1 2:-1 
-512 1:0.25497446 2:0.25497446 
-512 1:1 2:1 
-512 1:0.24257824 2:0.24257824 
-512 1:1 2:1 
-512 1:-1 2:-1 
-512 1:0.21544477 2:0.21544477 
-512 1:1 2:1 
-512 1:1 2:1 
-512 1:-0.018915443 2:-0.018915443 
-512 1:0.25022231 2:0.25022231 
-512 1:0.11358932 2:0.11358932 
-512 1:-0.43272452 2:-0.43272452 
-512 1:-0.15656505 2:-0.15656505 
-512 1:0.12329089 2:0.12329089 
-512 1:-0.50617522 2:-0.50617522 
-512 1:-1 2:-1 
-512 1:-1 2:-1 
-512 1:0.43985595 2:0.43985595 
-512 1:1 2:1 
-512 1:-0.50191901 2:-0.50191901 
-512 1:-1 2:-1 
-512 1:1 2:1 
-512 1:1 2:1 
-512 1:0.31649519 2:0.31649519 
-512 1:1 2:1 
-512 1:-0.93730707 2:-0.93730707 
-512 1:-0.95541451 2:-0.95541451 
-512 1:-0.13293168 2:-0.13293168 
-512 1:0 2:0 
-512 1:0.18393092 2:0.18393092 
-512 1:-0.65171167 2:-0.65171167 
-512 1:-1 2:-1 
-512 1:-1 2:-1 
-512 1:-0.59237704 2:-0.59237704 
-512 1:-1 2:-1 
-512 1:1 2:1 
-512 1:-0.14787368 2:-0.14787368 
-512 1:-0.85208511 2:-0.85208511 
-512 1:-0.92445934 2:-0.92445934 
-512 1:-0.62460156 2:-0.62460156 
-512 1:1 2:1 
-512 1:0.96127083 2:0.96127083 
-512 1:-0.61264106 2:-0.61264106 
-512 1:-0.028838208 2:-0.028838208 
-512 1:0.27192651 2:0.27192651 
-512 1:-0.02433522 2:-0.02433522 
-512 1:0.24291928 2:0.24291928 
-512 1:-0.22218378 2:-0.22218378 
-512 1:-1 2:-1 
-512 1:1 2:1 
-512 1:1 2:1 
-512 1:1 2:1 
-512 1:-0.13729322 2:-0.13729322 
-512 1:-0.73756566 2:-0.73756566 
-512 1:-0.46986806 2:-0.46986806 
-512 1:-0.92094383 2:-0.92094383 
-512 1:-0.19969939 2:-0.19969939 
-512 1:1 2:1 
-512 1:-1 2:-1 
-512 1:0.37448095 2:0.37448095 
-512 1:0.8320619 2:0.8320619 
-512 1:1 2:1 
-512 1:-0.08082899 2:-0.08082899 
-512 1:0.0031632445 2:0.0031632445 
-512 1:1 2:1 
-512 1:-0.20696327 2:-0.20696327 
-512 1:-0.5059615 2:-0.5059615 
-512 1:-1 2:-1 
-512 1:0.17585335 2:0.17585335 
-512 1:-0.10150973 2:-0.10150973 
-512 1:0.75563213 2:0.75563213 
-512 1:-0.27350925 2:-0.27350925 
-512 1:1 2:1 
-512 1:1 2:1 
-512 1:-0.82055687 2:-0.82055687 
-512 1:-1 2:-1 
-512 1:-0.40255024 2:-0.40255024 
-512 1:-0.69348166 2:-0.69348166 
-512 1:1 2:1 
-512 1:0.4703766 2:0.4703766 
-512 1:-0.53613483 2:-0.53613483 
-512 1:1 2:1 
-512 1:0.014672474 2:0.014672474 
-512 1:-0.45332687 2:-0.45332687 
-512 1:-1 2:-1 
-512 1:-0.63498894 2:-0.63498894 
-512 1:-1 2:-1 
-512 1:-0.75683001 2:-0.75683001 
-512 1:0.74392569 2:0.74392569 
-512 1:-0.52367904 2:-0.52367904 
-512 1:1 2:1 
-512 1:0.8336868 2:0.8336868 
-512 1:-1 2:-1 
-512 1:-0.13515963 2:-0.13515963 
-512 1:1 2:1 
-512 1:-0.73923509 2:-0.73923509 
-512 1:-1 2:-1 
-512 1:-1 2:-1 
-512 1:1 2:1 
-512 1:-0.38753939 2:-0.38753939 
-512 1:0.76209026 2:0.76209026 
-512 1:-0.31671025 2:-0.31671025 
-512 1:0.90391257 2:0.90391257 
-512 1:1 2:1 
-512 1:-0.078610947 2:-0.078610947 
-512 1:-0.61855858 2:-0.61855858 
-512 1:1 2:1 
-512 1:-0.93039087 2:-0.93039087 
-512 1:1 2:1 
-512 1:-1 2:-1 
-512 1:-0.44024499 2:-0.44024499 
-512 1:-0.91697682 2:-0.91697682 
-512 1:-0.63670782 2:-0.63670782 
-512 1:1 2:1 
-512 1:-0.32498809 2:-0.32498809 
-512 1:0.75365718 2:0.75365718 
-512 1:-1 2:-1 
-512 1:0.9670056 2:0.9670056 
-512 1:-0.0029958532 2:-0.0029958532 
-512 1:-0.1754744 2:-0.1754744 
-512 1:-1 2:-1 
-512 1:-0.35957228 2:-0.35957228 
-512 1:1 2:1 
-512 1:1 2:1 
-512 1:0.26060962 2:0.26060962 
-512 1:-1 2:-1 
-512 1:1 2:1 
-512 1:-0.13050999 2:-0.13050999 
-512 1:-0.19866165 2:-0.19866165 
-512 1:0.94967099 2:0.94967099 
-512 1:0.38235392 2:0.38235392 
-512 1:-0.032681999 2:-0.032681999 
-512 1:0.3131876 2:0.3131876 
-512 1:-0.15820881 2:-0.15820881 
-512 1:-0.58351273 2:-0.58351273 
-512 1:-1 2:-1 
-512 1:-0.52210652 2:-0.52210652 
-512 1:1 2:1 
-512 1:0.78325456 2:0.78325456 
-512 1:-0.82335222 2:-0.82335222 
-512 1:-0.96039646 2:-0.96039646 
-512 1:-0.77915216 2:-0.77915216 
-512 1:0.13410545 2:0.13410545 
-512 1:-0.84801606 2:-0.84801606 
-512 1:1 2:1 
-512 1:-0.79806028 2:-0.79806028 
-512 1:0.3152617 2:0.3152617 
-512 1:-0.0083973158 2:-0.0083973158 
-512 1:1 2:1 
-512 1:-0.0017043359 2:-0.0017043359 
-512 1:1 2:1 
-512 1:0.5728203 2:0.5728203 
-512 1:0.56521112 2:0.56521112 
-512 1:-0.90013552 2:-0.90013552 
-512 1:-0.71985216 2:-0.71985216 
-512 1:1 2:1 
-512 1:1 2:1 
-512 1:0.66286863 2:0.66286863 
-512 1:-0.80163229 2:-0.80163229 
-512 1:1 2:1 
-512 1:0.68881498 2:0.68881498 
-512 1:-0.65368499 2:-0.65368499 
-512 1:0.80078385 2:0.80078385 
-512 1:0.21501722 2:0.21501722 
-512 1:0.3704633 2:0.3704633 
-512 1:0.54964859 2:0.54964859 
-512 1:-1 2:-1 
-512 1:0.11187841 2:0.11187841 
-512 1:-0.19526746 2:-0.19526746 
-512 1:-0.094159067 2:-0.094159067 
-512 1:1 2:1 
-512 1:1 2:1 
-512 1:-0.072484602 2:-0.072484602 
-512 1:1 2:1 
-512 1:-0.72550054 2:-0.72550054 
-512 1:-0.95607656 2:-0.95607656 
-512 1:-0.99592172 2:-0.99592172 
-512 1:1 2:1 
-512 1:0.07599417 2:0.07599417 
-512 1:-1 2:-1 
-512 1:-1 2:-1 
-512 1:-0.34585308 2:-0.34585308 
-512 1:1 2:1 
-512 1:-0.82633011 2:-0.82633011 
-512 1:1 2:1 
-512 1:1 2:1 
-512 1:-0.37363034 2:-0.37363034 
-512 1:-0.45111257 2:-0.45111257 
-512 1:-0.3476254 2:-0.3476254 
-512 1:-0.68969526 2:-0.68969526 
-512 1:-0.40354969 2:-0.40354969 
-512 1:1 2:1 
-512 1:1 2:1 
-512 1:-0.46368694 2:-0.46368694 
-512 1:0.26030062 2:0.26030062 
-512 1:-0.15681708 2:-0.15681708 
-512 1:-0.16576985 2:-0.16576985 
-512 1:-0.82966591 2:-0.82966591 
-512 1:-1 2:-1 
-512 1:1 2:1 
-512 1:0.037743901 2:0.037743901 
-512 1:-0.43701444 2:-0.43701444 
-512 1:-0.50780081 2:-0.50780081 
-512 1:0.70804434 2:0.70804434 
-512 1:-1 2:-1 
-512 1:-1 2:-1 
-512 1:1 2:1 
-512 1:-0.43993868 2:-0.43993868 
-512 1:-0.61656649 2:-0.61656649 
-512 1:-0.1966054 2:-0.1966054 
-512 1:-0.54146578 2:-0.54146578 
-512 1:0.40363852 2:0.40363852 
-512 1:-0.66859019 2:-0.66859019 
-512 1:-0.28549854 2:-0.28549854 
-512 1:-1 2:-1 
-512 1:0.024573267 2:0.024573267 
-512 1:-1 2:-1 
-512 1:-0.47527299 2:-0.47527299 
-512 1:0.97577856 2:0.97577856 
-512 1:1 2:1 
-512 1:0.30406031 2:0.30406031 
-512 1:-1 2:-1 
-512 1:-1 2:-1 
-512 1:1 2:1 
-512 1:-0.82513239 2:-0.82513239 
-512 1:-0.077058795 2:-0.077058795 
-512 1:-0.77587036 2:-0.77587036 
-512 1:-0.1331755 2:-0.1331755 
-512 1:0.74960914 2:0.74960914 
-512 1:-1 2:-1 
-512 1:-1 2:-1 
-512 1:0.035620666 2:0.035620666 
-512 1:-1 2:-1 
-512 1:0.46812796 2:0.46812796 
-512 1:1 2:1 
-512 1:-0.018801037 2:-0.018801037 
-512 1:0.85065183 2:0.85065183 
-512 1:-0.19266149 2:-0.19266149 
-512 1:-0.41097238 2:-0.41097238 
-512 1:-0.6335537 2:-0.6335537 
-512 1:-0.91992166 2:-0.91992166 
-512 1:1 2:1 
-512 1:-1 2:-1 
-512 1:-0.34534546 2:-0.34534546 
-512 1:0 2:0 
-512 1:0.97663842 2:0.97663842 
-512 1:-0.53664594 2:-0.53664594 
-512 1:-0.6924221 2:-0.6924221 
-512 1:-0.46947324 2:-0.46947324 
-512 1:-0.60570339 2:-0.60570339 
-512 1:-0.43014684 2:-0.43014684 
-512 1:1 2:1 
-512 1:1 2:1 
-512 1:1 2:1 
-512 1:0.095853951 2:0.095853951 
-512 1:0.43281655 2:0.43281655 
-512 1:-0.94825697 2:-0.94825697 
-512 1:1 2:1 
-512 1:1 2:1 
-512 1:-0.94381588 2:-0.94381588 
-512 1:-0.20454733 2:-0.20454733 
-512 1:1 2:1 
-512 1:-0.52142243 2:-0.52142243 
-512 1:-1 2:-1 
-512 1:-0.26541973 2:-0.26541973 
-512 1:0.51236486 2:0.51236486 
-512 1:1 2:1 
-512 1:1 2:1 
-512 1:-0.024503376 2:-0.024503376 
-512 1:-1 2:-1 
-512 1:-1 2:-1 
-512 1:0 2:0 
-512 1:-1 2:-1 
-512 1:0.39946328 2:0.39946328 
-512 1:0.5988241 2:0.5988241 
-512 1:-0.2380385 2:-0.2380385 
-512 1:-0.3936974 2:-0.3936974 
-512 1:0.0036907553 2:0.0036907553 
-512 1:1 2:1 
-512 1:0.22755729 2:0.22755729 
-512 1:-0.30128697 2:-0.30128697 
-512 1:-1 2:-1 
-512 1:-0.67256403 2:-0.67256403 
-512 1:-0.83814614 2:-0.83814614 
-512 1:-0.29195517 2:-0.29195517 
-512 1:0.33551567 2:0.33551567 
-512 1:-0.067917866 2:-0.067917866 
-512 1:-1 2:-1 
-512 1:1 2:1 
-512 1:-1 2:-1 
-512 1:0.12696788 2:0.12696788 
-512 1:-0.77348067 2:-0.77348067 
-512 1:0.34772613 2:0.34772613 
-512 1:-1 2:-1 
-512 1:0.81648212 2:0.81648212 
-512 1:-0.25784598 2:-0.25784598 
-512 1:-0.64681228 2:-0.64681228 
-512 1:-0.81679178 2:-0.81679178 
-512 1:-0.44810052 2:-0.44810052 
-512 1:-0.98391048 2:-0.98391048 
-512 1:-1 2:-1 
-512 1:-0.90036218 2:-0.90036218 
-512 1:1 2:1 
-512 1:-1 2:-1 
-512 1:0.88126391 2:0.88126391 
-512 1:0 2:0 
-512 1:0.9231963 2:0.9231963 
-512 1:1 2:1 
-512 1:1 2:1 
-512 1:-0.86721106 2:-0.86721106 
-512 1:-0.67104592 2:-0.67104592 
-512 1:0.23137151 2:0.23137151 
-512 1:-0.4831677 2:-0.4831677 
-512 1:-0.41091022 2:-0.41091022 
-512 1:-1 2:-1 
-512 1:-1 2:-1 
-512 1:1 2:1 
-512 1:0.98735208 2:0.98735208 
-512 1:0.22880943 2:0.22880943 
-512 1:0.33889937 2:0.33889937 
-512 1:-1 2:-1 
-512 1:-0.73230985 2:-0.73230985 
-512 1:1 2:1 
-512 1:0.78491027 2:0.78491027 
-512 1:1 2:1 
-512 1:0.24882532 2:0.24882532 
-512 1:-0.51690467 2:-0.51690467 
-512 1:-1 2:-1 
-512 1:-0.63893383 2:-0.63893383 
-512 1:-0.65750696 2:-0.65750696 
-512 1:0.3424663 2:0.3424663 
-512 1:-0.066703728 2:-0.066703728 
-512 1:0.79950156 2:0.79950156 
-512 1:-0.21772787 2:-0.21772787 
-512 1:-0.23016803 2:-0.23016803 
-512 1:-0.68592963 2:-0.68592963 
-512 1:0.80708768 2:0.80708768 
-512 1:-0.42509481 2:-0.42509481 
-512 1:1 2:1 
-512 1:0.9707647 2:0.9707647 
-512 1:-0.97407634 2:-0.97407634 
-512 1:-0.27056997 2:-0.27056997 
-512 1:-0.23610186 2:-0.23610186 
-512 1:-0.67117062 2:-0.67117062 
-512 1:0.010748295 2:0.010748295 
-512 1:1 2:1 
-512 1:-0.068396005 2:-0.068396005 
-512 1:-1 2:-1 
-512 1:0.93007061 2:0.93007061 
-512 1:-0.25204438 2:-0.25204438 
-512 1:-0.77175943 2:-0.77175943 
-512 1:-0.11960864 2:-0.11960864 
-512 1:1 2:1 
-512 1:1 2:1 
-512 1:-0.98571926 2:-0.98571926 
-512 1:0.72664964 2:0.72664964 
-512 1:-1 2:-1 
-512 1:0.75869282 2:0.75869282 
-512 1:-1 2:-1 
-512 1:1 2:1 
-512 1:-0.14467408 2:-0.14467408 
-512 1:-0.21063312 2:-0.21063312 
-512 1:-0.48300166 2:-0.48300166 
-512 1:0.46644826 2:0.46644826 
-512 1:-0.32550828 2:-0.32550828 
-512 1:1 2:1 
-512 1:-1 2:-1 
-512 1:1 2:1 
-512 1:1 2:1 
-512 1:-0.91012329 2:-0.91012329 
-512 1:1 2:1 
-512 1:-0.69100165 2:-0.69100165 
-512 1:-0.40873996 2:-0.40873996 
-512 1:-0.98611619 2:-0.98611619 
-512 1:1 2:1 
-512 1:0.17018961 2:0.17018961 
-512 1:0.84970315 2:0.84970315 
-512 1:1 2:1 
-512 1:-0.41419415 2:-0.41419415 
-512 1:-0.14791519 2:-0.14791519 
-512 1:-1 2:-1 
-512 1:-0.73834949 2:-0.73834949 
-512 1:-0.28175252 2:-0.28175252 
-512 1:-0.55463548 2:-0.55463548 
-512 1:1 2:1 
-512 1:-0.63309736 2:-0.63309736 
-512 1:-1 2:-1 
-512 1:-1 2:-1 
-512 1:-0.096267215 2:-0.096267215 
-512 1:0.16309591 2:0.16309591 
-512 1:1 2:1 
-512 1:0.21844883 2:0.21844883 
-512 1:0.37965165 2:0.37965165 
-512 1:0.67007419 2:0.67007419 
-512 1:1 2:1 
-512 1:-0.26901862 2:-0.26901862 
-512 1:-0.10146425 2:-0.10146425 
-512 1:0.30303324 2:0.30303324 
-512 1:-0.66018888 2:-0.66018888 
-512 1:-0.97699403 2:-0.97699403 
-512 1:0.39887476 2:0.39887476 
-512 1:-0.10474986 2:-0.10474986 
-512 1:-0.033817444 2:-0.033817444 
-512 1:-0.31007157 2:-0.31007157 
-512 1:-0.38802121 2:-0.38802121 
-512 1:0.17997034 2:0.17997034 
-512 1:1 2:1 
-512 1:0.76247199 2:0.76247199 
-512 1:0.7995237 2:0.7995237 
-512 1:0.79174222 2:0.79174222 
-512 1:-1 2:-1 
-512 1:0.38910902 2:0.38910902 
-512 1:-0.34938957 2:-0.34938957 
-512 1:-1 2:-1 
-512 1:-0.79190219 2:-0.79190219 
-512 1:0.44533587 2:0.44533587 
-512 1:-0.63254358 2:-0.63254358 
-512 1:0.22055658 2:0.22055658 
-512 1:-0.58750648 2:-0.58750648 
-512 1:1 2:1 
-512 1:-0.42195584 2:-0.42195584 
-512 1:1 2:1 
-512 1:-0.059681053 2:-0.059681053 
-512 1:-0.25962697 2:-0.25962697 
-512 1:-0.074106567 2:-0.074106567 
-512 1:-0.8558092 2:-0.8558092 
-512 1:-0.37159685 2:-0.37159685 
-512 1:-0.49492215 2:-0.49492215 
-512 1:-0.42004908 2:-0.42004908 
-512 1:-0.8662781 2:-0.8662781 
-512 1:-0.33165774 2:-0.33165774 
