svm_type c_svc
kernel_type rbf
gamma 0.125
nr_class 2
total_sv 1671
rho -0.28410630771541817
label 1 -1
nr_sv 1074 597
SV
0.71466210892811244 1:0.49623468 2:-0.5257396 3:0.71630207 4:-0.54036862 5:0.60756184 6:1 7:-0.47648421 8:-0.69251922 9:-1 10:-1 11:1 12:0.8667341 13:-0.80979399 14:-0.37323493 15:-1 16:-1 17:-0.095586296 18:0.84708716 19:-0.54054973 20:-0.24795272 21:-1 22:-0.12073441 23:-1 24:0.10881654 25:1 26:-0.76877207 27:-1 28:0.69084963 29:0.20378822 30:1 31:-0.39386886 32:-1 33:-1 34:1 35:0.55466925 36:-1 37:-1 38:0.094953972 39:1 40:0.66874979 41:-0.42453402 42:-0.82065772 43:-1 44:1 45:-1 46:-1 47:0.95399809 48:0.31593226 49:-0.12056428 50:-1 51:-0.53390658 52:-1 53:0.53231261 54:-0.14723107 55:-0.33102671 56:-0.90923772 57:-0.95959722 58:-0.25311772 59:0.52792048 60:0.0547027 61:-0.56953834 62:1 63:-0.60760958 64:0.80812204 65:0.41203169 66:1 67:-0.55669764 68:-1 69:-0.87167738 70:-1 71:-0.21065705 72:-0.77767479 73:-0.85981357 74:0.34963455 75:-0.6251474 76:1 77:-1 78:1 79:-0.17152455 80:-0.94537913 81:1 82:-0.56455924 83:-0.4546887 84:0.34137944 85:-0.11391167 86:-0.69744833 87:-0.57552004 88:-0.49737002 89:0.92164484 90:-0.76044088 91:-0.23997741 92:0.81774828 93:0.32008437 94:-1 95:-1 96:0.79754509 97:-0.85135695 98:-0.27467606 99:-1 100:0.068423214 101:-1 102:-0.55613387 103:0.82732177 104:-0.20237009 105:0.91955625 106:1 107:-0.39510518 108:-1 109:-0.17660783 110:-0.74605184 111:-1 112:-1 113:-1 114:-0.12586336 115:0.8076071 116:-0.42746331 117:-1 118:0.37648808 119:0.86586463 120:-1 121:1 122:-1 123:-1 124:-0.97121939 125:0.37648808 126:-0.63543124 127:0.062265663 128:0.24352238 129:-0.23758167 130:0.46971835 131:0.54556182 132:0.60609153 133:0.89601748 
0.73145433606997301 1:-0.40183731 2:-1 3:-0.049783635 4:-0.30151118 5:-0.45147087 6:-0.56764698 7:-0.39770871 8:1 9:-0.20040144 10:0.036800805 11:0.63318833 12:-0.53844103 13:-0.014877491 14:-0.20498281 15:-0.12528499 16:0.093966993 17:0.11127171 18:-0.20644909 19:-0.73638729 20:-0.40160704 21:-0.35769444 22:0.34832409 23:0.82024514 24:0.72207972 25:0.71328228 26:-0.18395621 27:-1 28:1 29:-0.89685862 30:-0.50259378 31:0.055537906 32:0.096597082 33:-0.55615939 34:0.6273948 35:-0.89477269 36:0.35380982 37:0.086267719 38:-0.63142647 39:-0.30150969 40:-0.31867296 41:-0.99257594 42:-0.32475159 43:0.26015813 44:0.46736936 45:0.052048067 46:0.045191978 47:-0.30150896 48:-1 49:0.037293707 50:-0.30150896 51:-0.012504783 52:-0.24253296 53:0.92808777 54:-0.032545207 55:0.11151523 56:-0.16903085 57:-0.55644141 58:-0.71478035 59:-0.76558948 60:-0.13458039 61:-0.20326025 62:-0.52826076 63:-0.16903085 64:-0.30151134 65:-0.6538393 66:-0.83778233 67:0.54291245 68:-0.40160704 69:0.59788908 70:0.45547557 71:-0.11859145 72:0.01996259 73:0.60338867 74:1 75:-0.38518561 76:0.65547597 77:0.0491912 78:0.0091973044 79:0.067075454 80:0.26764174 81:-1 82:-0.47633638 83:0.45624088 84:0.25653544 85:-0.11680455 86:-0.083900902 87:-0.21245726 88:-0.68175235 89:-0.4411199 90:-0.26082945 91:0.089691704 92:0.64351119 93:-0.73017648 94:-0.6317218 95:-0.42710111 96:-0.3632424 97:-0.53568172 98:-0.092977371 99:-1 100:-0.2794339 101:-0.84507892 102:0.53903656 103:0.12270687 104:0.28601728 105:-0.30150884 106:0.45875184 107:-0.82573548 108:-0.23318247 109:-0.30151104 110:-0.24304437 111:-0.54535376 112:-0.14093216 113:-0.046701088 114:-0.082388984 115:-0.23252156 116:0.61082796 117:0.032789411 118:-0.53322872 119:-0.49904638 120:0.046806816 121:0.027014064 122:0.30949085 123:-0.35355306 124:0.26156346 125:-0.53322872 126:-0.35142346 127:0.12451492 128:0.23513669 129:-0.050480954 130:-0.98705672 131:-0.49691018 132:-0.30151118 133:-0.15922356 
0.71423195117394755 1:-0.97031269 2:0.055038931 3:0.19917125 4:-1 5:-1 6:1 7:-1 8:-1 9:-0.5091796 10:-0.57138068 11:-0.49419084 12:-0.53033303 13:-1 14:-1 15:-0.78334346 16:-1 17:-0.27718504 18:0.15504351 19:-1 20:-1 21:-0.39855159 22:-0.28115868 23:-1 24:-1 25:-0.16666551 26:-1 27:-1 28:-1 29:-1 30:-0.43987103 31:0.14947037 32:-0.77554782 33:-1 34:0.073923187 35:1 36:-1 37:-0.77496587 38:-0.30795699 39:-1 40:-1 41:-1 42:-0.54455711 43:-0.58040746 44:-1 45:-0.58430306 46:-0.48934155 47:-1 48:0.31382797 49:0.017871396 50:-1 51:-0.98323262 52:-0.71883808 53:-0.96276935 54:0.27630797 55:1 56:-1 57:-1 58:-0.045015821 59:0.53535254 60:0.49303067 61:-1 62:-0.052289707 63:-1 64:-0.5315291 65:-0.021203641 66:-1 67:-1 68:-1 69:0.4760052 70:0.5073253 71:-1 72:0.3920929 73:-0.026481814 74:-1 75:0.46381904 76:1 77:-0.59873859 78:-0.45432592 79:1 80:0.11295301 81:-0.27715526 82:0.40890333 83:-1 84:1 85:0.25832617 86:-0.11967684 87:-1 88:-1 89:-0.44716043 90:-0.83797428 91:-0.40783053 92:-1 93:-1 94:-1 95:0.30411437 96:-0.74453699 97:-1 98:0.86220437 99:0.18488868 100:0.07354616 101:-1 102:-1 103:1 104:-1 105:-0.7380379 106:-0.62388606 107:-1 108:-1 109:-0.71727303 110:-0.88780322 111:-1 112:-0.21399029 113:-0.53894728 114:-0.15366996 115:0.034817098 116:-1 117:-0.57089445 118:-0.70117118 119:1 120:-0.49031711 121:0.92762142 122:-1 123:-1 124:-1 125:-0.70117118 126:-0.88101616 127:-0 128:1 129:-1 130:-1 131:-0.069903584 132:-1 133:-1 
0.71496565314942884 1:-0.0058474839 2:0.70580367 3:-1 4:0.270232 5:-0.25088959 6:0.45391758 7:0.5770738 8:-0.63693143 9:1 10:-0.40921618 11:-0.62482168 12:0.2760277 13:-0.81408403 14:-0.43501409 15:1 16:-0.19882799 17:0.59808249 18:-1 19:1 20:1 21:0.87539761 22:1 23:-0.95563436 24:-0.15155967 25:-0.23605995 26:-0.2942911 27:-1 28:1 29:0.19906676 30:-0.24455799 31:1 32:-0.023815945 33:-0.83074176 34:1 35:1 36:0.54020066 37:-0.061472901 38:-0.016605161 39:1 40:-0.26238568 41:-1 42:-0.002074289 43:-0.016583238 44:-1 45:-0.42999004 46:-0.81257152 47:1 48:-1 49:0.65512178 50:0.53776994 51:-0.41313116 52:-0.84515425 53:-0.15382438 54:0.6576512 55:-0.49543873 56:1 57:1 58:-0.05122073 59:-0.056597927 60:-0.56453491 61:-0.30324974 62:-1 63:0.88560461 64:1 65:0.35475264 66:-0.65074291 67:-0.73780589 68:1 69:1 70:1 71:-0.55538121 72:1 73:0.15689013 74:0.55166848 75:0.35520853 76:-1 77:-0.42460673 78:-0.1572482 79:0.13283646 80:1 81:-0.40455797 82:1 83:-0.22892673 84:-0.86073538 85:-0.50490373 86:-0.76734113 87:-1 88:1 89:0.78263068 90:-0.095951842 91:0.46950764 92:0.67665353 93:0.79293752 94:1 95:1 96:0.72393539 97:0.71832602 98:-0.56720711 99:-0.33041867 100:-1 101:-0.046832165 102:-0.77984558 103:-0.10353194 104:-0.46846331 105:0.1807995 106:0.52743691 107:0.88078717 108:-0.29764316 109:1 110:-0.5123332 111:-0.59083513 112:-0.7860785 113:1 114:1 115:-0.12348673 116:0.8772752 117:-0.40084535 118:0.82577886 119:0.51034745 120:-0.80926614 121:-0.66519808 122:-0.51406395 123:-0.63074224 124:-0.40566269 125:0.82577886 126:-0.52668768 127:-0.27231737 128:1 129:-1 130:-1 131:-0.53807178 132:1 133:-0.02417291 
0.71537752957772927 1:0.61679452 2:-0.53691431 3:-0.42020094 4:-1 5:0.63942797 6:-1 7:-1 8:-0.11580765 9:0.78598059 10:0.74967237 11:1 12:1 13:-0.16347176 14:1 15:0.88422324 16:-0.50512774 17:1 18:-0.46801555 19:-0.12204907 20:-0.92147554 21:0.84044459 22:-1 23:0.10791427 24:0.71254421 25:1 26:0.3682225 27:0.77906393 28:0.93207469 29:-0.40328743 30:-0.62028975 31:0.67569634 32:0.70968859 33:1 34:-0.26564951 35:0.42040732 36:0.49146883 37:0.71477253 38:-0.16262394 39:-0.28536507 40:0.22247322 41:-0.1689524 42:-1 43:0.67613784 44:-0.66561453 45:0.75520677 46:0.7792378 47:-0.44052174 48:-0.15740444 49:1 50:-1 51:-0.18675123 52:-0.017871396 53:1 54:0.047945964 55:-0.89865527 56:0.054153036 57:1 58:1 59:-0.4306872 60:-1 61:-0.10798639 62:-0.00031710962 63:0.23739779 64:0.1564075 65:0.15350381 66:1 67:1 68:-0.45662965 69:-0.28979919 70:0.16607965 71:1 72:0.45308355 73:-0.92254971 74:0.45147405 75:0.94345635 76:-1 77:0.76447122 78:0.69166736 79:0.53046767 80:-0.26402874 81:1 82:0.029146069 83:0.94997071 84:1 85:1 86:0.89361129 87:-0.5263632 88:-0.13139431 89:1 90:0.50993879 91:1 92:1 93:1 94:0.71500353 95:0.32616404 96:-0.079624215 97:1 98:0.69134471 99:0.65943997 100:0.10361893 101:1 102:-0.22118549 103:-0.63067681 104:1 105:0.38411064 106:1 107:1 108:0.67572604 109:0.49130368 110:0.87377925 111:-0.72608829 112:0.80914148 113:0.72989469 114:0.70166509 115:-1 116:0.93700674 117:0.74659961 118:1 119:-0.56862658 120:0.77928179 121:1 122:0.82085868 123:0.48914243 124:1 125:1 126:0.29337415 127:-1 128:0.21953471 129:0.52491871 130:-0.13761316 131:-0.17132697 132:-0.087692312 133:-1 
0.71676128318748122 1:-0.212828 2:-1 3:-0.9419837 4:0.31026955 5:-0.89217907 6:1 7:1 8:0.87785796 9:0.13410353 10:-0.52378749 11:-0.7461915 12:-0.26612193 13:1 14:1 15:-0.013179964 16:1 17:-0.63679728 18:0.87281477 19:-0.52148237 20:-0.20032077 21:-0.20297999 22:-0.43825641 23:-0.35352741 24:-1 25:-0.86692667 26:1 27:-0.51979548 28:-1 29:1 30:1 31:-0.58126177 32:-0.97759894 33:-0.34225225 34:-0.86778883 35:0.37781924 36:-0.43334178 37:-0.99319456 38:1 39:-1 40:-1 41:-0.23822143 42:0.042227462 43:-0.0087896711 44:0.02496383 45:-0.52943461 46:-0.38440471 47:-1 48:0.40427463 49:-0.99353267 50:-0.074743509 51:1 52:-1 53:-0.16435309 54:1 55:-0.86232896 56:0.054153036 57:-0.52390879 58:-1 59:-0.84529637 60:0.14907203 61:1 62:1 63:0.23739779 64:-1 65:1 66:-0.26796278 67:1 68:0.32616404 69:1 70:-1 71:1 72:-0.11040107 73:1 74:-0.75873745 75:-0.94345635 76:0.34581885 77:-0.53793685 78:-0.51386872 79:0.69293012 80:0.30378211 81:-0.77122495 82:0.50624031 83:1 84:-0.61509325 85:0.36887452 86:-1 87:-1 88:-0.53683959 89:-0.47156758 90:-0.53509066 91:0.98696291 92:0.0076698175 93:-0.34226318 94:-1 95:-1 96:1 97:-0.42591647 98:-1 99:0.72302135 100:0.5808943 101:-0.16758375 102:1 103:-0.50415952 104:0.017004167 105:-1 106:-0.18982479 107:-0.3744938 108:-0.51976133 109:-1 110:-0.25719319 111:-0.51299716 112:-0.29712543 113:0.10250522 114:-1 115:1 116:-0.09303364 117:-0.51946459 118:-0.35750611 119:1 120:-0.3842487 121:-0.41521959 122:-1 123:-0.72528015 124:1 125:-0.35750611 126:-0.44479969 127:-0.61052691 128:0.22994324 129:-1 130:1 131:1 132:-1 133:0.47035075 
0.71719534015675568 1:0.15977516 2:-0.24665473 3:-0.61972801 4:-0.35355339 5:-0.84483744 6:-0.20603283 7:-0.71961076 8:-0.2386285 9:0.55673175 10:0.69917255 11:0.0070055333 12:-0.17125753 13:0.10801954 14:0.52536035 15:0.92991333 16:1 17:-0.11406929 18:-0.68510563 19:-1 20:-0.24253563 21:1 22:0.55605601 23:0.70535334 24:-1 25:-0.39246777 26:-0.19912514 27:-1 28:1 29:-1 30:-1 31:-0.041755207 32:0.51204644 33:-0.17511209 34:1 35:0.48594124 36:0.28896426 37:0.51020017 38:-0.47604624 39:0 40:1 41:-0.63026025 42:0.48602369 43:0.74268991 44:-0.17154831 45:0.70305263 46:0.76770417 47:-0.24253563 48:1 49:0.27955307 50:0 51:0.072719266 52:-0.24253563 53:-0.061149878 54:0.28868825 55:0.6098719 56:-0.24253563 57:0.38755995 58:-0.77333595 59:0.82916544 60:0.21009885 61:-0.10111864 62:1 63:-0.24253562 64:-0.35355339 65:-0.17695045 66:-0.16293338 67:-0.11277393 68:-0.24253562 69:1 70:1 71:0.21801305 72:-1 73:0.002125448 74:0.012903074 75:0.029947637 76:0.020888303 77:0.70126408 78:0.080148861 79:-1 80:0.81287819 81:-0.50634262 82:-1 83:-1 84:-0.037894582 85:-0.53939594 86:1 87:-0.0010462272 88:-0.14149597 89:-0.37125073 90:0.02213321 91:-1 92:-0.22976374 93:0.2220296 94:-0.23448886 95:-0.31026955 96:0.53244799 97:0.32732409 98:-0.4332708 99:0.22436458 100:0.23059783 101:0.13911301 102:0.70580509 103:-0.11485056 104:-0.88709358 105:-0.24253562 106:0.08601011 107:0.29241183 108:-0.13089886 109:-0.16903085 110:0.62211631 111:0.099823946 112:0.91333243 113:0.9897625 114:0.062561125 115:-0.43961575 116:1 117:0.69746238 118:-0.26495249 119:-1 120:0.76740243 121:-0.63970638 122:0.1920115 123:-0.24253562 124:0.004160649 125:-0.26495249 126:0.016107106 127:-0.066151463 128:0.18517715 129:1 130:0.71656421 131:-0.51834283 132:-0.24253562 133:0.8042275 
0.69931587225070824 1:1 2:-0.17955176 3:0.033573373 4:0.49190037 5:1 6:0.11399279 7:1 8:0.88175089 9:0.43881835 10:0.10813839 11:1 12:0.72701386 13:0.28630318 14:0.15534453 15:0.42578022 16:0.84006073 17:1 18:-0.21183667 19:1 20:0.95747514 21:0.38997375 22:0.42689481 23:0.63847694 24:-0.64494534 25:0.1376612 26:-0.49128444 27:0.23919909 28:0.62639854 29:0.49664865 30:0.40723518 31:-0.1740858 32:0.14213521 33:-0.30428988 34:-0.13080273 35:0.49342817 36:-0.19933426 37:0.16774443 38:-0.096814138 39:0.25 40:0.20063257 41:1 42:0.41654746 43:0.23799843 44:0.68779352 45:0.11678016 46:0.10564853 47:0.45612903 48:-1 49:0.79936077 50:0.78566503 51:0.20001809 52:1 53:0.77494529 54:-0.078416092 55:-0.15260716 56:1 57:-0.2971147 58:-0.1813859 59:-0.16928377 60:-0.46271295 61:-0.061323094 62:0.79825046 63:1 64:1 65:-0.48701219 66:1 67:1 68:0.58319654 69:-1 70:-0.17876152 71:-0.012674705 72:-0.43657581 73:0.91916567 74:0.37720547 75:0.72326876 76:0.28125441 77:0.13740567 78:-0.29825653 79:0.27485377 80:1 81:1 82:-0.378695 83:0.061175808 84:-0.16820137 85:-0.29234901 86:-0.59239078 87:1 88:1 89:0.51745964 90:-0.35405984 91:0.69198119 92:0.94990072 93:0.59280608 94:-0.016250438 95:0.50578054 96:1 97:1 98:-0.26614352 99:1 100:1 101:-0.54489562 102:0.29017347 103:-0.66135186 104:-0.14357403 105:1 106:1 107:0.94880561 108:-0.34464657 109:0.91576699 110:-0.38140403 111:-0.18810446 112:0.22463388 113:0.40915138 114:1 115:0.85357281 116:1 117:0.12273812 118:0.59920937 119:0.72195554 120:0.12403801 121:0.18897969 122:-0.17127198 123:0.36196138 124:1 125:0.59920937 126:-0.35949446 127:-0 128:-0.58338599 129:0.69263038 130:-0.72935097 131:0.23655419 132:1 133:0.74754803 
0.71615397380356949 1:-0.39176619 2:-0.6470236 3:-1 4:1 5:-0.61163125 6:-0.3351554 7:-1 8:0.12180804 9:0.13265549 10:1 11:0.0565831 12:-0.3245568 13:-0.28243432 14:1 15:0.76661319 16:0.91362097 17:1 18:0.13113025 19:-0.38833794 20:1 21:0.78561933 22:0.39979103 23:0.6346578 24:0.53481956 25:-0.35435438 26:0.21300995 27:0.97540315 28:0.72762742 29:0.85442252 30:-0.48807879 31:-0.43778453 32:1 33:0.9952294 34:0.19744739 35:-1 36:-0.90550922 37:1 38:0.085747168 39:0.3995111 40:-0.19320641 41:-1 42:-1 43:1 44:-0.7602143 45:1 46:1 47:0.69224845 48:-0.21428333 49:-0.48257301 50:1 51:-0.45411534 52:0.62549884 53:-0.3693295 54:0.37925411 55:-1 56:1 57:0.1441706 58:-0.21417682 59:-0.36665599 60:-0.83190289 61:-0.11500596 62:0.50198453 63:1 64:0.96078891 65:0.18355657 66:-1 67:-0.48902718 68:1 69:1 70:-0.15519848 71:0.53659571 72:0.023384536 73:0.57691681 74:-0.18438526 75:-0.31448545 76:0.22933707 77:1 78:-1 79:0.74310611 80:0.88776478 81:-0.058485677 82:0.45846668 83:0.81754498 84:1 85:-0.0079482279 86:-1 87:-0.29499476 88:-0.40169116 89:-0.36514396 90:1 91:1 92:-0.31936198 93:-0.46075526 94:0.029925682 95:1 96:-0.48093026 97:-0.4861235 98:1 99:-0.63761614 100:0.29383989 101:-0.51177236 102:1 103:-0.044585152 104:0.84511746 105:-0.38411064 106:0.025728847 107:-0.74851275 108:1 109:-1 110:1 111:-1 112:1 113:0.53769425 114:-1 115:0.1750804 116:0.85485628 117:1 118:-0.30843234 119:1 120:1 121:-0.33461182 122:0.13408368 123:-0.72528015 124:-0.39805735 125:-0.30843234 126:1 127:-0.60912434 128:1 129:-0.0054565354 130:1 131:-0.55774153 132:1 133:0.41757373 
0.70885691144335472 1:0.17986088 2:-0.10272034 3:-0.10644658 4:-0.24253563 5:-0.67747924 6:0.01008978 7:-0.34715725 8:-0.69769668 9:0.44313396 10:0.53141071 11:0.59809288 12:0.38804494 13:-0.48934657 14:-0.53426783 15:0.14674524 16:-0.69787793 17:0.27215773 18:0.55363084 19:1 20:-0.24253562 21:0.66956738 22:-1 23:-1 24:-0.8789254 25:-0.59836475 26:-0.58162159 27:0.40427694 28:-0.097223923 29:1 30:-0.66714919 31:0.79288424 32:0.2730553 33:0.95136641 34:-0.22613967 35:-0.24273393 36:1 37:0.27442656 38:1 39:-0.16903085 40:-0.85505092 41:0.0030893457 42:-0.5266291 43:0.83653398 44:1 45:0.5262357 46:0.63353268 47:-0.3535533 48:-0.21453789 49:-0.66069474 50:-0.16903085 51:-0.48110533 52:-0.16903085 53:-0.54742286 54:-0.1528338 55:-0.16693763 56:-0.30151134 57:0.31017382 58:0 59:-0.89708039 60:-0.16960255 61:-0.56353926 62:-0.43497204 63:-0.24253563 64:-0.30151134 65:0.061778189 66:0.78324402 67:-0.65232171 68:-0.16903085 69:-1 70:0 71:-0.50496187 72:0.35644914 73:0.06670386 74:-0.68492812 75:-0.10050378 76:-0.86886404 77:0.52024316 78:-0.19073916 79:0 80:0.31358011 81:-1 82:-0.30041597 83:-0.11533106 84:-0.026498759 85:1 86:-0.75652616 87:1 88:0.42980256 89:-0.16208054 90:0.065952323 91:-0.19123487 92:0.62143146 93:-0.73206885 94:0.08627352 95:-0.88986246 96:-0.65728046 97:-0.35532148 98:-0.46116509 99:0.098742023 100:-0.62444836 101:1 102:-1 103:-0.3279836 104:0 105:-0.16903085 106:0.59831515 107:-0.48638042 108:0.23176265 109:0 110:-0.4949189 111:-1 112:0.77811673 113:0.91401538 114:-0.18257419 115:-0.40957881 116:-0.65144294 117:0.53190316 118:-0.73849049 119:1 120:0.63229115 121:-0.74098259 122:0 123:-0.16903085 124:-0.66805799 125:-0.73849049 126:0.36545932 127:-0 128:0 129:1 130:-0.58259093 131:-0.27132671 132:-0.16903085 133:0.85604404 
0.70365846280162536 1:0.80859072 2:0.034365392 3:-0.201567 4:-0.91432593 5:0.74364361 6:0.0043232795 7:0.65041125 8:0.73702066 9:0.33697409 10:-0.067544543 11:-0.819616 12:-1 13:0 14:-0.12579913 15:-0.1493908 16:-1 17:0 18:0.65130118 19:0 20:-0.77562454 21:0.26777737 22:-1 23:0 24:0.52792948 25:-1 26:-0.83276424 27:0.74496467 28:-0.51589209 29:0 30:0.36284409 31:0 32:-0.070445365 33:1 34:0.22355738 35:-0.58265131 36:0 37:-0.049866967 38:0 39:0 40:0 41:-0.035534263 42:0.58155654 43:0.018706076 44:0 45:-0.062804919 46:-0.040941292 47:-0.64456974 48:0 49:0.12382325 50:-0.73645969 51:0 52:-0.80302067 53:-1 54:-0.068706946 55:0 56:0 57:-0.22822359 58:0.47652593 59:0 60:0 61:-0.28524767 62:0.94120819 63:-0.76324096 64:0 65:0 66:-0.89410603 67:-0.78564132 68:0 69:0 70:0.062394736 71:-0.92000086 72:0 73:-0.11529525 74:0.20061971 75:0.46033567 76:-0.34432787 77:-0.027257225 78:0.30298805 79:-0.034102278 80:-0.22960727 81:-0.061616775 82:0 83:0 84:-0.13469184 85:1 86:0 87:0 88:0 89:-1 90:0.039372176 91:0 92:0.6234731 93:-1 94:-0.31798752 95:-0.10326551 96:-0.89025611 97:-1 98:0.36016701 99:-0.037808475 100:-1 101:0.83065011 102:0 103:-0.098228306 104:-0.0061632769 105:-0.88465174 106:0.99155416 107:-1 108:0.46644955 109:-0.75915726 110:0.16914377 111:0 112:0.56847647 113:0.0966932 114:0.68919541 115:0 116:-0.94989802 117:-0.046302674 118:-1 119:0 120:-0.014534052 121:-0.70263189 122:0.097620674 123:-0.71319739 124:-0.33786383 125:-1 126:-0.43068827 127:0 128:-0.071090862 129:-0.87348532 130:0.43280908 131:0.78470528 132:-0.72969088 133:-0.73864634 
0.71229570302126111 1:0.21342031 2:1 3:-0.99819783 4:0.7270148 5:0.28612552 6:-1 7:-1 8:0.89165712 9:1 10:0.50371387 11:-1 12:1 13:-0.27019492 14:-0.46068338 15:0.99941444 16:0.47176955 17:-0.39983379 18:-1 19:0.32964724 20:0.41848481 21:0.42145861 22:-0.060394914 23:0.35026163 24:-0.93169515 25:0.44181549 26:-0.67794311 27:1 28:0.30525411 29:-0.080106526 30:-0.18959752 31:-0.50768143 32:0.4105582 33:-0.029578137 34:-0.15040075 35:1 36:0.020815636 37:0.43109972 38:0.11420705 39:-0.78363365 40:0.23839999 41:0.61768295 42:1 43:1 44:0.19677603 45:0.47677868 46:0.56527156 47:1 48:-0.012753878 49:1 50:-0.31486881 51:-0.015121311 52:-0.17833149 53:0.3354544 54:0.88123868 55:-0.1725965 56:0.0608555 57:1 58:-0.64947293 59:0.40294361 60:0.25535394 61:-0.75232607 62:-0.094407892 63:0.6681531 64:-0.20628425 65:0.36464907 66:-0.64191324 67:0.19590286 68:-0.32066552 69:0.39433942 70:-1 71:-0.84032478 72:0.64542449 73:0.4250997 74:-0.1273971 75:1 76:-1 77:0.46575808 78:-0.14715505 79:-1 80:0.38787092 81:-1 82:0.25730895 83:-0.072106618 84:1 85:0.052492421 86:-0.076221462 87:0.63952209 88:0.40972198 89:1 90:1 91:-1 92:1 93:1 94:1 95:1 96:-0.21430846 97:0.68162919 98:1 99:-0.29896601 100:0.94738294 101:-0.00079011515 102:0.83040509 103:0.62442007 104:-0.26116449 105:-0.55010023 106:1 107:0.80539322 108:1 109:-0.027410122 110:-0.088476504 111:0.46390274 112:0.19221273 113:1 114:-0.34554737 115:0.54571832 116:0.9112811 117:0.51454351 118:1 119:-0.20977684 120:0.56755958 121:-1 122:1 123:-0.21300716 124:-0.48760674 125:1 126:0.75719912 127:-0 128:-0.57067644 129:-1 130:1 131:0.0016811329 132:1 133:0.097205871 
0.72051801111725211 1:1 2:-0.47164646 3:0.3632617 4:-0.30151134 5:0.24731123 6:-0.96697992 7:1 8:0.36331873 9:-1 10:-1 11:0.9489509 12:0.9182609 13:0.04530618 14:-0.28442372 15:-1 16:-0.1046653 17:0.21580146 18:1 19:-1 20:-0.16903085 21:-1 22:-0.49667507 23:-0.2006697 24:0.7247684 25:0.90689429 26:-0.38408381 27:-0.76387073 28:0.83290341 29:-1 30:1 31:-0.42001648 32:-1 33:-1 34:0.57377237 35:-0.52184671 36:-0.50472909 37:-1 38:-0.62645791 39:-0.16903085 40:-0.73433758 41:-1 42:0.85415231 43:-1 44:-0.76136441 45:-1 46:-0.83105699 47:-0.16903085 48:-0.022181988 49:-1 50:-0.16903085 51:0.24780167 52:-0.30151134 53:0.85939104 54:-0.3628671 55:0.16035773 56:-0.24253562 57:-1 58:-0.13842666 59:-0.62544945 60:-0.17637862 61:-0.16086374 62:0.72413272 63:-0.30151134 64:-0.30151134 65:-0.12445642 66:-0.18032496 67:-0.6779709 68:-0.16903085 69:0.87246125 70:0.0020561008 71:-0.29162985 72:-1 73:0.15475104 74:0.69657042 75:-1 76:1 77:-1 78:-0.092755757 79:1 80:0.46258792 81:0.90944943 82:-1 83:1 84:-1 85:0.45073865 86:1 87:0.69610598 88:-1 89:0.84278522 90:-1 91:-0.78297369 92:0.94909698 93:0.80596244 94:-0.61269064 95:-1 96:0.293364 97:0.75309801 98:-1 99:-0.20733934 100:1 101:-1 102:0.047978215 103:1 104:-0.74086522 105:-0.16903085 106:0.93038857 107:0.72211817 108:-1 109:-0.24253562 110:-0.44879643 111:-0.80500146 112:-0.54907326 113:-1 114:-0.38120053 115:-0.2417029 116:0.70172508 117:-1 118:0.84117211 119:-1 120:-0.83367572 121:0.93968576 122:1 123:-0.16903085 124:-0.33381388 125:0.84117211 126:-0.92443586 127:-1 128:0.3494167 129:-1 130:-0.85492789 131:-0.41138223 132:-0.30151134 133:-0.96434603 
0.71647766603320917 1:-0.75766684 2:-0.20061088 3:-1 4:-0.42465029 5:0.018226551 6:-0.69839254 7:1 8:0.49011333 9:-0.55635315 10:0.1818594 11:1 12:1 13:-0.37921041 14:-0.7573016 15:-0.60303581 16:0.16096722 17:0.43235067 18:-0.70867591 19:-0.23388175 20:1 21:-0.43803494 22:0.81527629 23:-0.44443681 24:0.87886463 25:1 26:-0.44407624 27:0.079568277 28:1 29:0.29679219 30:1 31:0.44502659 32:0.38236807 33:-0.17422325 34:0.87203977 35:-0.93017322 36:-1 37:0.38741058 38:-1 39:1 40:0.57028073 41:-0.28689872 42:-0.43518584 43:-0.21787475 44:0.13508809 45:0.22841365 46:0.1272752 47:0.11670576 48:-0.54118336 49:0.065512178 50:-0.71124412 51:-0.47635918 52:-1 53:1 54:0.57693434 55:-1 56:-0.25562606 57:-1 58:-0.036300624 59:-0.39443785 60:-0.43081332 61:-0.63802534 62:-1 63:1 64:1 65:0.73399261 66:0.71252861 67:-0.81433998 68:-0.71012194 69:-0.74279598 70:-1 71:-0.24565595 72:-0.56252624 73:0.14316629 74:1 75:0.35520853 76:1 77:0.26515115 78:-0.20540961 79:-0.79533583 80:1 81:0.61666993 82:-0.13526723 83:0.84964081 84:-1 85:-0.92735157 86:-0.042388142 87:-1 88:-0.38340522 89:1 90:-0.2543853 91:-0.2310928 92:1 93:1 94:0.77357766 95:0.64797392 96:0.30860991 97:1 98:-0.56387449 99:0.77128684 100:1 101:-0.9851497 102:1 103:-1 104:0.86327932 105:-0.7490265 106:0.57655328 107:1 108:-0.082679716 109:-0.76769023 110:0.06568553 111:-1 112:0.17719077 113:-1 114:-0.31206302 115:-0.031637011 116:1 117:0.16582825 118:1 119:-0.35758723 120:0.12878762 121:1 122:0.16061932 123:-0.63074224 124:-0.59659867 125:1 126:-0.11703797 127:0.15264274 128:0.57469045 129:-1 130:1 131:-1 132:-0.068821761 133:-0.66152063 
0.71524820954535995 1:0.039926931 2:1 3:-0.7840024 4:-0.16903085 5:1 6:1 7:-0.41419524 8:-0.0082913902 9:1 10:1 11:-0.14220524 12:-0.39614935 13:-0.12266156 14:0.74732619 15:1 16:-0.27144664 17:1 18:-0.62821852 19:-0.98055845 20:-0.40160966 21:1 22:1 23:-0.08593917 24:0.028459825 25:-0.65000428 26:1 27:-1 28:1 29:1 30:-1 31:1 32:1 33:1 34:1 35:0.53163671 36:1 37:1 38:-0.57039299 39:-0.30151134 40:1 41:-1 42:0.91563217 43:0.95334412 44:-1 45:1 46:1 47:-0.35355339 48:1 49:0.69335412 50:-0.40160966 51:-0.16847787 52:-0.30151134 53:-1 54:1 55:-0.34107318 56:-0.30151134 57:0.82238356 58:-0.78609318 59:1 60:-0.63294414 61:-0.013404334 62:-0.65115156 63:-0.16903085 64:-0.30151134 65:0.39996567 66:-1 67:-0.10145789 68:-0.30151134 69:1 70:-0.50253636 71:1 72:1 73:1 74:-1 75:0.61986029 76:-0.517863 77:1 78:-1 79:-0.15618948 80:0.073638435 81:0.10220142 82:0.24704986 83:-1 84:0.43297135 85:-1 86:-1 87:-1 88:-0.60516188 89:1 90:0.89435831 91:-0.40945712 92:1 93:-0.59426225 94:1 95:1 96:-1 97:0.2560749 98:0.030689192 99:1 100:0.33924588 101:0.99371465 102:-1 103:-0.61305855 104:0.079344152 105:-0.24253562 106:0.97343628 107:-0.042386098 108:0.84314118 109:-0.35355339 110:0.57268121 111:-1 112:1 113:1 114:-0.93440451 115:-0.34388336 116:-1 117:1 118:0.46804796 119:0.90018475 120:1 121:-0.26703496 122:-1 123:-0.24253562 124:-0.4477524 125:0.46804796 126:1 127:0.028122261 128:0.67124379 129:-1 130:1 131:-0.49139055 132:-0.24253562 133:-1 
0.71244768964192662 1:-1 2:0.12199947 3:-0.31370592 4:-0.35355339 5:0.85114627 6:-0.21991119 7:-0.71961076 8:-1 9:1 10:1 11:1 12:1 13:0.20640084 14:-0.087301364 15:1 16:-1 17:-0.1676646 18:-1 19:1 20:-0.24253563 21:1 22:1 23:1 24:-1 25:1 26:-0.02180322 27:1 28:-0.84841092 29:-1 30:0.62090753 31:0.60841698 32:1 33:0.6334627 34:-1 35:0.65005385 36:1 37:1 38:1 39:0 40:-0.62273828 41:-0.056476174 42:0.48937216 43:1 44:1 45:1 46:0.98034963 47:-0.24253563 48:-0.88444542 49:1 50:0 51:0.90680021 52:-0.24253563 53:1 54:0.7416204 55:0.61803144 56:-0.24253563 57:1 58:1 59:-0.40061211 60:0.56625656 61:0.10072952 62:-0.59527562 63:-0.24253562 64:-0.35355339 65:-0.53001395 66:1 67:-0.098786539 68:-0.24253562 69:0.44469335 70:-1 71:-0.22408587 72:1 73:-0.16622387 74:-1 75:1 76:-1 77:1 78:0.56974576 79:-0.35526064 80:0.84226049 81:1 82:0.18789294 83:-0.073878075 84:1 85:-1 86:1 87:0.97825038 88:1 89:1 90:1 91:0.60340939 92:1 93:1 94:0.275982 95:1 96:-0.11794585 97:1 98:1 99:-0.47776907 100:-1 101:1 102:0.28350187 103:0.59190331 104:1 105:-0.24253562 106:1 107:1 108:1 109:-0.16903085 110:-0.30322846 111:-1 112:1 113:1 114:1 115:-0.43961575 116:-0.70557654 117:1 118:1 119:-1 120:0.97953659 121:1 122:0.24917655 123:-0.24253562 124:-0.16775873 125:1 126:0.41029808 127:-0.12799099 128:0.14938461 129:1 130:1 131:-0.51834283 132:-0.24253562 133:0.80508705 
0.71650200400487474 1:1 2:-1 3:-0.23279875 4:-1 5:-1 6:-0.10122074 7:1 8:1 9:-0.87529176 10:0.13048967 11:1 12:0.98329572 13:0.49716636 14:0.58206375 15:0.62775804 16:-0.967021 17:-1 18:-0.77566735 19:-0.80910976 20:-0.79056942 21:1 22:1 23:0.037472218 24:1 25:0.78909417 26:1 27:1 28:-0.10094842 29:1 30:0.45976903 31:-0.92570064 32:-0.05401131 33:-0.27261844 34:-0.47054312 35:1 36:0.0058146738 37:-0.073374652 38:0.82029494 39:-1 40:-1 41:-0.086200245 42:-0.2260975 43:-1 44:1 45:0.12294161 46:0.24133359 47:-1 48:-0.84938699 49:0.065512178 50:-0.71124412 51:1 52:0.16903085 53:1 54:-1 55:-0.34149304 56:-0.25562606 57:-0.13083541 58:-0.75793496 59:-0.77955726 60:0.51723823 61:1 62:0.75252751 63:-1 64:-1 65:-1 66:0.90386496 67:1 68:-0.71012194 69:0.71937615 70:-0.41847703 71:1 72:-1 73:-1 74:0.15907992 75:0.35520853 76:0.92873596 77:0.11103268 78:0.54810188 79:0.086169959 80:0.59895912 81:0.2021362 82:-1 83:1 84:-0.77342401 85:-0.52132852 86:-1 87:1 88:-0.5819603 89:0.83563592 90:-0.98070405 91:-0.6832613 92:1 93:0.91035371 94:-1 95:-0.96078891 96:0.87968245 97:1 98:-0.92371901 99:-1 100:-0.82466724 101:1 102:-0.41097153 103:-0.0098100722 104:-0.031115197 105:-0.7490265 106:-0.076843799 107:1 108:-0.94769024 109:-0.76769023 110:-0.055969817 111:0.927612 112:0.1972337 113:-0.68388192 114:-1 115:-0.23829889 116:-0.70000023 117:0.13056122 118:0.55550357 119:0.20242372 120:0.2390263 121:1 122:-0.082359585 123:0.27752659 124:0.45990964 125:0.55550357 126:-0.60532205 127:0.51330525 128:0.077083547 129:1 130:-0.62722356 131:0.66584365 132:-1 133:0.68365076 
0.71240131036768195 1:0.15745229 2:1 3:-0.79502105 4:-0.35355339 5:0.052212005 6:1 7:-0.71961076 8:-0.79693739 9:0.083861692 10:1 11:-0.49395647 12:-0.46114331 13:-0.38723966 14:-0.15909178 15:-0.26190007 16:0.78552455 17:-0.0023225255 18:1 19:0.15113098 20:-0.24253563 21:0.01996483 22:-1 23:-0.63682195 24:-1 25:-0.43981803 26:0.0096159282 27:0.077786795 28:-0.65043314 29:1 30:0.6350314 31:-0.27580816 32:1 33:1 34:-0.63546916 35:-1 36:-0.29300913 37:1 38:-0.47604624 39:0 40:0.65563056 41:1 42:0.26312142 43:0.74108107 44:-0.99113205 45:1 46:1 47:-0.24253563 48:0.28813252 49:-1 50:0 51:-0.47518991 52:-0.24253563 53:-0.3756927 54:0.41488627 55:-0.88366988 56:-0.24253563 57:-0.21292067 58:-0.091558098 59:0.4501756 60:-0.18440074 61:-0.076022788 62:-0.59527562 63:-0.24253562 64:-0.35355339 65:0.36141855 66:-0.16293338 67:-0.3329756 68:-0.24253562 69:-0.73969052 70:-1 71:-0.23153503 72:0.10241015 73:0.20907766 74:0.77916095 75:-1 76:-0.82046664 77:1 78:-1 79:0.5477184 80:-0.79066763 81:-0.39988559 82:0.52674424 83:-1 84:0.36865428 85:1 86:-0.83507188 87:-0.0010462272 88:-0.53991938 89:-0.061004929 90:0.47652925 91:0.40999966 92:-0.2132408 93:-0.11006492 94:1 95:-1 96:-0.76935705 97:-0.0079669671 98:0.099074928 99:0.53850567 100:-1 101:0.23594541 102:-0.50750745 103:-1 104:-1 105:-0.24253562 106:-0.89761909 107:-0.047654255 108:1 109:-0.16903085 110:-0.0025725749 111:-1 112:1 113:-0.078620888 114:-0.500489 115:-0.43961575 116:-0.7061114 117:1 118:-0.018466724 119:0.99611591 120:1 121:-0.26228802 122:-0.53476817 123:-0.24253562 124:-0.35660906 125:-0.018466724 126:0.65373324 127:-0.11702022 128:-0.21501187 129:-1 130:-1 131:0.87595868 132:-0.24253562 133:0.8042275 
0.71414850655652595 1:-1 2:-0.20026709 3:0.13951935 4:-0.67983466 5:-0.59155917 6:-0.022263896 7:0.73844329 8:-0.55161052 9:-0.46573201 10:-0.10352994 11:-0.32122277 12:0.19752048 13:-0.15950314 14:0.17292142 15:-0.38865764 16:-0.74922178 17:-1 18:0.28428978 19:-0.96479569 20:-0.68551196 21:-0.43843875 22:-0.23260541 23:0.81890047 24:0.17430571 25:-0.10395214 26:0.18952641 27:0.10835679 28:0.35787443 29:-0.54177483 30:-0.91252814 31:-0.19637496 32:0.062845988 33:-0.36670478 34:-0.16960325 35:0.54108172 36:-0.33575028 37:0.062108057 38:0.98064639 39:-1 40:-1 41:-0.90037814 42:-0.14174982 43:-0.44615395 44:1 45:-0.10222351 46:-0.17414137 47:-0.72031312 48:0.042158455 49:-0.033690856 50:-1 51:1 52:-0.82324684 53:0.62579502 54:-0.68223854 55:0.24272197 56:-0.78666618 57:-0.36322151 58:-0.0091429057 59:-0.1929053 60:0.84224836 61:-0.10570236 62:1 63:-1 64:-0.8156485 65:-1 66:1 67:0.080437288 68:-1 69:0.16772421 70:-0.078915382 71:1 72:-0.41667872 73:-1 74:1 75:-0.43883222 76:0.27992426 77:-0.098474299 78:0.0053491811 79:-1 80:-0.19368752 81:0.46675362 82:-0.31456829 83:-0.42783694 84:-1 85:-0.082048588 86:0.066990227 87:1 88:-0.93229373 89:0.96425288 90:-0.47118495 91:0.61361353 92:-0.61680013 93:-0.18963601 94:-0.50105316 95:-0.42409446 96:-0.36271522 97:0.53165836 98:0.89352271 99:-1 100:-0.66887367 101:-0.128252 102:-0.21952575 103:-0.058887301 104:0.55022305 105:-0.49646488 106:0.61979405 107:0.32088824 108:-0.52073202 109:-0.44291023 110:-0.4151619 111:0.35555493 112:-0.46813117 113:-0.41030133 114:-0.54555596 115:0.96837404 116:-0.64622099 117:-0.10303202 118:-0.053565329 119:-0.28592186 120:-0.17463053 121:-0.27204594 122:0.0098970173 123:-0.5180844 124:1 125:-0.053565329 126:-0.33692133 127:0 128:1 129:1 130:-0.11739222 131:1 132:-1 133:0.89702304 
0.71504200555700337 1:-0.33103565 2:-1 3:0.43596869 4:-1 5:-1 6:1 7:0.43352623 8:-1 9:0.42170208 10:0.62477395 11:0.65378567 12:1 13:1 14:0.78263366 15:0.67226735 16:-1 17:-1 18:0.050570211 19:-1 20:-0.90018185 21:0.58995738 22:-0.41268344 23:-0.39999448 24:1 25:1 26:1 27:-0.32837939 28:-1 29:-0.17358298 30:-0.41280014 31:-0.4489611 32:0.37167675 33:-0.039373401 34:-0.67980129 35:-0.31461796 36:-0.36649537 37:0.37925049 38:0.80355303 39:-1 40:-0.79603028 41:-1 42:-0.19249482 43:0.67460833 44:0.82344573 45:0.61571564 46:0.69334097 47:-1 48:0.4218859 49:0.13126118 50:-1 51:1 52:-0.80178373 53:1 54:-1 55:0.012519409 56:-0.44052174 57:0.84109918 58:1 59:-0.87365865 60:-0.02986068 61:1 62:1 63:-0.56568542 64:-1 65:-1 66:1 67:0.62109944 68:-0.63937428 69:-0.25705294 70:1 71:0.18059589 72:-1 73:-0.62636686 74:-0.36791473 75:0.56568542 76:-0.97582862 77:0.61518399 78:-0.11303484 79:-0.1842556 80:-0.12895632 81:0.21919218 82:0.21244402 83:1 84:-1 85:0.4067093 86:-0.0173173 87:1 88:-1 89:0.90020211 90:0.87581523 91:0.89441188 92:1 93:1 94:-1 95:-1 96:0.53000692 97:1 98:0.029002177 99:-1 100:0.73709398 101:-0.099888732 102:0.82042032 103:0.40217247 104:1 105:1 106:0.68395858 107:0.90183784 108:1 109:1 110:1 111:-0.28434052 112:0.66202221 113:0.67417025 114:0.061199006 115:1 116:0.067335933 117:0.62845118 118:1 119:0.220156 120:0.69391938 121:0.51238311 122:-1 123:-0.86985051 124:1 125:1 126:0.74211167 127:-0 128:0.82645979 129:1 130:-0.5558923 131:1 132:-1 133:1 
0.71462704150731071 1:0.1550806 2:0.045594261 3:0.48886982 4:-0.24253563 5:-0.35694541 6:-0.52391849 7:1 8:1 9:0.042556644 10:0.54977501 11:-0.25880056 12:-1 13:-0.2063371 14:-0.29474374 15:0.31219109 16:0.48096897 17:-0.37177078 18:1 19:-0.5799465 20:-0.16903085 21:0.6900888 22:-1 23:-0.19854212 24:-1 25:1 26:-0.16258052 27:-1 28:0.69485926 29:0.48670335 30:0.62678605 31:-0.87129487 32:0.61877166 33:0.60206314 34:0.53189587 35:0.33646235 36:-1 37:0.61092472 38:-0.6364203 39:-0.16903085 40:-0.42537521 41:-1 42:-1 43:-0.031539373 44:-0.12025241 45:0.5457618 46:0.52670867 47:-0.16903085 48:-1 49:-0.98874644 50:-0.16903085 51:-0.22798639 52:-0.16903085 53:0.13754332 54:-0.29785213 55:-0.13836631 56:-0.24253563 57:0.40566042 58:-0.42219161 59:-0.60628109 60:-0.11257838 61:-0.068708057 62:-0.48078694 63:-0.24253563 64:-0.24253563 65:0.33876085 66:-0.10869237 67:-0.43464767 68:0 69:-0.39467668 70:-0.72211462 71:-0.47473573 72:0.42095868 73:0.31667671 74:-0.92591107 75:-0.59857489 76:-0.95364073 77:0.54059304 78:0.077455518 79:0.3806865 80:-0.34904305 81:-1 82:-0.41664848 83:0.14445008 84:-0.90394708 85:1 86:-0.68421334 87:-1 88:-0.34014581 89:-0.77757852 90:-0.47588144 91:-0.22027321 92:1 93:-0.11743701 94:0.16802512 95:0.24148137 96:0.62688024 97:0.011337165 98:-0.63658402 99:0.23943107 100:-1 101:1 102:0.024480977 103:0.21700008 104:0.46094909 105:-0.16903085 106:1 107:-0.031763625 108:-0.096777605 109:-0.24253562 110:-0.28671756 111:1 112:0.61107897 113:0.11053702 114:-1 115:1 116:0.4100048 117:0.54994825 118:-0.10486882 119:0.37931668 120:0.52521752 121:1 122:0.28873618 123:-0.16903085 124:-0.18103054 125:-0.10486882 126:-0.26592563 127:-0.0098513122 128:-0.015454664 129:-0.27469927 130:1 131:-0.50479677 132:-0.24253563 133:-0.95125648 
0.71745696137396042 1:0.55278139 2:-0.21825358 3:0.06495642 4:-0.40160966 5:-1 6:1 7:1 8:0.42729794 9:-0.2727178 10:-0.76795223 11:0.65695304 12:0.6444293 13:-0.28481937 14:-0.080198905 15:-0.53476951 16:-0.060304174 17:0.083628629 18:-1 19:-1 20:1 21:-0.39685157 22:0.35465596 23:-0.060981329 24:-0.87088556 25:0.68533284 26:-0.12930496 27:-0.86573582 28:0.67530089 29:0.76634668 30:0.47346723 31:0.21301167 32:-0.48878059 33:-0.59002657 34:0.31645545 35:-0.99582238 36:0.020575699 37:-0.47147416 38:-0.64942557 39:1 40:-0.63421065 41:-0.38470065 42:0.95176771 43:-0.38639197 44:-0.28468333 45:-0.71857807 46:-0.90059694 47:1 48:0.80504866 49:-0.045883147 50:0 51:-0.18654443 52:-0.30151134 53:0.45073898 54:0.32531032 55:0.98026996 56:-0.30151134 57:-0.44196139 58:-0.37229374 59:-0.77515707 60:-0.50155282 61:0.21681456 62:0.43490184 63:-0.24253563 64:-0.35355338 65:-0.50281394 66:0.54155992 67:-0.12812701 68:1 69:0.37883658 70:-0.78370133 71:-0.10654487 72:-1 73:-0.25014885 74:-1 75:-0.79404818 76:0.47152872 77:-0.70821941 78:-0.091061755 79:-0.0043825438 80:1 81:0.41415203 82:0.069583147 83:1 84:-1 85:-0.35381683 86:-0.94850989 87:0.48109979 88:-0.70580287 89:0.77196275 90:-0.60404653 91:-0.084202822 92:0.46986164 93:0.91388587 94:-0.21083233 95:0.97801929 96:1 97:0.74800512 98:-0.84398331 99:0.45069335 100:1 101:-0.58176396 102:-0.078899417 103:-0.29895943 104:0.96416601 105:-0.35355338 106:0.50629932 107:0.8572257 108:-0.44462753 109:-0.16903085 110:-0.39094532 111:1 112:-0.64501379 113:-0.3500167 114:-0.39354252 115:-0.30707798 116:1 117:-0.78669999 118:0.82829548 119:0.84950974 120:-0.900104 121:0.4970188 122:-1 123:-0.16903085 124:0.5350296 125:0.82829548 126:-0.5927864 127:-0.14511075 128:0.4082837 129:0.039016147 130:1 131:-0.56317703 132:-0.35355339 133:-0.20619927 
0.71594809699987705 1:-1 2:0.016163477 3:1 4:-1 5:0.42048864 6:1 7:1 8:-1 9:1 10:0.32032005 11:1 12:0.27306438 13:-1 14:-0.67106178 15:0.64831924 16:1 17:-0.9499757 18:-0.76178716 19:-1 20:-1 21:0.519989 22:-0.050813738 23:-0.16531261 24:-0.34132846 25:0.85728176 26:-0.617199 27:1 28:0.39568662 29:0.75297518 30:-1 31:-0.11819796 32:0.18278498 33:-0.45030455 34:-0.21360222 35:0.58629132 36:0.46764275 37:0.18935456 38:1 39:-1 40:1 41:1 42:1 43:0.56665317 44:-0.72557416 45:0.32810157 46:0.39502939 47:-1 48:0.24145297 49:1 50:-1 51:-0.87132434 52:-1 53:0.35219635 54:-0.21474753 55:0.44412444 56:-1 57:0.14494887 58:-0.27153958 59:0.11087016 60:0.58188984 61:-0.82651687 62:-1 63:-1 64:-1 65:-0.12434441 66:-0.26221158 67:-0.8304245 68:-1 69:1 70:-0.27855233 71:0.31718923 72:-0.27795494 73:0.017352723 74:-0.37479191 75:1 76:-0.38054329 77:0.34451128 78:1 79:-0.23965408 80:0.040180136 81:-1 82:-0.50327145 83:-1 84:0.20780678 85:-0.19893186 86:-0.57963471 87:-1 88:-1 89:-1 90:0.11771146 91:1 92:-1 93:0.60960923 94:1 95:-0.42409446 96:-1 97:-0.26032437 98:0.96323752 99:-0.80533375 100:0.6032161 101:-0.25156097 102:-1 103:1 104:-0.64385203 105:-1 106:-1 107:0.27111299 108:-0.2298245 109:-1 110:-0.0032861897 111:0.20045316 112:0.15792352 113:0.74607603 114:1 115:-1 116:-1 117:0.31816574 118:-1 119:-1 120:0.39527727 121:-1 122:-1 123:-1 124:-0.90366228 125:-1 126:-0.096947914 127:0 128:-1 129:-0.35482225 130:1 131:-1 132:-1 133:0.86112804 
0.73025745455908919 1:-1 2:0.70294268 3:-0.58408182 4:-0.24253563 5:-0.35402454 6:-1 7:-0.46864747 8:-1 9:-0.45502452 10:-0.17721893 11:-0.044356761 12:-0.27444468 13:-0.28629514 14:-0.6029717 15:-0.12666002 16:-1 17:0.1267006 18:0.32515398 19:0.73086834 20:-0.16903085 21:-0.11764614 22:0.11150419 23:-1 24:-1 25:-1 26:-0.39085748 27:0.30196794 28:-0.034673431 29:-0.018586893 30:0.031278165 31:-0.49114914 32:-0.081541607 33:-0.57340231 34:-0.43247317 35:0.35747868 36:-0.23998351 37:-0.079883131 38:-0.6364203 39:-0.16903085 40:0.15193701 41:-0.60157617 42:-0.38649788 43:-0.34285507 44:-0.12088757 45:-0.20065864 46:-0.22388374 47:-0.16903085 48:-0.13025521 49:-0.41463561 50:-0.16903085 51:-0.37411978 52:-0.16903085 53:-0.040822135 54:0.32920274 55:1 56:-0.24253563 57:-0.51412652 58:0.48254873 59:-0.19999545 60:0.26472425 61:-0.43807621 62:-0.48078694 63:-0.24253563 64:-0.24253563 65:0.23072728 66:0.69778634 67:-0.53467316 68:0 69:-0.63873678 70:-1 71:-0.65874791 72:-0.07013805 73:0.35064002 74:0.84973093 75:0.01710214 76:0.66165725 77:-0.22138384 78:-0.42971301 79:0.095919171 80:0.038795162 81:0.89472208 82:-0.11424466 83:0.14107693 84:0.70605082 85:-0.2238249 86:-0.1816402 87:0.002825755 88:-0.21513775 89:-0.13897871 90:-0.4725241 91:-0.058048027 92:-0.48486693 93:-0.49629775 94:0.75792182 95:-1 96:-0.68196992 97:-0.84552504 98:0.53256223 99:0.27219456 100:-0.059797735 101:-0.52616727 102:-0.82983843 103:0.051199674 104:-1 105:-0.16903085 106:-0.47571081 107:-0.64107369 108:-0.50991221 109:-0.24253562 110:-0.27585006 111:0.32852253 112:-0.058126656 113:-0.36699892 114:-0.37707514 115:-0.46843555 116:1 117:-0.17045313 118:-0.31538377 119:-0.23329314 120:-0.22478907 121:0.9041955 122:0.63048418 123:-0.16903085 124:-0.62581758 125:-0.31538377 126:-0.48594141 127:-0.047698444 128:-0.038616492 129:-1 130:1 131:-0.50479677 132:-0.24253563 133:-0.9520141 
0.70980812525981241 1:1 2:-0.8115205 3:-1 4:-0.35355339 5:0.66215953 6:-0.20076818 7:1 8:0.9731517 9:0.40447128 10:0.056613227 11:-0.26719479 12:-0.20014838 13:-0.25016227 14:-0.97978676 15:0.031388301 16:0.8337228 17:-0.058413524 18:0.61374725 19:0.48482956 20:-0.24253556 21:0.1132836 22:-0.65720379 23:-1 24:-0.25047408 25:-0.41494334 26:-0.54605669 27:-1 28:0.12193353 29:-0.89965891 30:0.22679788 31:-0.36831434 32:0.070475095 33:0.11105195 34:-0.036136648 35:-0.054742097 36:-0.20878677 37:0.076400402 38:0.54075849 39:-0.24253556 40:-0.40367806 41:1 42:1 43:0.089180638 44:-0.020870411 45:0.066021345 46:0.07020389 47:-0.24253556 48:-1 49:-0.20851441 50:-0.30151127 51:0.008372655 52:-0.30151126 53:-0.11740737 54:1 55:0.15396014 56:-0.24253563 57:-0.36144985 58:-1 59:-0.42234984 60:-0.35507148 61:-0.52161545 62:0.35628937 63:-0.40160966 64:-0.40160966 65:-0.18648167 66:-0.042834179 67:-0.8887887 68:-0.40160959 69:0.04804437 70:-0.095461984 71:-0.80093357 72:-0.1479148 73:0.28797184 74:0.4862192 75:0.19810978 76:0.090125168 77:0.078830579 78:-0.34873745 79:-0.69451987 80:-0.51058087 81:-0.25042042 82:-0.22260957 83:0.055700489 84:-1 85:0.6668459 86:0.20256199 87:-0.27841473 88:0.09921743 89:-0.32346094 90:-0.36357023 91:0.89360007 92:-0.57801582 93:-0.41504109 94:-0.96179176 95:-0.31026955 96:-0.51240039 97:-0.33897725 98:-0.65660534 99:0.39379469 100:-0.41848745 101:0.10475963 102:-1 103:-1 104:-0.70777921 105:-0.40160966 106:-0.2674384 107:-0.31886209 108:-0.35984233 109:-0.24253556 110:-0.21831377 111:0.14103906 112:0.12642928 113:0.15735783 114:0.29361011 115:-0.22438088 116:0.95691657 117:0.051858167 118:-0.53359465 119:-1 120:0.070528537 121:-0.59990564 122:0.18201661 123:-0.30151134 124:-0.80107002 125:-0.53359465 126:-0.40342671 127:-0.30510242 128:-0.44074533 129:-0.83568323 130:-0.42960046 131:0.48413212 132:-0.40160966 133:0.098155364 
0.71564799543050217 1:-0.27332269 2:-0.1594951 3:-1 4:-0.61487546 5:-0.69914826 6:-0.21736904 7:-0.85421306 8:1 9:0.39664308 10:0.18696389 11:-1 12:-1 13:0.012650972 14:-0.67721539 15:0.44706655 16:1 17:0.67253706 18:0.29074604 19:-0.91761445 20:-0.61333355 21:0.4561781 22:0.20360096 23:-0.40740041 24:-0.42691387 25:-1 26:1 27:-0.1830648 28:1 29:-1 30:1 31:-0.16852973 32:0.20687169 33:-0.30401507 34:0.18451217 35:0.571452 36:0.016255267 37:0.2206168 38:-0.81299571 39:-0.5 40:0.47100175 41:0.65480329 42:-0.93153755 43:0.21648629 44:-1 45:0.19450322 46:0.19190654 47:-0.60326743 48:0.99300485 49:0.079936077 50:-0.44407154 51:-0.50078694 52:-0.7311381 53:-1 54:1 55:-0.60712512 56:-0.63960215 57:-0.33756125 58:-0.18492873 59:-0.14938493 60:-0.54118444 61:-0.57514199 62:-0.7743188 63:-0.60971076 64:-0.53605627 65:0.72604607 66:-0.96758829 67:-0.40098367 68:-0.49817037 69:1 70:-0.18243576 71:0.17267498 72:1 73:0.6679581 74:1 75:0.36658828 76:0.43070116 77:0.21716089 78:-0.99077135 79:0.25807037 80:0.52138466 81:-1 82:0.58650865 83:-0.12832693 84:1 85:-0.29064345 86:1 87:-0.22837036 88:-0.75424693 89:-1 90:-0.35836495 91:-0.41234467 92:-1 93:-1 94:0.47257388 95:0.50578054 96:0.90338638 97:-1 98:0.18494762 99:1 100:0.21230172 101:-0.47395437 102:-0.340969 103:-1 104:-0.12948773 105:-0.84856402 106:-1 107:-1 108:-0.34564715 109:-0.47723068 110:-0.37772549 111:-0.13313343 112:0.2963565 113:0.3958056 114:0.5488213 115:0.70357954 116:-0.36559449 117:0.19920312 118:-1 119:-1 120:0.20601255 121:-1 122:0.044357784 123:-0.56879646 124:-0.68234852 125:-1 126:-0.36094945 127:-0 128:-0.27800864 129:-1 130:-0.97700927 131:-0.86862927 132:-0.73455688 133:-0.79275889 
0.71442686442435932 1:0.25369634 2:0.50618936 3:0.344676 4:-1 5:-0.053585274 6:0.30247275 7:-1 8:0.088207781 9:0.31483053 10:0.49912739 11:1 12:1 13:0.018463443 14:1 15:0.15650277 16:-0.7274541 17:-0.16466261 18:1 19:-0.29138739 20:-1 21:0.039289174 22:-1 23:0.15129443 24:-0.17453647 25:1 26:0.63813984 27:0.67847646 28:-0.84597348 29:0.39825696 30:0.84416832 31:-0.64005732 32:0.39326814 33:1 34:-0.53619898 35:-1 36:-0.79017169 37:0.39823417 38:0.4220375 39:-1 40:-0.47704122 41:1 42:0.86763378 43:0.77091667 44:-0.054075535 45:0.50168185 46:0.53420789 47:-0.83675473 48:-0.39009051 49:-0.83785782 50:-1 51:0.20862536 52:-1 53:1 54:-0.35640476 55:-0.10056516 56:0.054964971 57:0.6917876 58:0.0867306 59:-0.4961754 60:0.2567046 61:1 62:-1 63:-0.71428571 64:-1 65:-0.5568143 66:1 67:1 68:0.40338463 69:1 70:-0.52705674 71:0.81518987 72:0.9311858 73:-1 74:-0.13926118 75:-0.62389991 76:-1 77:0.54355542 78:0.47069752 79:0.025459188 80:-0.97571882 81:1 82:0.94690896 83:0.31976768 84:1 85:1 86:-0.4298577 87:1 88:-0.14094753 89:0.78507535 90:0.0092943713 91:0.19705202 92:1 93:0.68300759 94:0.95022599 95:-1 96:0.20331794 97:0.3255228 98:0.38057039 99:-0.5806385 100:-0.28233422 101:1 102:0.72261205 103:0.055109132 104:0.22924505 105:1 106:1 107:0.29023667 108:1 109:0.10878566 110:0.64321401 111:0.73329382 112:0.4613353 113:0.21901041 114:-1 115:0.82368912 116:-0.36015342 117:0.50614265 118:0.72735461 119:-1 120:0.53338623 121:0.015689369 122:-0.44320868 123:-1 124:1 125:0.72735461 126:0.16732364 127:-0 128:-0.67041457 129:0.54630887 130:0.069226667 131:-0.23409473 132:-0.61237244 133:1 
0.71664120635321016 1:0.17374436 2:-0.32881601 3:1 4:-0.24253563 5:0.31349741 6:-0.62474071 7:-0.51092428 8:-1 9:-1 10:-1 11:-0.61157932 12:-1 13:0.38402964 14:1 15:-0.40602438 16:-0.50079418 17:0.42908722 18:0.63289756 19:-1 20:-0.16903085 21:-1 22:-0.61001212 23:-0.17522341 24:0.094457354 25:-1 26:-0.37093229 27:0.53201921 28:-0.35256163 29:-0.75698204 30:1 31:-0.22339573 32:-1 33:-0.62697546 34:-0.3679292 35:-0.60020291 36:-0.22607212 37:-1 38:-0.64724958 39:-0.24253562 40:0.89775376 41:-1 42:-1 43:-0.12087223 44:1 45:-1 46:-0.96908556 47:-0.24253562 48:-0.063116636 49:-0.047088161 50:-0.24253563 51:0.08178341 52:-0.16903085 53:-1 54:-0.45898911 55:1 56:-0.16903085 57:-0.90326441 58:1 59:0.50910186 60:0.13859963 61:0.37709181 62:0.68923901 63:-0.30151134 64:-0.24253562 65:-1 66:0.42918282 67:0.083329853 68:-0.30151134 69:0.10373025 70:-1 71:0.32992205 72:0.98587103 73:0.2968097 74:0.53759759 75:0.27971344 76:0.81595862 77:-0.97567056 78:0.14082955 79:0.29775822 80:-0.61613548 81:-1 82:0.37090703 83:-0.23054809 84:0.0073550794 85:0.62549027 86:0.00019569046 87:0.56537512 88:-1 89:-1 90:-0.47695148 91:-0.47857557 92:-1 93:-1 94:-0.50902514 95:0.27317918 96:0.39323534 97:-0.961835 98:-0.2043569 99:-0.23457908 100:0.4273906 101:-0.82411293 102:-0.10249044 103:0.18229926 104:-1 105:-0.24253563 106:-1 107:-1 108:-0.60955439 109:-0.24253563 110:-0.79677882 111:0.78057562 112:-1 113:-0.5130603 114:0.30617297 115:-0.16903085 116:1 117:-1 118:-1 119:-0.4761663 120:-0.9644263 121:-1 122:0.40858371 123:-0.30151134 124:0.19269882 125:-1 126:-0.36480303 127:-0.11605829 128:1 129:0.15930902 130:0.9862679 131:-0.44358359 132:-0.24253562 133:0.88365559 
0.71622145326059727 1:-1 2:-0.24331607 3:-0.98019308 4:-0.34193745 5:-1 6:-0.72639876 7:-0.45814381 8:0.25765419 9:-0.065272386 10:-0.77599238 11:-1 12:0.2956541 13:-0.41171878 14:-1 15:-0.079539049 16:-0.40253482 17:-1 18:0.22150236 19:-0.31798428 20:0.95094948 21:-0.37122216 22:-0.3715465 23:1 24:-0.011710094 25:-0.98068143 26:-0.79127845 27:0.15488345 28:0.32362172 29:1 30:-0.42643818 31:0.51334806 32:-0.82770468 33:-0.99940768 34:-0.19824225 35:-0.30779377 36:1 37:-0.86111994 38:0.070761417 39:0.48430866 40:1 41:-0.21854847 42:-0.42042616 43:0.046362637 44:1 45:-0.77514852 46:-0.73267481 47:0.11101995 48:0.44562691 49:0.58381938 50:-0.65660953 51:-1 52:0.016349677 53:0.04852932 54:0.52312634 55:1 56:-0.86456976 57:-0.78928177 58:0.097541276 59:0.85835393 60:0.023000208 61:-0.91615012 62:0.42732498 63:1 64:0.66760983 65:-0.22286403 66:0.58454995 67:-0.47490446 68:-1 69:-0.76757586 70:1 71:-1 72:-1 73:0.98926545 74:-0.90978327 75:1 76:0.66444141 77:-0.79664457 78:-1 79:1 80:-0.54903496 81:-0.88496539 82:-1 83:1 84:-1 85:0.37427267 86:-0.66782148 87:1 88:-0.22711874 89:0.5571995 90:-0.61630141 91:0.078840166 92:-0.20289897 93:0.76853014 94:0.11282667 95:1 96:0.43064902 97:0.2220513 98:0.43706488 99:-0.53327827 100:0.26307066 101:-1 102:1 103:1 104:0.32341294 105:0.041066345 106:-0.75705471 107:0.4090782 108:-0.79139708 109:1 110:-0.994064 111:-0.12720775 112:-0.39737691 113:0.02198533 114:0.63196937 115:-1 116:0.89392977 117:-0.77555495 118:0.7633374 119:-0.86341979 120:-0.73262084 121:-0.068854535 122:0.49764019 123:0.58980961 124:-0.33130196 125:0.7633374 126:-0.80847472 127:0 128:0.40028647 129:0.55811953 130:-0.88548928 131:1 132:0.30560136 133:0.8293812 
0.71464825035863511 1:0.51276307 2:0.51576876 3:0.50388777 4:0.038263937 5:1 6:0.93373301 7:-0.37650901 8:-0.20374768 9:0.85987293 10:0.70480576 11:-0.17916701 12:0.46781089 13:-0.64510533 14:-1 15:0.59360541 16:-0.052679338 17:1 18:-1 19:-0.61973682 20:0.99792531 21:0.53882652 22:1 23:1 24:-0.72841621 25:-1 26:-0.45420276 27:0.10563106 28:-1 29:-0.73552356 30:-0.21072913 31:-0.94436601 32:0.077500478 33:-0.094401936 34:-1 35:1 36:-1 37:0.082648024 38:-0.32838572 39:-0.12756827 40:-1 41:1 42:-0.38784824 43:1 44:-0.36475906 45:0.69863029 46:0.87330714 47:0.45146612 48:-0.61316719 49:1 50:0.3519122 51:-0.63146936 52:0.53499447 53:-1 54:-0.025216634 55:0.22199849 56:-0.55486171 57:0.43635294 58:1 59:-0.52196922 60:-0.7038444 61:-1 62:-0.75458394 63:0.6681531 64:0.4125685 65:-0.020546814 66:0.20454407 67:-1 68:0.2465076 69:-0.2564502 70:-0.2277919 71:-1 72:0.56305255 73:-0.16621146 74:0.41787457 75:1 76:-0.34674621 77:0.68629222 78:0.19491887 79:0.19782383 80:-0.099969183 81:1 82:0.11325165 83:1 84:-0.50289538 85:-1 86:0.41238098 87:0.22297964 88:-0.76091224 89:0.56431073 90:1 91:0.93630107 92:-1 93:0.49052278 94:1 95:-0.72932496 96:-0.35191965 97:0.5456526 98:-0.5435836 99:0.12094978 100:-0.14862349 101:-0.079115847 102:1 103:0.042143566 104:1 105:0.89894428 106:-0.43966393 107:0.18541872 108:0.42814509 109:0.46597208 110:0.074210723 111:-1 112:0.66972599 113:1 114:1 115:1 116:-0.79872627 117:0.70705555 118:0.78309153 119:-1 120:0.87419377 121:0.35147724 122:-0.67253904 123:-0.21300716 124:-1 125:0.78309153 126:0.23347238 127:-0 128:-0.66741502 129:0.313893 130:0.075867156 131:1 132:0.73645969 133:-0.61634005 
0.71256315960104344 1:-0.6032386 2:-0.024633934 3:1 4:-0.48756643 5:0.033741077 6:-1 7:-0.28506653 8:0.51063371 9:-0.14060961 10:-0.2890075 11:-0.13314453 12:-0.36336762 13:-0.35220872 14:-1 15:-0.3643945 16:-0.67339273 17:-0.69918147 18:-0.43660871 19:-0.52148237 20:-0.20032077 21:-0.33694781 22:0.26799547 23:-0.30749177 24:0.049038839 25:-0.70116261 26:-0.51420122 27:-0.8067528 28:-0.9633785 29:0.60834884 30:-0.012119338 31:0.47819696 32:-0.27786158 33:-0.60887042 34:0.30761828 35:0.30155361 36:-0.071644096 37:-0.27551892 38:0.93730526 39:-0.97024125 40:0.13242708 41:-0.94770192 42:-0.11503343 43:-0.38479673 44:0.65878232 45:-0.2870679 46:-0.27389888 47:-1 48:-0.00098748078 49:-0.48257301 50:-0.74743509 51:-0.58629182 52:-0.66124163 53:-0.43475105 54:-1 55:1 56:-0.92060161 57:-0.81447672 58:0.083581663 59:-0.29834277 60:0.39619289 61:-1 62:0.14809019 63:0.23739779 64:-0.64797392 65:-0.21941122 66:1 67:-0.73207082 68:-1 69:0.2898472 70:-0.17892742 71:-0.92464337 72:0.15784255 73:-0.28573947 74:0.70173411 75:-0.31448545 76:0.73494004 77:-0.28649525 78:0.39962038 79:-0.66816588 80:1 81:-0.39724574 82:0.14342664 83:0.006437362 84:0.92405859 85:-0.30625873 86:-0.20533512 87:0.31427547 88:-0.67198802 89:-0.32768167 90:-0.48958174 91:0.5157379 92:-0.96229627 93:-0.61124874 94:-0.73401972 95:0.32616404 96:1 97:-0.69710031 98:1 99:-0.8317084 100:0.19863073 101:-0.50078613 102:-0.78259642 103:1 104:0.9608799 105:-0.38411064 106:-0.6011284 107:-0.63071227 108:-0.68123728 109:-0.3509312 110:-0.87824535 111:-0.86814905 112:-0.35328755 113:-0.24276099 114:0.70166509 115:-0.23256949 116:-0.017202447 117:-0.29112655 118:-0.46206412 119:0.050877115 120:-0.27447286 121:-0.54899147 122:0.44804077 123:0.48914243 124:-0.54973125 125:-0.46206412 126:-0.53544202 127:-0.37526 128:0.84970796 129:1 130:-0.83537003 131:-0.14160277 132:-0.71907696 133:1 
0.71767371590346685 1:0.33315741 2:0.22308369 3:0.059407315 4:0.038263937 5:-0.28958146 6:0.24065222 7:0.98825514 8:0.59095777 9:-0.10837561 10:-0.031346027 11:0.12005111 12:1 13:-0.88573548 14:-0.4698447 15:-0.066044854 16:0.55067758 17:1 18:-0.37186366 19:0.32964724 20:1 21:-0.018370076 22:0.29453137 23:-1 24:-0.91605831 25:0.37223259 26:-1 27:0.44281788 28:1 29:-1 30:-0.61222975 31:1 32:-0.15851162 33:-0.67551656 34:1 35:-0.8078719 36:1 37:-0.16652395 38:0.31220909 39:1 40:-0.038512125 41:-0.45684174 42:0.14164614 43:0.34508144 44:-0.18226016 45:-0.027577222 46:0.088269827 47:0.45146612 48:0.68655104 49:0.5498148 50:-0.31486881 51:-1 52:1 53:-0.071601527 54:0.19190037 55:-0.44292737 56:0.0608555 57:-0.70778761 58:-0.40608751 59:-0.58635882 60:-0.34040373 61:-1 62:0.0033959673 63:1 64:1 65:0.41328594 66:-0.86092667 67:-0.50783052 68:-0.32066552 69:-0.61138908 70:-0.39296583 71:0.21524098 72:1 73:0.53481141 74:-0.35387643 75:0.30037961 76:0.72890612 77:-0.035252971 78:-0.16374715 79:-1 80:-0.5565704 81:0.041223864 82:0.12062099 83:0.29131074 84:-0.044948066 85:-0.29803491 86:1 87:-1 88:0.40972198 89:1 90:-0.45480679 91:-0.082979661 92:0.19449573 93:0.81354114 94:-0.22981675 95:-0.72932496 96:0.58472425 97:0.4961425 98:-0.36025069 99:1 100:-0.44537325 101:-0.68228296 102:-1 103:-1 104:0.23149822 105:-0.067085394 106:0.23266561 107:0.49550182 108:-0.70092218 109:0.46597208 110:-0.48487939 111:-1 112:0.15153999 113:0.32788102 114:-0.34554737 115:-0.23572331 116:-0.21323461 117:-0.032755826 118:1 119:-0.59284759 120:0.08818524 121:0.094705837 122:-0.03315839 123:1 124:-0.68407492 125:1 126:-0.56449359 127:-0 128:0.72281131 129:-0.55583396 130:0.30602595 131:-1 132:0.18411492 133:-1 
0.71518980683316524 1:0.20580891 2:-0.23275456 3:0.54740607 4:0.98984199 5:-0.99197986 6:-1 7:-0.3970567 8:0.43228563 9:-0.15710766 10:0.83547351 11:-0.21605257 12:-0.3070523 13:-0.46148926 14:0.014872988 15:-0.26787071 16:-0.44625276 17:-0.12702204 18:-0.64676958 19:0.87670751 20:-0.49311811 21:0.034421386 22:-0.52378466 23:-0.71619695 24:0.19887549 25:0.24824157 26:-0.44505608 27:0.29416653 28:-0.55905569 29:-0.66071851 30:1 31:-0.60139336 32:0.87850021 33:0.9225953 34:-0.37381676 35:-0.52756219 36:0.14655701 37:0.93805113 38:-0.67127941 39:0.089622212 40:0.35931371 41:-0.19031767 42:-1 43:-0.44607364 44:0.35684973 45:0.81142359 46:0.81521871 47:-1 48:-0.29309243 49:-0.5488213 50:0.49016501 51:-0.36063634 52:0.40160966 53:-0.62230163 54:-0.75335071 55:0.74226814 56:-0.52228943 57:-0.36424762 58:1 59:-0.089292133 60:0.08579882 61:-0.34490592 62:0.46181544 63:-0.15075567 64:0.54918786 65:-0.5772322 66:-0.070400915 67:-0.47873575 68:-0.27375436 69:-0.0022921825 70:-1 71:-0.52025232 72:-0.055870638 73:0.60624707 74:1 75:-0.85609522 76:0.13407917 77:0.83064415 78:-0.72649711 79:-0.46890353 80:1 81:1 82:-0.81801198 83:0.056398236 84:-0.066800867 85:0.60775504 86:0.20906332 87:0.66286148 88:0.88103854 89:0.45088559 90:0.20776842 91:-0.12469903 92:-0.033340062 93:0.62248211 94:-0.093017581 95:-0.40487668 96:-0.12860501 97:-0.11105104 98:-0.30816665 99:-0.33007453 100:0.95750539 101:-0.13422487 102:-0.53083297 103:0.053830162 104:1 105:0.99730676 106:0.088999045 107:-0.054559165 108:0.31601455 109:0.12803688 110:0.52511701 111:1 112:0.45689727 113:-0.85636439 114:1 115:-0.36799987 116:-0.71790186 117:0.84246541 118:0.7095717 119:-0.63523181 120:0.81783565 121:0.26576359 122:0.75228002 123:-0.39693358 124:-0.26682478 125:0.7095717 126:-0.31633102 127:-0.012060425 128:0.11696958 129:0.35822161 130:0.44528161 131:0.55329276 132:-1 133:0.013795925 
0.71435255256134977 1:0.22341061 2:-0.22807503 3:-0.58023 4:-0.05944383 5:-1 6:-0.91474002 7:0.42278506 8:-1 9:0.70276436 10:0.45665266 11:-0.26445417 12:-0.27293749 13:0.065303331 14:-0.45313568 15:0.5969717 16:-0.78788367 17:-0.35688383 18:-1 19:1 20:0.20519567 21:0.7978764 22:0.64166498 23:0.30948363 24:0.44785804 25:-0.3748978 26:-0.23371016 27:-0.16073874 28:1 29:0.15134079 30:-0.2397584 31:-1 32:0.45310323 33:-0.17680965 34:1 35:0.56448221 36:-1 37:0.45535826 38:-1 39:-1 40:1 41:1 42:0.78349449 43:0.6164582 44:0.83292934 45:0.45997392 46:0.46768662 47:-0.20642154 48:0.11535381 49:1 50:4.6005094e-16 51:-0.31114256 52:0.11749267 53:-0.5731889 54:0.38891058 55:-0.9627259 56:-0.24948795 57:-0.057977372 58:-0.074452993 59:1 60:0.1510434 61:-0.64033526 62:-0.18369456 63:0.039936153 64:-1 65:0.89997999 66:0.51761309 67:-0.10346946 68:-0.14024818 69:-0.97303104 70:-0.51717564 71:-0.51594609 72:1 73:-0.080639859 74:-1 75:1 76:0.5103816 77:0.46174669 78:-0.20503953 79:-1 80:0.45211061 81:0.85754474 82:-0.52292172 83:-0.52729291 84:0.35913928 85:-0.59029736 86:0.91129995 87:0.44123234 88:1 89:-0.034915812 90:-0.14852977 91:-0.41320426 92:0.6702533 93:-0.15209414 94:0.4408768 95:-0.24618298 96:0.28011642 97:0.055718537 98:0.32859433 99:-0.18989558 100:1 101:0.12455857 102:0.24129429 103:-0.16867559 104:-0.21579254 105:0.57590055 106:0.033187424 107:-0.1111733 108:-0.28144409 109:0.68616115 110:0.015170981 111:0.61213607 112:0.55400551 113:0.97318827 114:0.27971344 115:0.35634094 116:0.85225846 117:0.45493883 118:-0.64646385 119:-0.58252533 120:0.46683522 121:0.39543932 122:1 123:-0.073127242 124:-0.75091256 125:-0.64646385 126:-0.19943312 127:0 128:-0.87699797 129:0.94755958 130:0.93369896 131:-0.64297548 132:-0.43120591 133:0.33783519 
0.70866851009108056 1:1 2:-0.93516094 3:0.37969719 4:-0.30151126 5:-0.99857316 6:0.30116358 7:-0.35276868 8:-1 9:0.8246318 10:1 11:-0.67783785 12:-0.20888425 13:-0.47326845 14:0.079800222 15:0.41544508 16:-0.11316582 17:-0.030257281 18:0.37111687 19:-0.68157289 20:-0.24253562 21:-0.057738679 22:0.43234977 23:0.44856559 24:0.32997382 25:-0.72807338 26:-0.29382496 27:0.81727102 28:-0.49886648 29:-0.91809271 30:-0.42635059 31:-0.69741838 32:1 33:1 34:-0.52895177 35:-1 36:-0.69026788 37:1 38:-0.46655985 39:-0.16903085 40:-0.4639647 41:-0.54562701 42:1 43:1 44:0.58938431 45:1 46:1 47:-0.16903085 48:-1 49:0.53452248 50:-0.16903085 51:-0.44634491 52:-0.24253562 53:-0.23642191 54:-0.24898195 55:0.35266338 56:-0.16903085 57:0.77502431 58:-0.99407245 59:-0.44897748 60:-0.16478795 61:-0.10423307 62:-0.45713497 63:-0.24253555 64:-0.30151126 65:-0.10451012 66:-0.78107012 67:-0.047902665 68:-0.30151126 69:-0.14788524 70:1 71:-0.12563172 72:0.32771615 73:0.068069895 74:-0.46756774 75:-0.49236596 76:-0.47302146 77:1 78:-0.32118739 79:-1 80:-0.62092727 81:-0.4839876 82:0.72935531 83:0.33230903 84:-0.79643327 85:-0.61671337 86:0.011356685 87:-1 88:-0.6423709 89:-0.22050206 90:1 91:1 92:-0.37288033 93:-0.24825067 94:-0.82599301 95:1 96:-0.5726623 97:0.45286206 98:-0.66579843 99:0.31684633 100:-1 101:0.73068113 102:0.33527171 103:-0.90177556 104:-0.95925615 105:0 106:-0.75236285 107:0.22696324 108:1 109:-0.3535533 110:0.53319365 111:0.60729707 112:1 113:0.39192662 114:-1 115:-0.33859291 116:-1 117:1 118:-0.27697676 119:-1 120:1 121:-0.55307093 122:-0.18335244 123:-0.24253555 124:0.049999706 125:-0.27697676 126:1 127:-0.042309184 128:0.43692647 129:0.87872315 130:-1 131:-0.42201363 132:-0.30151126 133:-0.86598541 
0.71271157468228996 1:0.66559585 2:-0.67817103 3:0.016667558 4:-1 5:-0.29558084 6:1 7:0.61391461 8:-0.2454162 9:0.89146075 10:0.28106346 11:-0.48882724 12:-0.18415101 13:-0.24572808 14:0.52395165 15:0.60877635 16:0.70826809 17:-0.26429691 18:-1 19:0.41052867 20:-0.20032077 21:0.55282019 22:1 23:-1 24:1 25:-0.24188777 26:0.36416703 27:-1 28:1 29:-0.34860439 30:0.080428333 31:-0.68529088 32:0.29391725 33:-0.984109 34:1 35:0.32735771 36:-0.605546 37:0.29458558 38:0.47604462 39:1 40:-0.29165576 41:-0.11270615 42:-0.74407701 43:0.53730169 44:-0.20207563 45:0.28869727 46:0.29532934 47:0.69224845 48:-0.30671153 49:1 50:-1 51:-0.022354141 52:1 53:-0.50883952 54:-0.18166174 55:-0.0073776754 56:0.054153036 57:0.014071867 58:-0.020374293 59:-0.48770071 60:0.0033400331 61:1 62:-0.8108493 63:0.23739779 64:0.96078891 65:-0.10654702 66:0.74968838 67:1 68:0.32616404 69:-0.64924626 70:0.25281447 71:0.55690872 72:0.54104127 73:0.48965966 74:0.4463961 75:1 76:0.26523419 77:0.29890107 78:-0.30058522 79:1 80:0.2267734 81:-0.84710817 82:0.064050138 83:0.75133211 84:0.056423439 85:-1 86:1 87:0.59191759 88:0.27405098 89:0.048736606 90:0.19846147 91:0.28869802 92:-1 93:-0.51290841 94:0.68665054 95:1 96:-0.77904332 97:-0.23099068 98:-0.60006931 99:1 100:0.77377585 101:-0.92516138 102:-0.16923937 103:-0.73433331 104:-1 105:0.38411064 106:-0.99523122 107:-0.24643673 108:-0.18710077 109:0.49130368 110:-0.47379643 111:0.69451924 112:0.31759682 113:0.73196432 114:1 115:0.86494944 116:-0.37740062 117:0.27937488 118:-0.3560433 119:-1 120:0.29555049 121:-0.15626034 122:-1 123:0.48914243 124:1 125:-0.3560433 126:-0.12360972 127:-0.28719663 128:0.15865632 129:0.14514384 130:0.057758763 131:-1 132:0.54369233 133:-0.69953984 
0.71512409233008323 1:0.44524413 2:-0.3639121 3:-0.96205324 4:0.9651143 5:-1 6:1 7:-1 8:0.27636347 9:0.90126387 10:-0.36738673 11:-0.86406299 12:-0.1848059 13:-0.72709871 14:-0.42849127 15:0.98126597 16:-1 17:1 18:-1 19:0.71368323 20:1 21:0.57949608 22:0.78714049 23:-0.45833264 24:1 25:-0.7224328 26:-0.48862755 27:0.022469447 28:0.8596336 29:0.83428206 30:-1 31:-0.4665755 32:-0.21092429 33:-0.90182182 34:0.32184763 35:1 36:-0.57009526 37:-0.22604179 38:0.45365299 39:0.68945733 40:-0.88213138 41:-0.53275304 42:0.92388833 43:-0.30425418 44:-0.54822944 45:-0.36568458 46:-0.41529963 47:0.57930899 48:-1 49:0.65512178 50:0.53776994 51:-0.44405108 52:0.16903085 53:-0.47377545 54:0.70482553 55:-0.48962368 56:0.31070884 57:1 58:-0.37862903 59:-0.57175869 60:-0.73698832 61:-0.48251204 62:-0.37369247 63:0.88560461 64:1 65:0.34241145 66:-1 67:0.56532474 68:0.51261785 69:-0.96793675 70:1 71:-0.4769101 72:-0.11101209 73:1 74:0.9704903 75:0.35520853 76:-1 77:-0.33116513 78:-1 79:-1 80:0.60451113 81:-0.41314251 82:-0.11083082 83:0.76667408 84:1 85:-0.25816015 86:-0.2947262 87:-1 88:0.58084375 89:0.044582352 90:-0.39996601 91:0.9876088 92:0.12119205 93:0.47577083 94:0.44832804 95:-0.1564075 96:-0.24948371 97:0.095571461 98:0.36064073 99:0.90920016 100:1 101:-0.33540043 102:-0.19139148 103:-1 104:-0.71515134 105:1 106:-0.31623745 107:0.28934043 108:-0.53986213 109:0.18530454 110:-0.46980262 111:0.72766883 112:-0.63099612 113:0.83310825 114:-0.90334032 115:1 116:0.027973047 117:-0.36528232 118:0.20837352 119:1 120:-0.4157814 121:-1 122:-0.70834059 123:0.27752659 124:-0.54823278 125:0.20837352 126:-0.22885872 127:-0.55258316 128:1 129:-1 130:0.7633366 131:-0.84527778 132:0.9387554 133:-0.63700726 
0.71558779743307943 1:-0.5138927 2:-0.69725441 3:-0.069060994 4:-0.1786668 5:1 6:1 7:-0.77451858 8:1 9:0.95940341 10:0.84757871 11:-0.62621582 12:-0.46346118 13:0.99242322 14:0.85457574 15:0.36696596 16:1 17:-0.44481179 18:-1 19:0.89537413 20:0.68774638 21:0.89406347 22:0.95478862 23:0.32295612 24:1 25:-0.34461992 26:1 27:0.22843955 28:-0.52610701 29:0.65005642 30:-0.21455381 31:-0.48179055 32:0.52642301 33:-0.10531622 34:-0.25812341 35:-1 36:-0.37403676 37:0.52753168 38:0.1148404 39:-0.26120695 40:-0.019634616 41:-1 42:-0.27697331 43:0.15230368 44:-0.3510026 45:0.85256267 46:0.97302378 47:0.09931951 48:-0.67606431 49:1 50:0.044065265 51:0.76668975 52:0.29034943 53:-0.71681706 54:1 55:0.044450615 56:1 57:0.18459664 58:-0.3379999 59:-0.50979084 60:-0.29802448 61:1 62:0.72787228 63:1 64:-0.57284844 65:0.10729111 66:0.12865517 67:0.81501975 68:1 69:1 70:0.33420212 71:0.43042488 72:1 73:-0.0055764264 74:-1 75:1 76:-0.18035764 77:0.85174416 78:-0.22325563 79:0.91760329 80:1 81:-0.55809914 82:-0.22290594 83:0.62132877 84:0.71831038 85:-0.972288 86:0.096926818 87:-0.32058783 88:0.88335953 89:-0.41869226 90:0.54548343 91:0.12700444 92:-0.61517755 93:-0.61479425 94:-0.86032533 95:0.28284271 96:0.59044456 97:-0.55369559 98:0.30359402 99:-0.76951564 100:1 101:-0.13310303 102:1 103:0.021603333 104:-0.094653851 105:0.38993855 106:-0.61240551 107:-0.66221196 108:0.22926686 109:0.84111018 110:-0.056188114 111:-0.52833452 112:1 113:0.18245967 114:0.84850376 115:0.82745287 116:0.033164734 117:0.84361945 118:-0.56656852 119:0.21947956 120:0.97031908 121:-0.56592564 122:-1 123:-0.058880604 124:1 125:-0.56656852 126:0.0035219606 127:-0 128:1 129:-0.49092948 130:0.024143278 131:0.67651024 132:0.71427163 133:0.20999965 
0.71535051344718137 1:-0.46638183 2:-0.31742687 3:0.074805835 4:0.77276979 5:0.51694301 6:-0.64563573 7:-0.66510756 8:0.90969673 9:-0.16375992 10:0.7231859 11:1 12:1 13:-0.4999569 14:0.20855176 15:0.44248871 16:0.5828479 17:0.03458793 18:-1 19:0.63674743 20:0.74726618 21:0.66721723 22:1 23:0.11777951 24:0.93922771 25:1 26:-0.2704591 27:-0.61534458 28:-0.0066617674 29:-0.44769338 30:0.87563721 31:-0.61102628 32:0.64540594 33:-0.66514177 34:-0.13228511 35:0.69315142 36:0.20151606 37:0.62111746 38:0.48708128 39:1 40:-0.84765931 41:-0.99333778 42:0.86889163 43:-0.61836149 44:-0.41879062 45:0.71991632 46:0.75820753 47:-0.72486118 48:1 49:0.47916753 50:0.35759927 51:-0.33287795 52:1 53:1 54:-0.18603088 55:0.27161323 56:0.71658744 57:0.0046127411 58:0.14498108 59:-0.57024778 60:-0.020125427 61:-0.31401686 62:0.69156084 63:0.62761766 64:0.84332407 65:0.06023419 66:-1 67:-0.4277073 68:0.96000279 69:0.43837653 70:0.092680665 71:0.47838812 72:-0.12849674 73:-0.0015620809 74:0.92765728 75:0.2074131 76:0.94567753 77:0.71016275 78:-0.069946419 79:-0.013403924 80:0.13619475 81:1 82:-1 83:0.29910599 84:0.34114092 85:-1 86:-0.13750283 87:-0.19017598 88:0.57491987 89:1 90:-0.17507302 91:0.037451464 92:1 93:1 94:-0.41388948 95:-0.54828231 96:1 97:1 98:-0.031774543 99:-0.94065089 100:1 101:-0.36559716 102:-1 103:0.29922278 104:-0.52090151 105:1 106:1 107:1 108:-0.29991169 109:1 110:0.24874872 111:1 112:0.5038094 113:-0.29512161 114:-1 115:0.072488093 116:1 117:0.72638575 118:1 119:-0.53183221 120:0.75727822 121:1 122:0.25867737 123:1 124:-0.50518246 125:1 126:-0.1017433 127:-0 128:0.73707704 129:0.60710505 130:1 131:0.10977489 132:-0.48617243 133:0.30153066 
0.71412579520959563 1:-1 2:-0.13930578 3:0.47387835 4:-0.42640143 5:-0.67025268 6:0.92610309 7:-0.32103327 8:-0.46014047 9:-0.1117671 10:0.055215299 11:-1 12:-0.63231165 13:-0.029085359 14:-0.19009516 15:-0.28921178 16:0.23427786 17:0.52275034 18:0.6438446 19:1 20:-0.65048692 21:-0.3075086 22:-1 23:-0.051426943 24:-0.19682684 25:-1 26:-0.84047032 27:1 28:0.26044736 29:0.093782608 30:-0.05658488 31:-0.067331194 32:0.074220651 33:-0.25511944 34:-0.43517951 35:-0.34456225 36:0.57435563 37:0.06300512 38:1 39:-1 40:-0.81748286 41:-0.67670731 42:0.80748864 43:0.071240066 44:-0.2785477 45:0.052097247 46:0.06755366 47:-0.27645555 48:-0.52599202 49:-0.98590376 50:-0.89837139 51:0.21400229 52:-0.036835473 53:-0.67769309 54:-0.083040207 55:0.60962443 56:0.69076862 57:-0.53792416 58:-0.72254617 59:-0.35935067 60:-1 61:-0.52521174 62:0.50843461 63:-0.38018781 64:-0.78912154 65:-0.80269779 66:0.77157374 67:-0.98445989 68:0.21077072 69:-0.63846283 70:0.40778655 71:0.31091726 72:-1 73:-0.20090197 74:-0.22757928 75:-0.84664878 76:0.16330605 77:0.051405597 78:0.3293631 79:1 80:0.88970517 81:-0.19623707 82:-1 83:0.64041028 84:0.9017782 85:1 86:-0.65464573 87:1 88:1 89:-0.75897098 90:-0.57881326 91:0.23343725 92:0.034241841 93:-0.42189526 94:-0.40283695 95:0.42409446 96:-0.082214892 97:-0.098979938 98:1 99:0.45038894 100:0.072451433 101:-0.39895428 102:-0.94441056 103:-0.4708253 104:0.25677154 105:-0.6172134 106:-0.28627418 107:-0.090538616 108:-0.35707917 109:-1 110:-0.42092572 111:-0.54413314 112:-0.18639839 113:-0.040533167 114:-0.32444284 115:-0.77804773 116:0.24025848 117:0.057491142 118:-0.57193941 119:-0.048524863 120:0.067892279 121:-1 122:-0.80205582 123:-0.037293707 124:-0.68135683 125:-0.57193941 126:-0.62455306 127:-0.3469331 128:0.55682548 129:0.046955093 130:-1 131:-0.40944098 132:-0.47401414 133:0.66855059 
0.70203412414548039 1:-0.67565156 2:0 3:0 4:-0.58935624 5:1 6:0.1484379 7:1 8:-0.963453 9:1 10:0.3850192 11:-0.12504994 12:0.49899295 13:0 14:0 15:1 16:-0.18920105 17:0.99989446 18:-0.80809648 19:0.27032257 20:0 21:0.63785325 22:0.46233147 23:0.12555268 24:0 25:-0.54460955 26:0 27:0 28:0 29:-0.42411902 30:1 31:0.52359235 32:0.6817275 33:0.10855436 34:0 35:-0.049326155 36:-1 37:0.7031167 38:0 39:0 40:0 41:0.59355996 42:-0.47396444 43:0.80065476 44:-0.86709023 45:0.37995773 46:0.21974227 47:0 48:-0.41527667 49:1 50:-0.60926048 51:0 52:-0.13220772 53:1 54:0 55:0 56:-0.65048692 57:0.47985264 58:-0.17086321 59:0 60:-0.41606561 61:0 62:0 63:0 64:0 65:0 66:-0.67370141 67:-0.45868452 68:-0.46675098 69:-0.21694206 70:-0.21060464 71:0 72:-1 73:-0.0054073484 74:0.27350458 75:0.1118034 76:-0.49881553 77:0.39050022 78:-0.22251538 79:-0.024629604 80:-0.6390351 81:-0.036982408 82:-0.4432097 83:0 84:-0.21509761 85:-0.4762874 86:-0.22530912 87:0 88:0.089250147 89:0.0077195053 90:0.64469747 91:0.34309998 92:0.063221276 93:0.68464417 94:0 95:-6.5828128e-16 96:-0.49701354 97:0.45258117 98:-0.19339308 99:0 100:0.35733502 101:0.11627227 102:0.51047725 103:0 104:-0.0080701693 105:-0.72029733 106:0.88073817 107:1 108:0.47100891 109:-0.49434276 110:0.77139272 111:-1 112:0.20324934 113:0.85270069 114:-1 115:-0.63906625 116:-0.30490879 117:0.39087346 118:0.10205948 119:0.42777619 120:0.22295874 121:1 122:-0.14009978 123:-0.47057652 124:-0.47706357 125:0.10205948 126:1 127:-0 128:-0.056996358 129:0 130:-0.7194007 131:0 132:0 133:0 
0.71260837594330784 1:1 2:0.93224716 3:1 4:-0.81838794 5:0.55106198 6:-0.48801052 7:1 8:1 9:-1 10:-1 11:-1 12:-0.45631062 13:0 14:0.039698915 15:-1 16:0.68808404 17:-0.05625401 18:1 19:-1 20:-0.76696499 21:-1 22:-0.15820155 23:-0.84690414 24:1 25:-0.77692166 26:1 27:1 28:-0.46872343 29:0.4206279 30:1 31:-0.31872204 32:-1 33:-0.98722058 34:-0.34052896 35:-0.095874787 36:-0.80078406 37:-1 38:0 39:0 40:0 41:-1 42:-0.88425517 43:-1 44:0.010278479 45:-1 46:-1 47:-0.27975144 48:1 49:-1 50:-0.78772636 51:0 52:-0.31943828 53:-0.32125755 54:-1 55:0 56:-0.85536283 57:-1 58:-0.29835329 59:0 60:-0.34208169 61:0.64696477 62:1 63:-0.25793035 64:0 65:0 66:1 67:1 68:-0.69795381 69:-0.9396996 70:-0.30697009 71:0.23191862 72:-1 73:-1 74:-0.25137684 75:-1 76:1 77:-1 78:0.94799146 79:0.25934165 80:-1 81:-0.58535266 82:-0.93099373 83:0 84:-0.43943283 85:0.16931263 86:-0.8296472 87:0 88:-1 89:-0.66147691 90:-0.79085968 91:-0.32956521 92:0.38776705 93:-0.18424813 94:-1 95:0.5585982 96:-0.4597992 97:-0.16268162 98:-0.24468443 99:-1 100:-0.22857515 101:-0.9918708 102:1 103:1 104:0.32832979 105:-0.88632451 106:0.43540927 107:-0.41776201 108:-0.96850028 109:-0.71423061 110:-0.54025389 111:-0.17737496 112:-1 113:-1 114:1 115:1 116:-0.50507975 117:-1 118:-0.55980866 119:0.74563154 120:-1 121:-0.63217218 122:0.85464573 123:-0.74060916 124:1 125:-0.55980866 126:-0.86501726 127:0.13019746 128:0.2446459 129:1 130:-0.81437863 131:1 132:-0.26037782 133:1 
0.72615591742289154 1:-0.30394143 2:-0.49217447 3:0.11754006 4:0.032703497 5:-1 6:0.92613039 7:0.44525171 8:0.846575 9:-0.1711962 10:-0.61039851 11:0.66326076 12:-0.36881214 13:-0.2656443 14:-0.53370905 15:-0.23303738 16:-1 17:0.63208338 18:0.29425107 19:1 20:0.63399302 21:-0.47982115 22:-0.11629962 23:0.050112254 24:0.060909405 25:0.47877774 26:-0.47419243 27:-0.014261876 28:0.3133701 29:0.94788907 30:0.76578524 31:0.52860508 32:-0.7409636 33:-1 34:0.25226709 35:-0.2043799 36:-0.35534795 37:-0.77322761 38:-0.63862982 39:0.38416102 40:0.69046086 41:-0.27783871 42:-0.086439524 43:0.043315798 44:0.273058 45:-0.63421905 46:-0.53095583 47:-0.66332496 48:-0.9678481 49:-0.23570226 50:0.42244324 51:-0.53487822 52:0.52764485 53:0.2701513 54:-0.077443906 55:0.12400483 56:-0.30151134 57:-0.67788793 58:-0.75702207 59:0.40118146 60:-0.25298457 61:0.045547947 62:0.9070466 63:0.80812204 64:7.5433269e-16 65:-0.15764197 66:-0.57222152 67:0.0041770477 68:0.041702883 69:-0.11137843 70:-0.81678319 71:-0.65915346 72:-0.0051207434 73:0.2606863 74:-0.76080476 75:-0.28942984 76:0.5917022 77:-0.71898465 78:-0.15310087 79:0.25812434 80:-0.13345768 81:0.13989921 82:0.080626272 83:0.60162821 84:-0.063956599 85:0.1174521 86:-1 87:-0.11521957 88:1 89:0.57324932 90:-0.48036695 91:0.8451908 92:0.33552803 93:0.10368644 94:-0.89912723 95:-0.30151134 96:1 97:0.70597234 98:-0.32057008 99:0.26834723 100:0.10137245 101:-1 102:-0.028317882 103:-0.013078063 104:0.52969667 105:-0.13073269 106:0.45578711 107:0.71958254 108:-0.67826138 109:-0.26608301 110:-1 111:-0.90744631 112:-0.51556002 113:0.070110311 114:-1 115:-0.66327328 116:-0.26139761 117:-0.62739728 118:0.10276034 119:1 120:-0.53011546 121:0.3325192 122:-1 123:0.46114788 124:-0.28384054 125:0.10276034 126:-0.19690197 127:-0.77336089 128:-0.26906484 129:0.87871035 130:0.63060077 131:-0.0037937433 132:-0.27778653 133:-0.42353507 
0.70562428417074519 1:-0.94747977 2:0 3:0 4:1 5:0.14157322 6:1 7:-0.81873567 8:1 9:0.51177921 10:0.4241712 11:-1 12:1 13:0 14:0 15:0.82255589 16:-0.92617193 17:0.66261169 18:-0.2306816 19:-0.82840787 20:0 21:0.53476643 22:-0.68632034 23:-0.35472159 24:0 25:-0.450835 26:0 27:0 28:0 29:-0.36793398 30:-0.79186887 31:1 32:0.52570476 33:-0.18131022 34:0 35:-0.047971108 36:-1 37:0.52376621 38:0 39:0 40:0 41:-0.39557831 42:-0.74654754 43:0.96776685 44:0.25314532 45:0.41720074 46:0.38903382 47:0 48:-0.18015279 49:0.36563621 50:0.84449863 51:0 52:-0.13220772 53:0.95493181 54:0 55:0 56:0.7270148 57:0.5860235 58:-0.20293437 59:0 60:-0.14388809 61:0 62:0 63:0 64:0 65:0 66:0.93138497 67:-0.5664135 68:1 69:0.4340343 70:-0.21059117 71:0 72:0.60631448 73:0.46366064 74:-0.46330566 75:0.1118034 76:-0.9151201 77:0.41826564 78:-0.25663918 79:-0.095271764 80:-0.18121538 81:-0.10247555 82:0.13731371 83:0 84:-1 85:0.66950339 86:-0.42303755 87:0 88:-0.71400117 89:1 90:0.59053869 91:-0.58629737 92:0.83091961 93:1 94:0 95:1 96:-0.22945806 97:0.66869463 98:0.25138439 99:0 100:0.50408664 101:-0.1751638 102:1 103:0 104:0.23938622 105:0.064562774 106:-0.73327292 107:1 108:0.57714785 109:-0.49434276 110:-0.19855856 111:-1 112:0.45817154 113:0.7994559 114:0.19810978 115:-0.90238353 116:-0.77434699 117:0.43183895 118:0.48412318 119:-0.64418061 120:0.39086341 121:0.34141206 122:-1 123:-0.47057652 124:1 125:0.48412318 126:0.4753672 127:-0 128:0.23532696 129:0 130:1 131:0 132:0 133:0 
0.71276786796853209 1:0.16750922 2:-0.077941245 3:-0.76082235 4:-0.24253563 5:0.15947164 6:1 7:-0.51092428 8:-1 9:-0.038444814 10:1 11:0.70057353 12:0.18781731 13:0.047473924 14:0.12214969 15:1 16:-0.63222607 17:0.40386965 18:1 19:-0.65636019 20:-0.16903085 21:1 22:-0.82827769 23:-0.67690733 24:-0.68390774 25:0.18975273 26:0.62848045 27:0.48342624 28:-0.6024264 29:-0.36109689 30:-1 31:-0.31921621 32:1 33:0.82482624 34:-0.47583222 35:-0.59196393 36:-0.64205183 37:1 38:-0.64724958 39:-0.24253562 40:-0.012674102 41:-0.10772704 42:-1 43:1 44:0.75584008 45:1 46:1 47:-0.24253562 48:-0.69755929 49:-1 50:-0.24253563 51:-0.22675926 52:-0.16903085 53:-0.25785128 54:0.74434364 55:-1 56:-0.16903085 57:1 58:0.75522072 59:-0.33803584 60:-0.027825073 61:0.66256119 62:-0.61752938 63:-0.30151134 64:-0.24253562 65:1 66:-0.95701027 67:-0.58048648 68:-0.30151134 69:0.80171663 70:1 71:-0.25037468 72:1 73:0.47756584 74:0.71088369 75:-0.97899704 76:-1 77:1 78:-0.34841692 79:0.029054359 80:-0.39732101 81:0.0094449576 82:0.0029216424 83:0.099440297 84:-0.18343502 85:0.87166823 86:0.54965593 87:-0.11181391 88:-0.40353425 89:0.14948027 90:0.82925837 91:0.067545983 92:0.099281564 93:0.58473835 94:0.24821884 95:0.27317918 96:0.39408535 97:0.81802205 98:-0.25039465 99:1 100:0.075955083 101:0.5651975 102:-0.57989798 103:-1 104:-1 105:-0.24253563 106:0.082018578 107:0.75787424 108:1 109:-0.24253563 110:1 111:0.77547701 112:1 113:1 114:-1 115:-0.16903085 116:-1 117:1 118:-0.00735703 119:-0.92576995 120:1 121:0.74732395 122:-0.55936489 123:-0.30151134 124:-0.53190027 125:-0.00735703 126:1 127:-0.30888084 128:0.32984428 129:0.1600611 130:-0.28137886 131:-0.44358359 132:-0.24253562 133:-1 
0.71504156046212997 1:-1 2:-0.60067096 3:-0.087848698 4:-0.35355339 5:0.8793563 6:-0.35854338 7:-0.42806519 8:-0.45274308 9:1 10:1 11:-0.38995461 12:-0.54185223 13:-0.21850428 14:-0.037991033 15:1 16:-0.37499549 17:-0.27309689 18:-0.36015739 19:0.68104753 20:-0.24253556 21:1 22:1 23:0.40967289 24:0.50830247 25:0.056625387 26:-0.018006661 27:0.45330744 28:0.27343331 29:-0.22611085 30:1 31:0.25778577 32:1 33:1 34:-0.058951833 35:0.67705471 36:0.66121288 37:1 38:-0.59569504 39:-0.24253556 40:-0.47446789 41:-0.76732442 42:-0.43526547 43:1 44:0.7230581 45:1 46:1 47:-0.24253556 48:0.099158346 49:1 50:-0.30151127 51:0.27921404 52:-0.30151126 53:-0.53368483 54:-0.17484499 55:0.38834145 56:-0.24253563 57:1 58:-0.76415432 59:-0.43903991 60:0.16413495 61:-0.070863682 62:-0.67520201 63:-0.40160966 64:-0.40160966 65:-0.39398322 66:-1 67:0.12994758 68:-0.40160959 69:0.013181737 70:-1 71:0.078455758 72:-0.52680137 73:-0.068834413 74:-0.15852361 75:1 76:-1 77:1 78:1 79:0.088592121 80:-0.38467635 81:-0.35198691 82:-1 83:0.055700489 84:-0.12856188 85:-1 86:-0.14882821 87:0.89962463 88:1 89:-0.18890863 90:1 91:0.57314443 92:-0.67437985 93:-0.53142466 94:-0.16687348 95:-0.31026955 96:0.26657568 97:-0.66569775 98:-0.19047784 99:0.12945954 100:-0.5806532 101:1 102:0.066637138 103:-0.16401927 104:-0.10918925 105:-0.40160966 106:-0.61860517 107:-0.63902792 108:1 109:-0.24253556 110:0.71308435 111:-0.88657818 112:1 113:1 114:1 115:-0.22438088 116:0.1955514 117:1 118:-0.28540155 119:-0.73257092 120:1 121:-0.09172915 122:0.17850129 123:-0.30151134 124:0.093471076 125:-0.28540155 126:1 127:-0.27969276 128:0.47015002 129:1 130:0.10299042 131:-0.62575664 132:-0.40160966 133:0.098155364 
0.71456167861782316 1:-1 2:-0.91927426 3:0.71109786 4:0.89625816 5:0.0660098 6:-0.77173916 7:-1 8:-1 9:0.68111346 10:0.1166832 11:1 12:0.88923213 13:1 14:1 15:0.36018894 16:-0.37274699 17:-0.63055291 18:-0.95001233 19:-0.52486388 20:-1 21:0.48001194 22:-0.0027066138 23:-0.60505191 24:0.36520575 25:0.31322914 26:0.30349735 27:1 28:-0.36701513 29:-1 30:0.014043275 31:0.13025045 32:-0.21012596 33:-0.53103951 34:-0.91482689 35:0.29430874 36:-1 37:-0.21081166 38:1 39:-1 40:-1 41:0.75637983 42:-0.64229178 43:0.68617449 44:0.82301678 45:0.12033765 46:0.24546347 47:-1 48:0.42591798 49:1 50:0.53954042 51:0.93258914 52:0.087874955 53:0.85385298 54:-1 55:0.78960729 56:-0.13830319 57:0.40940801 58:0.92327494 59:-0.95921184 60:0.27716298 61:1 62:1 63:-1 64:-1 65:-1 66:0.46086627 67:-0.80480482 68:-0.89442719 69:-0.30139802 70:-1 71:1 72:0.13707917 73:-0.68108005 74:-0.33754653 75:1 76:-1 77:0.11826434 78:0.44747336 79:-0.73028808 80:-0.138733 81:-0.56422913 82:0.3064628 83:1 84:1 85:0.13139123 86:0.39361457 87:1 88:-0.502266 89:1 90:0.2391439 91:-0.43797908 92:-0.056858413 93:1 94:-1 95:0.1807995 96:-1 97:0.74024513 98:1 99:-1 100:0.39212014 101:-0.47106982 102:0.69346867 103:1 104:-1 105:0.67260223 106:0.067853189 107:0.8575444 108:-0.037268693 109:-0.21055872 110:0.022502333 111:-0.56115278 112:0.32590312 113:0.91074541 114:1 115:0.26618201 116:0.30232336 117:0.11472847 118:1 119:-1 120:0.24537787 121:0.64147916 122:0.55382207 123:1 124:-0.60163913 125:1 126:-0.11669901 127:0.24307181 128:-0.75381558 129:1 130:1 131:0.28830005 132:-1 133:1 
0.72670390522653361 1:0.71662754 2:0.12418287 3:-0.071388815 4:1 5:-0.49361445 6:-1 7:0.40624929 8:0.41356215 9:-0.079909669 10:0.59441342 11:0.67546567 12:0.36787353 13:-0.21735131 14:-0.4141846 15:0.17205657 16:0.083978703 17:-0.27932752 18:-0.021965716 19:0.2545488 20:1 21:0.68235578 22:0.07605227 23:0.63352526 24:-0.2233792 25:0.61428654 26:-0.16449516 27:0.80257415 28:0.88316081 29:0.44973291 30:-0.19563875 31:-0.82023211 32:0.19808776 33:-0.32145756 34:0.086739306 35:0.1348148 36:-0.10452642 37:0.15079515 38:0.0022929916 39:1 40:0.33468394 41:-0.90734379 42:0.51103793 43:-0.24516792 44:0.80720642 45:0.5825295 46:0.77207971 47:0.67904761 48:-1 49:-0.4417261 50:1 51:-0.81083092 52:1 53:-0.41371481 54:0.31549187 55:0.12455791 56:1 57:-0.244828 58:-0.19801338 59:0.073287562 60:-0.048716193 61:-0.23549344 62:-0.20856942 63:1 64:0.91430224 65:-0.042385584 66:0.027823421 67:0.073485958 68:1 69:0.41662281 70:-0.35812831 71:-0.034211569 72:0.54267214 73:1 74:-0.43079012 75:0.1486002 76:0.3413905 77:0.56755334 78:-0.4506578 79:-0.34627031 80:0.38456445 81:0.51849507 82:-0.40818368 83:0.74593884 84:0.22907693 85:-0.17509676 86:-0.18747099 87:0.83135546 88:0.15926797 89:0.37568688 90:-0.50467034 91:-0.0097384308 92:-0.0096952707 93:0.17356114 94:0.1833857 95:-1 96:0.84164601 97:0.3897995 98:-0.4048153 99:0.80087876 100:-0.27562487 101:-0.31265632 102:-0.057384511 103:-0.21584024 104:0.57142341 105:0.078712926 106:0.6808726 107:0.28647252 108:-0.29272062 109:0.45657224 110:-0.38861981 111:0.9932655 112:0.66778192 113:-0.13959844 114:-1 115:1 116:1 117:0.60150103 118:0.41273856 119:-0.64038302 120:0.77494226 121:0.7535147 122:1 123:1 124:0.073145118 125:0.41273856 126:-0.15901438 127:-0.21333201 128:1 129:0.81680187 130:0.38608171 131:-1 132:0.52586319 133:-0.081274902 
0.7142096677514862 1:-0.90475794 2:-0.56953354 3:-0.14602025 4:-0.30151134 5:0.0080835345 6:-0.12427841 7:-0.26332416 8:0.092859138 9:-1 10:-1 11:0.85425431 12:0.52839397 13:-0.78706205 14:-0.67808366 15:-0.98797419 16:-0.91147525 17:0.002546261 18:1 19:-1 20:-0.35355339 21:-1 22:-1 23:-0.91009677 24:0.27206937 25:0.64221369 26:-1 27:-0.26952643 28:-0.92428649 29:0.41868688 30:-0.29353594 31:-0.87341672 32:-1 33:0.84895552 34:-0.76365264 35:0.26155411 36:-1 37:-1 38:1 39:-0.40160966 40:-0.51254652 41:-0.93189208 42:-1 43:-1 44:-0.055402177 45:-1 46:-1 47:-0.35355339 48:-0.84417052 49:-1 50:-0.24253563 51:-0.72069362 52:-0.24253562 53:0.61079876 54:-0.050897808 55:0.11995636 56:-0.30151134 57:-0.041817621 58:0.92846462 59:-0.5798972 60:0.0075538119 61:-0.8192559 62:0.99291999 63:-0.16903085 64:0 65:-0.26400921 66:0.72976305 67:-0.57576774 68:-0.24253563 69:0.65312052 70:0.31996815 71:-1 72:-0.40203382 73:-0.24479786 74:0.79550491 75:-1 76:-0.52587448 77:-1 78:-0.080032953 79:1 80:-1 81:0.91127867 82:-1 83:-0.2158251 84:0.063934295 85:1 86:-0.77991575 87:0.74349599 88:-1 89:0.49923956 90:-0.82833762 91:0.83770752 92:0.51211908 93:0.36017994 94:-0.76293866 95:-1 96:1 97:0.42229133 98:-0.023403241 99:-0.35189324 100:0.65714317 101:0.87442147 102:-0.70679588 103:0.20558825 104:-0.53973044 105:-0.35355339 106:0.3738811 107:0.43923653 108:-0.12915842 109:-0.16903085 110:-0.45179034 111:0.37834398 112:-1 113:-1 114:-1 115:0 116:0.67201293 117:-1 118:0.55167593 119:0.13140435 120:-1 121:0.82941903 122:-0.079386516 123:-0.30151134 124:-0.44589774 125:0.55167593 126:-0.80087359 127:1 128:0.43063306 129:1 130:-0.67017676 131:0.5416924 132:-0.16903085 133:0.6537606 
0.71772451246036306 1:-0.906298 2:-0.85083803 3:-1 4:-0.30151134 5:0.64541124 6:-0.28162577 7:-0.41347947 8:1 9:-1 10:-0.498722 11:-1 12:-0.61212625 13:-0.46635163 14:-0.75118389 15:-1 16:0.027809487 17:1 18:1 19:0.51199542 20:1 21:-0.52901226 22:-0.98679619 23:-0.80934896 24:1 25:-1 26:-0.59215264 27:0.24246809 28:1 29:0.30168523 30:-0.44697474 31:1 32:-0.52006093 33:-0.051035771 34:1 35:0.65085984 36:1 37:-0.51739535 38:-0.49713229 39:1 40:-0.27250637 41:-1 42:-0.1571686 43:-1 44:-1 45:-0.49482133 46:-0.47084127 47:1 48:-0.58273562 49:-0.83107225 50:1 51:-0.56467734 52:-0.35355339 53:-1 54:0.36555732 55:-0.68071681 56:-0.30151134 57:-0.19100763 58:-0.45626217 59:-0.52559597 60:-0.83028065 61:-0.62846024 62:1 63:-0.35355339 64:-0.30151134 65:0.095699045 66:-1 67:-0.5116923 68:1 69:-0.80854623 70:-0.71282285 71:-0.54914044 72:-0.44128546 73:0.3300073 74:1 75:-1 76:-0.2780197 77:-0.49289095 78:-1 79:-0.35398632 80:-1 81:-1 82:0.048293907 83:0.43091347 84:1 85:0.41439768 86:0.27181054 87:-0.80580707 88:0.047722974 89:-0.42448064 90:-0.73309951 91:-0.10242341 92:-1 93:-0.93271822 94:-0.87933484 95:-1 96:1 97:-0.7840434 98:1 99:1 100:-0.51213035 101:0.66681443 102:-0.86770497 103:-0.93966918 104:-0.010203768 105:-0.24253563 106:-1 107:-0.84887574 108:-0.44517351 109:1 110:-0.39936182 111:-0.88920733 112:-0.52281185 113:-1 114:1 115:-0.21567168 116:-0.10466901 117:-0.50372567 118:-1 119:0.84428421 120:-0.4710377 121:-0.63612213 122:-0.009648645 123:1 124:-0.65695825 125:-1 126:-0.63992156 127:-0 128:0.34001477 129:-1 130:1 131:-0.68177576 132:-0.30151134 133:-1 
0.71603079857576024 1:0.29784185 2:-0.50969105 3:-0.0032420543 4:-0.6401844 5:1 6:-0.90927567 7:-0.92601898 8:1 9:1 10:-0.35793998 11:0.71225829 12:-1 13:0.39276515 14:0.89883903 15:0.55967042 16:-0.23812928 17:1 18:-0.65808001 19:-1 20:0.58570741 21:0.0047879867 22:0.13208116 23:0.93286747 24:0.70136105 25:0.38618127 26:0.02968773 27:0.63392023 28:-1 29:1 30:0.27781262 31:-0.67308126 32:-0.46257162 33:-0.31636131 34:-0.80152037 35:0.46454018 36:-0.94285478 37:-0.42965113 38:-0.42060478 39:1 40:0.82347074 41:-0.074892802 42:0.31230701 43:0.77863757 44:-0.66054387 45:-0.35935555 46:-0.27180108 47:1 48:-0.59361971 49:0.93440451 50:-0.23739779 51:0.99240723 52:-1 53:-0.60723616 54:0.045890907 55:-0.45100761 56:0.3595883 57:0.31769432 58:-0.72606992 59:0.85476145 60:-0.79310144 61:1 62:0.29160892 63:0.87921515 64:1 65:1 66:-0.30731066 67:1 68:0.61491869 69:-0.0062504985 70:-1 71:-0.024163094 72:-0.5045636 73:1 74:-1 75:0.6769929 76:-0.59604315 77:-0.35445158 78:-0.7274784 79:-0.18439522 80:-0.42017834 81:0.70913958 82:0.11894809 83:-0.92813182 84:0.59628632 85:0.043600143 86:-0.66323715 87:-1 88:-1 89:-1 90:0.15516488 91:1 92:0.66346712 93:-1 94:-0.86220291 95:0.1807995 96:-1 97:-0.29370409 98:-0.012707827 99:0.98875028 100:0.63636181 101:-0.087663908 102:1 103:-0.27722371 104:-0.16302628 105:1 106:0.76043048 107:-0.70802375 108:-0.13604605 109:0.63167617 110:-0.4082221 111:-0.027939821 112:-0.18787508 113:1 114:1 115:1 116:-0.53156194 117:-0.35786452 118:-1 119:0.6024109 120:-0.27485199 121:-0.58222993 122:0.70441314 123:-0.67915728 124:0.88298036 125:-1 126:-0.15587668 127:-1 128:0.0091991246 129:-0.33043845 130:1 131:1 132:0.59794807 133:-0.75105387 
0.72139401981078244 1:1 2:0.18894476 3:0.40629451 4:-0.42465029 5:0.3702594 6:0.73001331 7:0.28637733 8:1 9:0.4120133 10:1 11:-1 12:-1 13:-0.80226279 14:1 15:0.40008403 16:0.031755253 17:0.18262333 18:0.48861777 19:0.87161073 20:-0.79056942 21:0.92755511 22:-0.19436939 23:-0.48523214 24:-0.34468114 25:-1 26:-0.62976818 27:-0.044145855 28:-0.064150432 29:-0.77818753 30:0.48911599 31:0.084711959 32:1 33:0.69053576 34:0.049716681 35:-0.94315708 36:-0.78325271 37:1 38:-0.13616232 39:0.18291725 40:-0.31998247 41:-0.25780123 42:1 43:0.71314191 44:0.73331512 45:1 46:1 47:0.57930899 48:-0.033253373 49:0.065512178 50:-0.086737087 51:-0.49879075 52:0.16903085 53:-1 54:-0.22807927 55:0.57548226 56:0.59742475 57:-0.23739227 58:-0.93497326 59:-0.53940045 60:-0.40565594 61:-0.27840134 62:0.48254326 63:-0.58586151 64:0.52409743 65:0.062133074 66:-0.20827759 67:-0.71051098 68:0.024744675 69:-0.77604967 70:-0.29671878 71:0.00057029119 72:-0.48253166 73:0.44981611 74:-0.061716159 75:-0.22604179 76:0.37140975 77:1 78:-0.51963243 79:1 80:-0.71020536 81:0.28447851 82:-0.90163167 83:0.18590694 84:-1 85:0.39807854 86:0.53231629 87:-0.06100349 88:0.74155192 89:-1 90:0.59510635 91:0.67771086 92:-1 93:-1 94:-1 95:-1 96:1 97:-0.88112695 98:-0.49494875 99:-1 100:-0.44840313 101:-0.060506173 102:0.64307762 103:-0.18957878 104:-0.17542367 105:0.1807995 106:-1 107:-1 108:0.72032396 109:0.18530454 110:1 111:-0.22726328 112:1 113:0.24230088 114:-0.31206302 115:-0.57125413 116:0.30702947 117:1 118:-1 119:-0.22054491 120:1 121:-0.94401985 122:-0.69848773 123:-0.63074224 124:0.11254704 125:-1 126:0.69742174 127:-0.72193642 128:0.15608538 129:0.43342316 130:-0.77621215 131:-0.039899879 132:-0.068821761 133:0.89201444 
0.71025975056724355 1:1 2:-0.85344106 3:-0.15462994 4:-0.16903085 5:0.094685892 6:-0.18528782 7:0.95893605 8:-1 9:-0.017000856 10:-1 11:-0.89002454 12:-0.72611097 13:-0.26448858 14:0.22684097 15:0.29423577 16:-0.39041252 17:0.26363633 18:-0.010118444 19:1 20:-0.24253563 21:-0.45869702 22:-0.37686173 23:-0.56459332 24:1 25:-0.57427245 26:-0.54721776 27:-0.46400564 28:-1 29:0.24381944 30:0.33716707 31:-0.51235536 32:-1 33:-1 34:-0.57495365 35:1 36:-0.54496626 37:-1 38:-0.53799394 39:-0.30151134 40:-0.058377743 41:-0.40007701 42:0.86963121 43:-0.53260274 44:-0.82982887 45:-1 46:-1 47:-0.24253563 48:1 49:1 50:-0.24253563 51:-0.10672137 52:0 53:-0.40147937 54:0.20570758 55:-0.37904394 56:-0.16903085 57:-0.27584926 58:1 59:0.18932878 60:-0.68255833 61:-0.14248627 62:0.27181004 63:-0.16903085 64:0 65:0.086950897 66:-0.75217165 67:-0.35284226 68:-0.16903085 69:-0.47123651 70:-0.34254797 71:-0.64090737 72:0.074451231 73:0.0611512 74:0.51360149 75:1 76:8.5775809e-05 77:-1 78:0.060811051 79:-0.16182149 80:-0.95763725 81:-1 82:0.85926678 83:-0.41014463 84:-1 85:-0.10098945 86:-0.15976076 87:0.092906833 88:0.69850121 89:-0.73923419 90:-0.82395384 91:1 92:-1 93:-0.8318142 94:-0.73372341 95:-0.024318019 96:1 97:-1 98:-1 99:-1 100:-0.8428682 101:-0.77427023 102:-0.40266245 103:1 104:1 105:-0.24253563 106:-0.80254413 107:-1 108:-1 109:-0.16903085 110:-0.89532665 111:-0.18475506 112:-1 113:0.50919858 114:-0.37707514 115:-0.27233657 116:0.58728613 117:-1 118:-0.67214128 119:0.20008066 120:-1 121:-0.67536197 122:0.0002280717 123:-0.24253563 124:-0.16301484 125:-0.67214128 126:-0.83157219 127:-0.59776868 128:0.36056933 129:-0.90339636 130:0.83851969 131:0.76143417 132:-0.16903085 133:1 
0.71455076553952834 1:-0.8043451 2:-1 3:-0.37706635 4:0.038263937 5:-0.23736886 6:0.30121631 7:0.055083073 8:0.56947924 9:0.33581785 10:1 11:-0.80284055 12:-0.34757443 13:-0.5280233 14:1 15:1 16:-0.24072774 17:-1 18:0.67934295 19:1 20:0.99792531 21:1 22:-0.50819707 23:1 24:1 25:-0.30648834 26:1 27:0.89240031 28:-0.60031475 29:0.85932456 30:0.14850827 31:0.032882166 32:1 33:0.88718209 34:-0.94608371 35:0.25056048 36:0.99464262 37:1 38:-0.072147799 39:0.52849711 40:0.27031733 41:0.969802 42:1 43:0.75948919 44:0.73725356 45:1 46:1 47:-0.056433265 48:-0.041008622 49:-0.72717442 50:-0.31486881 51:-0.61994619 52:0.53499447 53:-1 54:1 55:-0.41163975 56:0.0608555 57:1 58:-0.58081765 59:-0.39000228 60:0.51655994 61:1 62:0.85917973 63:1 64:0.4125685 65:0.55063758 66:0.31109115 67:-0.34694037 68:0.81368072 69:0.33552287 70:-0.78252345 71:-0.54953853 72:-0.73709143 73:-1 74:0.75086109 75:-0.97181639 76:-0.93665766 77:1 78:0.0382862 79:0.35787505 80:0.10044466 81:0.70177731 82:0.0045012779 83:0.55089457 84:0.21852753 85:0.51649883 86:-0.58413196 87:0.11001898 88:0.99503908 89:0.13532695 90:0.63414593 91:0.62147979 92:-0.29803498 93:0.41520297 94:-0.65775939 95:1 96:-0.24538196 97:0.52274548 98:0.18909827 99:0.64750856 100:-1 101:0.85834222 102:1 103:-0.11666685 104:-0.1772948 105:0.89894428 106:-1 107:0.48586199 108:1 109:0.46597208 110:0.59016807 111:0.9852443 112:1 113:0.73056884 114:-0.34554737 115:-0.99451446 116:-0.78013923 117:1 118:0.50575031 119:0.93943541 120:1 121:0.028566989 122:0.049846649 123:0.55381862 124:0.41177057 125:0.50575031 126:1 127:-0 128:-1 129:-0.49911263 130:-0.95217543 131:0.71784377 132:-0.36822985 133:-0.40379445 
0.7158025027070819 1:-1 2:0.74685653 3:0.29899206 4:0.67370008 5:-0.75496202 6:-1 7:-1 8:-0.23750618 9:-0.57532532 10:0.25196496 11:0.93753307 12:1 13:0.58802315 14:-0.0095893804 15:0.68311313 16:1 17:-0.27950173 18:0.3402581 19:0.82976205 20:-0.67783439 21:0.55184176 22:0.19480918 23:0.2282355 24:0.35861778 25:1 26:0.54939808 27:-0.92807222 28:1 29:0.59089752 30:0.13677794 31:-0.6757461 32:0.11906533 33:-0.33267037 34:1 35:-0.37035106 36:0.0079368506 37:0.11888198 38:-0.37179248 39:0.083624201 40:0.59702457 41:0.49611431 42:-0.44989667 43:0.15422007 44:0.29365641 45:0.26691988 46:0.32908857 47:0.34070234 48:-0.030832351 49:-0.95784149 50:0.97596444 51:1 52:-1 53:1 54:-0.14438121 55:-0.27962648 56:-0.13414492 57:0.032616813 58:0.045471443 59:0.1650241 60:0.9337338 61:0.56182199 62:-1 63:-1 64:-0.8209052 65:0.079085491 66:-0.58707504 67:-0.64578047 68:0.099385707 69:0.19056149 70:-0.0660051 71:0.75156207 72:-0.26628379 73:-0.13662574 74:-0.26334295 75:-0.5831297 76:0.28942549 77:0.27342417 78:0.84262357 79:0.9306506 80:0.88845862 81:0.097049613 82:0.14552229 83:0.26763754 84:1 85:-0.20461397 86:-0.62573559 87:0.75629438 88:0.72922005 89:1 90:0.13607987 91:0.06193562 92:1 93:1 94:1 95:0.31590558 96:0.51892301 97:0.7128485 98:1 99:-0.22821331 100:1 101:-0.4851683 102:-0.29814177 103:0.11843119 104:0.71595672 105:-0.45749571 106:1 107:1 108:0.18676175 109:-0.31590558 110:0.17631918 111:1 112:0.40279955 113:-0.1161018 114:-0.70858043 115:1 116:-0.21984085 117:0.24692875 118:0.83655922 119:0.073987885 120:0.32880667 121:0.44512087 122:0.42802595 123:-1 124:-0.82969823 125:0.83655922 126:0.80166475 127:-0.28148179 128:-0.29167762 129:0.62957596 130:-0.60141047 131:-0.61575839 132:-0.53456027 133:0.1503527 
0.71621580011764863 1:0.026743188 2:-0.16429322 3:-1 4:0.98058068 5:0.78282345 6:-0.10365549 7:-0.31636164 8:-0.65702683 9:1 10:1 11:1 12:-0.29281644 13:-0.44970146 14:-0.62821051 15:1 16:0.055592457 17:-0.62425308 18:-1 19:-0.95522936 20:1 21:1 22:1 23:-0.24980848 24:-0.046093335 25:0.53142978 26:-0.48920172 27:-0.38499049 28:0.75783567 29:1 30:0.45193688 31:0.32976242 32:1 33:1 34:-0.017787689 35:-0.87326936 36:1 37:1 38:0.31010978 39:0.19433312 40:-0.53539638 41:1 42:-1 43:1 44:0.68326683 45:1 46:1 47:0.66779024 48:-0.36961049 49:0.68640647 50:0.67828069 51:-0.45884109 52:-0.47911091 53:0.054847466 54:0.41835434 55:0.14476431 56:-0.86243544 57:1 58:1 59:-0.27485795 60:1 61:-0.52944712 62:-0.90452081 63:1 64:0.5488213 65:-0.095271376 66:-0.32926389 67:-0.77648955 68:-0.50951017 69:-0.57051881 70:0.1823285 71:-0.49327241 72:-0.20033605 73:-0.11014166 74:0.26570241 75:1 76:-0.77857594 77:1 78:1 79:-0.75030479 80:1 81:-0.4518978 82:-0.12784532 83:-0.74504075 84:0.41819815 85:-1 86:-0.71848349 87:0.0022625022 88:-0.74116464 89:-0.37630593 90:1 91:0.54568649 92:-0.5358747 93:0.072952046 94:0.3751985 95:-1 96:0.12620627 97:1 98:-0.12364055 99:0.10951958 100:0.68189793 101:1 102:-1 103:0.45727463 104:-0.79848754 105:0.30548095 106:-0.5459894 107:0.92335595 108:1 109:-0.60816364 110:1 111:-0.0016349678 112:1 113:1 114:0.079345091 115:0.048559088 116:0.85343996 117:1 118:0.72819916 119:1 120:1 121:0.69169928 122:0.13035423 123:-0.56225353 124:-0.60457757 125:0.72819916 126:1 127:-0.5247687 128:-0.7424146 129:-0.60462818 130:-1 131:-1 132:1 133:-0.53546237 
0.70355325370962774 1:0.62855937 2:0.61437812 3:-1 4:-0.24253563 5:0.058081589 6:-0.72177724 7:-0.46864747 8:0.82302399 9:-1 10:-0.77923736 11:-0.8954288 12:-0.7922256 13:-0.25886648 14:-0.0748062 15:-1 16:0.086430811 17:0.75495641 18:-0.21335412 19:-1 20:-0.16903085 21:-0.88068523 22:0.10314785 23:-0.61028859 24:-0.74386602 25:-0.24998252 26:0.036079787 27:0.76908914 28:-0.072704355 29:-0.57163273 30:-0.59724418 31:-0.34686473 32:-0.79687832 33:-0.74887519 34:-0.39242995 35:0.26425113 36:-0.27148527 37:-0.80371315 38:-0.6364203 39:-0.16903085 40:-0.2784304 41:-0.19229418 42:0.011940838 43:-1 44:-1 45:-0.78029641 46:-0.75666139 47:-0.16903085 48:0.33567696 49:0.15947523 50:-0.16903085 51:-0.21959676 52:-0.16903085 53:-0.51095824 54:0.53268805 55:-0.27188773 56:-0.24253563 57:-1 58:-0.35545127 59:-0.39581082 60:-1 61:-0.14799515 62:-0.48078694 63:-0.24253563 64:-0.24253563 65:0.3289552 66:-0.91605427 67:-0.30810368 68:0 69:-0.29463031 70:-0.80891363 71:-0.017898419 72:0.002276404 73:0.42117278 74:-0.76153561 75:0.01710214 76:1 77:-0.78323401 78:-1 79:-0.35939161 80:-0.43477571 81:-0.052653595 82:-0.48791169 83:-0.83564044 84:-0.92636655 85:-0.20507106 86:0.14412594 87:0.0035671455 88:-1 89:-0.73651672 90:-0.67307151 91:-0.54940379 92:0.73441078 93:-0.72066358 94:1 95:-0.5488213 96:0.62688024 97:-0.39497714 98:-0.80703453 99:0.24990869 100:-1 101:-0.89454027 102:-0.47316686 103:0.24539687 104:1 105:-0.16903085 106:0.72143493 107:-0.52888577 108:-0.7215231 109:-0.24253562 110:-0.48428205 111:-0.74942164 112:-0.86846169 113:-1 114:-0.37707514 115:-0.46843555 116:0.4100048 117:-0.78073773 118:-0.65064526 119:-0.77054791 120:-0.75813881 121:0.018970598 122:0.46479168 123:-0.16903085 124:-0.25096057 125:-0.65064526 126:-0.79474863 127:-0.72283616 128:-0.062674975 129:-1 130:-0.38441348 131:-0.50479677 132:-0.24253563 133:0.018343733 
0.7310923176671702 1:0.43849497 2:0.81064351 3:0.18758208 4:-0.30151134 5:0.79834987 6:0.83650574 7:-0.53233768 8:0.94233977 9:-0.26692147 10:-0.19504794 11:0.66417627 12:0.76803414 13:1 14:1 15:-0.30196469 16:0.37482229 17:0.074651827 18:0.97989764 19:-0.34024983 20:-0.16903085 21:-1 22:-0.83686485 23:1 24:-0.94315495 25:0.45570264 26:1 27:-0.76668841 28:1 29:0.92548889 30:0.66418007 31:0.40582461 32:-0.033371815 33:-0.3102597 34:0.93336775 35:-0.48155073 36:0.48223521 37:-0.060589779 38:-0.62645791 39:-0.16903085 40:1 41:0.19357082 42:0.19998386 43:0.076183883 44:0.12349121 45:-0.20120076 46:-0.2274586 47:-0.16903085 48:-1 49:-0.59976014 50:-0.16903085 51:1 52:-0.30151134 53:0.65388739 54:-0.16056836 55:0.48249723 56:-0.24253562 57:-0.38640669 58:0.86101594 59:0.60987335 60:-0.18548967 61:1 62:-0.48504224 63:-0.30151134 64:-0.30151134 65:-0.78638423 66:0.82548177 67:0.99667124 68:-0.16903085 69:0.73771382 70:-0.25560647 71:1 72:-0.45005566 73:-0.19815173 74:0.25947436 75:-0.8542422 76:0.36467547 77:-0.21271228 78:-0.059311534 79:-0.41163307 80:-1 81:0.64084216 82:-0.85663958 83:-1 84:0.48426681 85:0.79863039 86:-0.68562798 87:-0.054605067 88:0.90931411 89:0.73409696 90:-0.27571406 91:-0.46357145 92:0.9474082 93:0.90209291 94:1 95:1 96:1 97:0.85743714 98:0.12648565 99:0.46815117 100:-0.035051535 101:-0.57993927 102:0.66297371 103:-0.60237893 104:-1 105:-0.16903085 106:0.67144649 107:0.90575884 108:-0.078696557 109:-0.24253562 110:-0.90245083 111:-0.7893841 112:-1 113:-0.071796509 114:-0.90901665 115:-0.2417029 116:1 117:-0.19176611 118:0.80678553 119:0.77165945 120:-0.22533793 121:0.73474547 122:-0.90671324 123:-0.16903085 124:0.716144 125:0.80678553 126:0.033305462 127:-1 128:0.15117865 129:0.67097817 130:0.40029225 131:-0.41138223 132:-0.30151134 133:-0.17749324 
0.71380739936855064 1:0.73834958 2:0.031054917 3:-1 4:0.5773841 5:-0.41218683 6:-0.022735311 7:1 8:0.066204828 9:0.5109352 10:1 11:0.54530014 12:-0.22912209 13:-0.28889598 14:-0.78989962 15:1 16:0.2098043 17:-0.74426331 18:0.95041135 19:0.68564537 20:0.8724067 21:1 22:0.88822123 23:-0.5748582 24:-0.19199276 25:0.17171633 26:-0.58250963 27:-0.20736379 28:0.67195742 29:-0.84805432 30:-0.23335625 31:-0.31200942 32:0.4564189 33:0.1042306 34:0.34567226 35:0.40449425 36:0.43075461 37:0.47679043 38:-0.85939381 39:-0.77370022 40:0 41:0.92449954 42:0.61279887 43:0.55122487 44:1 45:1 46:1 47:0.19012102 48:0.85176562 49:-1 50:0.47505058 51:1 52:0.4300104 53:-1 54:0.25791932 55:0.15305737 56:-0.69335387 57:1 58:-0.21804768 59:0 60:0.41593133 61:-0.47836213 62:-0.091212774 63:0.94783543 64:-0.86504593 65:-0.048428142 66:0.21486298 67:-0.77564401 68:-1 69:-1 70:-0.36646262 71:-0.89836441 72:-1 73:0.40096648 74:0.35827722 75:-1 76:-0.57864575 77:1 78:-1 79:0.093608407 80:0.10710885 81:-0.75026739 82:-0.57762046 83:-1 84:-0.89316119 85:-0.80553772 86:1 87:-1 88:0.7102963 89:-0.49621795 90:0.074603344 91:-0.11034481 92:-1 93:0.5586197 94:0.075075528 95:-0.84672578 96:0.52631431 97:0.51197313 98:-0.85320664 99:0.31659768 100:1 101:0.80243617 102:-0.77370997 103:-1 104:0.36384799 105:0.88840538 106:-0.63137514 107:0.61413918 108:0.38447611 109:0.065201187 110:1 111:0.54122855 112:1 113:1 114:-1 115:0.14056195 116:1 117:1 118:-0.043449057 119:-0.9242869 120:1 121:-0.17068814 122:0.024432555 123:0.41966755 124:-0.79692067 125:-0.043449057 126:0.94620309 127:-0.13521112 128:-0.57040821 129:-0.024273489 130:0.86770531 131:-0.22241648 132:0.040450888 133:0.37153552 
