svm_type c_svc
kernel_type rbf
gamma 0.125
nr_class 2
total_sv 1682
rho -0.93377058173403737
label 1 -1
nr_sv 1098 584
SV
0.066437135426664629 1:-0.6979495 2:1 3:-0.15257015 4:-0.40160966 5:0.33839127 6:-0.62609798 7:-0.36255777 8:0.391915 9:0.27869569 10:0.50583911 11:-0.68790513 12:-0.61956918 13:-0.56643646 14:-0.73148474 15:-0.018723283 16:0.49752898 17:0.07858187 18:-0.14832926 19:-0.39197705 20:-0.40160965 21:0.45446098 22:0.011813181 23:-1 24:-0.64745769 25:-0.6341773 26:-0.75081143 27:-1 28:1 29:-1 30:-0.15700284 31:1 32:0.4947823 33:-0.32450141 34:1 35:0.37887161 36:1 37:0.48861828 38:0.58424217 39:-0.30151133 40:-1 41:-0.10732379 42:-0.59743457 43:-0.12295194 44:-1 45:0.49667926 46:0.53719257 47:-0.30151133 48:-1 49:-0.045883147 50:0 51:-0.69120608 52:-0.30151134 53:-0.72527069 54:0.37441631 55:-0.64230022 56:-0.30151134 57:-0.29038458 58:-1 59:-1 60:-0.85776736 61:-0.93292168 62:0.43637735 63:-0.24253563 64:-0.35355338 65:0.20648173 66:-0.15946786 67:-0.77259397 68:-0.35355337 69:-0.79434517 70:-0.82730631 71:-0.45152194 72:-1 73:0.26437558 74:1 75:0.44880984 76:0.27943105 77:0.48122991 78:0.3390538 79:0.17458773 80:-0.33134263 81:-0.54642068 82:-0.79936116 83:1 84:1 85:-0.0070917543 86:0.94306284 87:-1 88:-0.77696287 89:-0.72761008 90:-0.4106032 91:0.13332132 92:-0.47248031 93:-0.49368337 94:1 95:0.97801929 96:0.56886097 97:-0.2889466 98:1 99:0.2041972 100:-0.50648342 101:-0.32091325 102:-0.94800209 103:-0.57608539 104:1 105:-0.35355338 106:-0.88934336 107:-0.40992792 108:-0.29317639 109:-0.16903085 110:-0.58864243 111:-0.64555761 112:0.65611557 113:-0.079738227 114:-0.39354252 115:-0.30707798 116:1 117:0.5071895 118:-0.54740445 119:-1 120:0.5367341 121:0.34426679 122:0.44449363 123:-0.16903085 124:-1 125:-0.54740445 126:-0.38640891 127:-0.38123718 128:0.10367295 129:0.057681999 130:0.22275662 131:-0.56317703 132:-0.35355339 133:-0.19647625 
0.065770211237194121 1:-0.73160747 2:-0.18428178 3:-1 4:-0.66069474 5:1 6:-1 7:-0.41884236 8:1 9:-1 10:-0.56711575 11:-0.79500415 12:-0.65075435 13:-0.8011893 14:-1 15:-1 16:-0.92405197 17:-0.47659204 18:0.77158998 19:-1 20:-0.03468973 21:-1 22:0.42311586 23:-1 24:0.22029719 25:-1 26:-0.83613047 27:0.73918852 28:-0.32006403 29:0.34074267 30:-1 31:-0.40970513 32:-0.51571496 33:-0.82011828 34:-0.50603575 35:-0.96605028 36:-0.34872202 37:-0.55379314 38:0.95445954 39:0.15783229 40:-0.35153947 41:-0.14467183 42:0.32420099 43:-1 44:1 45:-0.57086157 46:-0.56846911 47:0.30229662 48:-1 49:-1 50:-0.29384687 51:-0.85648577 52:0.31840183 53:-1 54:0.16582676 55:-1 56:-1 57:-1 58:-1 59:-0.85499543 60:0.28691231 61:-0.88719257 62:1 63:-0.36147213 64:-0.03444183 65:0.42009547 66:0.80858203 67:-1 68:-1 69:-1 70:0.71922813 71:-1 72:-0.68630068 73:0.18882704 74:-0.055668518 75:-1 76:0.98949581 77:-0.58321672 78:1 79:0.95317889 80:1 81:-1 82:0.020842382 83:1 84:-1 85:-0.40872115 86:0.18754887 87:-0.13272844 88:-1 89:-0.28847466 90:-1 91:0.81876415 92:-1 93:-0.98321043 94:0.035868576 95:-0.7839295 96:-0.50500383 97:-0.85909199 98:0.26998801 99:0.13637578 100:0.098410026 101:-0.82538107 102:-0.014644555 103:1 104:-0.57883307 105:1 106:-1 107:-0.93317801 108:-1 109:1 110:-0.80956615 111:-1 112:-0.9889623 113:-1 114:-1 115:-0.7271477 116:0.05247866 117:-0.57086063 118:-0.18065879 119:0.60281034 120:-0.57082871 121:-0.31350372 122:1 123:0.49471786 124:-0.97619506 125:-0.18065879 126:-1 127:-0.89909455 128:0.081661579 129:0.046621018 130:0.15541486 131:0.9581839 132:0.10286908 133:0.53610642 
0.06528439949577021 1:0.70095278 2:-0.081212438 3:0.12095349 4:1 5:0.40555864 6:0.094704168 7:0.83261234 8:1 9:0.1580415 10:0.088877966 11:-0.058875419 12:-0.16238912 13:-0.64522821 14:0.14284721 15:0.49231666 16:-0.80124184 17:-0.10186416 18:-0.20053029 19:-1 20:-0.24253556 21:0.19271495 22:0.081802624 23:-0.73931256 24:0.50733887 25:-0.6544476 26:-0.74569428 27:-0.56715446 28:0.80571046 29:0.68166087 30:0.22592279 31:-0.13100566 32:0.20855468 33:-0.60231779 34:0.14535713 35:0.46269251 36:-0.055352371 37:0.20864108 38:-0.59569504 39:-0.24253556 40:0.39104563 41:0.8075784 42:-0.30942219 43:0.25637703 44:-0.76596132 45:0.072694102 46:0.04139218 47:-0.24253556 48:-0.77427786 49:1 50:-0.30151127 51:-0.72012679 52:1 53:-1 54:0.02159595 55:0.3055013 56:-0.24253563 57:-0.064153713 58:-0.40760681 59:0.065933018 60:-0.62119323 61:-0.47155858 62:0.43249916 63:1 64:1 65:-0.025868942 66:-0.0098221088 67:-0.86445663 68:1 69:1 70:-0.15465304 71:0.78518352 72:-0.49639001 73:0.075288934 74:-0.25201771 75:0.84646907 76:-0.028161881 77:0.06691955 78:1 79:-0.58699285 80:-0.4121849 81:-0.17772886 82:-1 83:-0.77757694 84:-1 85:-0.079133149 86:-0.71138493 87:0.71634653 88:-0.42959713 89:-0.4395719 90:0.11422863 91:0.65442611 92:-0.31631068 93:-0.24837368 94:0.10001675 95:1 96:-1 97:-0.415086 98:-0.68037907 99:0.011958094 100:-0.81446169 101:-0.59873993 102:-0.64621678 103:0.62934815 104:0.36915856 105:1 106:-0.029678943 107:-0.35958035 108:-0.063184505 109:-0.24253556 110:-0.55830076 111:-0.88962598 112:0.13861354 113:0.23328265 114:-1 115:-0.22438088 116:0.95525108 117:0.09306423 118:-0.35349355 119:0.21359958 120:0.042510374 121:-0.30338106 122:0.16225193 123:-0.30151134 124:-0.76809438 125:-0.35349355 126:0.46347374 127:-0.34595086 128:-0.37737426 129:-0.18709238 130:0.088227912 131:-0.62575664 132:1 133:-0.75091363 
0.065851176167902606 1:1 2:-0.1310174 3:-0.26429388 4:0.77276979 5:0.90372321 6:-0.34350644 7:1 8:0.55319658 9:1 10:0.37339452 11:0.15385556 12:1 13:-0.476667 14:-0.38760982 15:0.22763078 16:1 17:-0.16319346 18:0.096003359 19:-0.44943131 20:1 21:0.18827908 22:-1 23:0.46519953 24:-0.26716221 25:0.75586657 26:-0.45265505 27:-0.47437473 28:0.73561088 29:-0.28246744 30:1 31:-0.53893296 32:0.50669591 33:1 34:0.20875773 35:0.68337242 36:0.048230828 37:0.50760405 38:-0.053446103 39:-0.0571776 40:-1 41:0.89172396 42:1 43:0.55365262 44:0.055311968 45:0.36715569 46:0.31058125 47:0.53780023 48:-1 49:0.47916753 50:1 51:-0.31302827 52:1 53:1 54:0.31841974 55:0.038983643 56:0.27934765 57:1 58:0.024957542 59:-0.053636016 60:0.024657193 61:-0.27437273 62:-0.30659019 63:1 64:-0.18672879 65:0.22095596 66:-0.30477493 67:0.80533609 68:0.54361604 69:0.77250397 70:0.15702224 71:-0.29649913 72:0.20078172 73:-0.25943655 74:1 75:-0.85928283 76:-1 77:0.3911121 78:-0.065142665 79:-0.24022001 80:-0.1754298 81:1 82:-1 83:-0.15239246 84:-0.41701694 85:1 86:-0.15814887 87:-0.30149115 88:-0.48469118 89:1 90:0.33283797 91:0.86526894 92:1 93:1 94:-0.08367334 95:0.39163022 96:1 97:1 98:-0.68818727 99:0.17525986 100:0.6022002 101:1 102:-0.36869814 103:-0.34490007 104:-0.10017737 105:1 106:1 107:1 108:1 109:1 110:0.19447486 111:0.90524528 112:-0.19669315 113:0.90348149 114:0.60973902 115:0.9669638 116:1 117:0.37446912 118:1 119:-0.32648533 120:0.3097603 121:0.94094262 122:0.10605723 123:1 124:0.48655975 125:1 126:-0.15794257 127:-0 128:-0.58141486 129:-0.21261022 130:0.9415556 131:-0.1794099 132:0.41137668 133:-0.44975935 
0.066156144057069086 1:1 2:-1 3:0.55481572 4:-0.30151126 5:0.1323397 6:0.71914656 7:1 8:-0.67672393 9:0.79110133 10:0.96870554 11:0.45252586 12:0.83028777 13:-0.68371918 14:-1 15:0.19079731 16:-1 17:-1 18:-0.80626505 19:0.26543195 20:-0.24253562 21:-0.60095732 22:-0.25355156 23:-0.51384403 24:0.31731808 25:0.37618912 26:-0.71741063 27:0.81400542 28:-1 29:-0.36518235 30:1 31:0.80704488 32:1 33:0.47459342 34:-0.74405484 35:-1 36:1 37:1 38:1 39:-0.16903085 40:-1 41:-0.63494663 42:-1 43:1 44:0.58938431 45:0.94804206 46:0.9245876 47:-0.16903085 48:-1 49:1 50:-0.16903085 51:-0.25650129 52:-0.24253562 53:0.68833032 54:-0.23135381 55:0.10965995 56:-0.16903085 57:-0.32424063 58:1 59:-0.78956327 60:0.62981179 61:-0.65475745 62:0.77059098 63:-0.24253555 64:-0.30151126 65:-0.27592227 66:0.071914142 67:-0.8601234 68:-0.30151126 69:-0.39791492 70:-0.29859118 71:-1 72:-0.56713528 73:-0.053388635 74:-0.16723542 75:1 76:0.012790073 77:0.94170717 78:0.34161898 79:-0.79215915 80:-0.70720082 81:0.45642941 82:-1 83:0.19801469 84:-1 85:0.84191925 86:-0.20939556 87:-0.27286092 88:0.33173638 89:1 90:1 91:-0.38053565 92:0.57746581 93:0.9682515 94:-1 95:-0.5585982 96:-1 97:0.89693644 98:-0.82490067 99:-0.28117664 100:-1 101:-1 102:-0.67178411 103:0.022725934 104:-0.089628421 105:0 106:0.39818873 107:0.939937 108:1 109:-0.3535533 110:1 111:-1 112:0.88055649 113:0.84012312 114:0.95784149 115:-0.33859291 116:-0.56280834 117:0.98043606 118:1 119:-0.29855659 120:0.92919455 121:1 122:-0.19991544 123:-0.24253555 124:-0.56996507 125:1 126:1 127:-1 128:0.31897898 129:-0.98026776 130:-0.024503059 131:1 132:-0.30151126 133:-0.10110139 
0.065936898074263589 1:0.36215929 2:-0.21207468 3:-0.31200864 4:0.49613894 5:-0.106607 6:-0.27709864 7:-1 8:1 9:1 10:1 11:1 12:1 13:0.011567658 14:-0.75775733 15:1 16:1 17:1 18:-1 19:-0.59294309 20:0 21:1 22:1 23:0.44128294 24:-0.40398359 25:1 26:-0.71127471 27:-0.20628009 28:1 29:0.6091965 30:-1 31:1 32:1 33:1 34:1 35:1 36:1 37:1 38:-1 39:0.98102294 40:1 41:-1 42:-0.074305889 43:1 44:0.59355695 45:1 46:1 47:0.10736563 48:0.017951182 49:0.37314944 50:0.27050089 51:-0.44269789 52:0.95599375 53:1 54:0.17080404 55:-0.63563213 56:-0.76033051 57:1 58:-0.58720886 59:1 60:-0.49361268 61:-0.71405848 62:0.96338175 63:-0.36740472 64:1 65:0.56862903 66:0.25429898 67:-0.1681994 68:-0.96631472 69:-0.83864392 70:-0.56467465 71:-0.18127794 72:-0.22486104 73:0.58784968 74:-1 75:-0.5838673 76:-1 77:1 78:-0.49542579 79:-1 80:1 81:0.70907888 82:0.091826072 83:-0.0055902996 84:1 85:-1 86:-0.19966242 87:-0.77345785 88:-0.6722248 89:1 90:1 91:-0.21791672 92:0.88698207 93:1 94:-0.11029272 95:-1 96:0.80868101 97:1 98:0.53174824 99:0.66543187 100:0.64329176 101:1 102:-0.81407241 103:-0.4682399 104:0.45717695 105:0.3331144 106:1 107:1 108:1 109:0.32816506 110:1 111:-0.69869891 112:1 113:1 114:-0.078635406 115:-1 116:0.68858613 117:1 118:1 119:0.18051956 120:1 121:0.60991298 122:0.34453456 123:0.98780879 124:-0.60816758 125:1 126:1 127:-0.14037166 128:0.7761833 129:0.5274743 130:0.70151121 131:-1 132:-0.15947523 133:-0.16395008 
0.066149943038938508 1:-0.89648774 2:1 3:0.30605628 4:-0.30151126 5:-0.076918899 6:1 7:-0.35276868 8:-0.75114707 9:1 10:1 11:-0.66051274 12:-0.81270457 13:-0.26350988 14:0.27132305 15:1 16:0.91290885 17:-0.84692638 18:-0.66728236 19:-0.58188817 20:-0.24253562 21:1 22:1 23:0.21514856 24:-1 25:-0.60599519 26:0.81100238 27:-0.86778005 28:0.4757747 29:-1 30:-0.43808262 31:-0.75826238 32:1 33:0.95241759 34:0.21623739 35:-0.37883706 36:-0.64216803 37:1 38:-0.46655985 39:-0.16903085 40:0.77331182 41:1 42:-0.14463367 43:0.94052857 44:-0.7298824 45:1 46:1 47:-0.16903085 48:0.87219218 49:-0.8399639 50:-0.16903085 51:-0.36252262 52:-0.24253562 53:-0.5768141 54:-0.36994174 55:0.37346492 56:-0.16903085 57:1 58:0.208923 59:0.49305838 60:-0.058695004 61:0.37659533 62:-0.45713497 63:-0.24253555 64:-0.30151126 65:-1 66:-0.3042049 67:-0.22650505 68:-0.30151126 69:-0.32223825 70:-0.16356606 71:0.33666618 72:1 73:-1 74:-0.70235328 75:-0.49236596 76:-1 77:1 78:-0.015705686 79:0.88367662 80:0.88070354 81:-0.60013205 82:1 83:-0.99746833 84:1 85:-1 86:1 87:-0.76961645 88:-0.6423709 89:-0.64376397 90:0.66131952 91:-0.44734505 92:-0.59116696 93:-0.78036905 94:1 95:-0.5585982 96:-0.90297108 97:-0.64927785 98:1 99:-0.33639425 100:0.38205108 101:1 102:0.11128077 103:0.044944005 104:0.12012498 105:0 106:-0.63314714 107:-0.72039623 108:0.63397891 109:-0.3535533 110:1 111:0.62092514 112:1 113:1 114:-1 115:-0.33859291 116:0.18613097 117:1 118:-0.6050396 119:-1 120:1 121:-0.8565539 122:-0.29076754 123:-0.24253555 124:-0.13079352 125:-0.6050396 126:1 127:0.55219632 128:-1 129:0.46886688 130:-0.013325419 131:-0.42201363 132:-0.30151126 133:-0.43837308 
0.066218103744311335 1:0.20580891 2:-0.23275456 3:0.54740607 4:0.98984199 5:-0.99197986 6:-1 7:-0.3970567 8:0.43228563 9:-0.15710766 10:0.83547351 11:-0.21605257 12:-0.3070523 13:-0.46148926 14:0.014872988 15:-0.26787071 16:-0.44625276 17:-0.12702204 18:-0.64676958 19:0.87670751 20:-0.49311811 21:0.034421386 22:-0.52378466 23:-0.71619695 24:0.19887549 25:0.24824157 26:-0.44505608 27:0.29416653 28:-0.55905569 29:-0.66071851 30:1 31:-0.60139336 32:0.87850021 33:0.9225953 34:-0.37381676 35:-0.52756219 36:0.14655701 37:0.93805113 38:-0.67127941 39:0.089622212 40:0.35931371 41:-0.19031767 42:-1 43:-0.44607364 44:0.35684973 45:0.81142359 46:0.81521871 47:-1 48:-0.29309243 49:-0.5488213 50:0.49016501 51:-0.36063634 52:0.40160966 53:-0.62230163 54:-0.75335071 55:0.74226814 56:-0.52228943 57:-0.36424762 58:1 59:-0.089292133 60:0.08579882 61:-0.34490592 62:0.46181544 63:-0.15075567 64:0.54918786 65:-0.5772322 66:-0.070400915 67:-0.47873575 68:-0.27375436 69:-0.0022921825 70:-1 71:-0.52025232 72:-0.055870638 73:0.60624707 74:1 75:-0.85609522 76:0.13407917 77:0.83064415 78:-0.72649711 79:-0.46890353 80:1 81:1 82:-0.81801198 83:0.056398236 84:-0.066800867 85:0.60775504 86:0.20906332 87:0.66286148 88:0.88103854 89:0.45088559 90:0.20776842 91:-0.12469903 92:-0.033340062 93:0.62248211 94:-0.093017581 95:-0.40487668 96:-0.12860501 97:-0.11105104 98:-0.30816665 99:-0.33007453 100:0.95750539 101:-0.13422487 102:-0.53083297 103:0.053830162 104:1 105:0.99730676 106:0.088999045 107:-0.054559165 108:0.31601455 109:0.12803688 110:0.52511701 111:1 112:0.45689727 113:-0.85636439 114:1 115:-0.36799987 116:-0.71790186 117:0.84246541 118:0.7095717 119:-0.63523181 120:0.81783565 121:0.26576359 122:0.75228002 123:-0.39693358 124:-0.26682478 125:0.7095717 126:-0.31633102 127:-0.012060425 128:0.11696958 129:0.35822161 130:0.44528161 131:0.55329276 132:-1 133:0.013795925 
0.066454179323760895 1:0.64801403 2:1 3:-1 4:0.74019101 5:0.87644714 6:-1 7:-0.17497088 8:0.2807857 9:-0.88674213 10:-1 11:-0.46128921 12:-0.67727569 13:-0.27200301 14:-0.89467286 15:-0.49539785 16:1 17:0.35934339 18:0.31860932 19:-0.61388528 20:0.68774638 21:-0.90965814 22:-0.21850466 23:-0.73667368 24:-0.94681659 25:-0.60325711 26:-0.76641212 27:0.6003179 28:0.79445665 29:-0.47218485 30:0.17121442 31:-1 32:-1 33:-0.44048836 34:0.26214168 35:-0.20227497 36:-0.78622435 37:-1 38:-1 39:1 40:1 41:-1 42:-0.19333924 43:-0.41229149 44:0.74057425 45:-1 46:-1 47:0.5462573 48:0.44271308 49:-0.15922347 50:0.57284844 51:-0.68668798 52:0.29034943 53:-0.58887388 54:0.29176098 55:-1 56:-0.56195149 57:-0.87951389 58:-0.24336368 59:1 60:-0.37527436 61:-0.71266714 62:-0.63961495 63:1 64:1 65:0.49692896 66:0.053885168 67:-0.28601017 68:-0.3466199 69:-0.83238979 70:0.021223575 71:-0.97071748 72:-0.64697525 73:0.44959073 74:-0.20828524 75:0.30492479 76:0.74693909 77:-1 78:-1 79:-0.96932063 80:-0.18181313 81:-0.5920403 82:-0.47685518 83:-1 84:-0.48443379 85:0.22336425 86:0.25792954 87:-0.81543171 88:-0.61064451 89:-0.90084319 90:-0.80977396 91:-1 92:-0.51572059 93:-0.63504856 94:1 95:-0.56568542 96:0.86593165 97:-0.65254411 98:-0.57652014 99:0.60934568 100:-0.32168541 101:-0.4405947 102:-0.38244828 103:-1 104:-0.075724513 105:0.87400019 106:-0.58837387 107:-0.63054994 108:-0.88904049 109:1 110:-0.83319145 111:1 112:-0.97170179 113:-0.49568499 114:-0.18695846 115:0.49275284 116:1 117:-1 118:-0.50878902 119:-1 120:-1 121:-0.64385146 122:1 123:0.78900009 124:-0.45879965 125:-0.50878902 126:-0.60743941 127:-0 128:0.75737106 129:-0.62390567 130:0.38918964 131:-0.85472954 132:0.71427163 133:-0.16254328 
0.06662376155043552 1:-0.12627556 2:0.54411429 3:-0.49963246 4:1 5:-1 6:0.23534253 7:0.41037049 8:-0.81560497 9:1 10:1 11:1 12:1 13:1 14:-0.079974512 15:1 16:-0.78345918 17:1 18:-1 19:0.16602736 20:0.20519567 21:1 22:1 23:1 24:0.12911888 25:1 26:-0.13563089 27:0.41321617 28:-0.63219208 29:0.067089215 30:0.38839569 31:-0.53904298 32:1 33:1 34:-0.46622265 35:0.67646445 36:-0.32813532 37:1 38:-1 39:-0.49423044 40:0.79719322 41:-0.25916198 42:-1 43:1 44:-0.15439666 45:1 46:1 47:-0.20642154 48:-1 49:0.29002095 50:1 51:0.37571361 52:0.96343991 53:1 54:0.43948258 55:-0.51490359 56:0.27883948 57:1 58:1 59:0.41935721 60:-0.32297845 61:-0.55117816 62:-0.46595694 63:0.039936153 64:-0.64039869 65:1 66:-1 67:0.015519367 68:0.36464526 69:0.49605278 70:-0.86168185 71:-0.40853579 72:0.34704072 73:0.63620325 74:0.32066141 75:0.084916695 76:0.81758678 77:1 78:-0.58493742 79:0.38111597 80:1 81:0.91849614 82:0.12636972 83:0.49386223 84:0.8545847 85:-1 86:-0.2471443 87:-0.59414176 88:0.21352203 89:1 90:0.15279229 91:1 92:1 93:1 94:0.99925306 95:-0.24618298 96:0.11833795 97:1 98:0.43903384 99:-0.59265566 100:1 101:1 102:0.94079074 103:-0.0021710337 104:1 105:0.57590055 106:1 107:1 108:0.44433264 109:0.68616115 110:0.69522406 111:1 112:1 113:1 114:-0.3496418 115:-0.49747187 116:-0.91920727 117:1 118:1 119:-0.88867002 120:1 121:1 122:-0.30477409 123:0.80439967 124:-0.39782109 125:1 126:0.1388238 127:0 128:0.23815686 129:0.45436104 130:-0.3075552 131:0.43647654 132:-0.966496 133:0.11047415 
0.066047965195630998 1:0.18325134 2:-0.55008622 3:-0.0069820506 4:-1 5:0.22672342 6:-0.37808923 7:1 8:-0.43829962 9:0.29835502 10:0.86789353 11:0.31800918 12:1 13:-0.50922064 14:-0.36070957 15:-0.20863296 16:-0.31994792 17:-1 18:-0.46836684 19:-0.29047255 20:0.20227835 21:0.24858997 22:0.89343631 23:0.12363131 24:0.65901272 25:0.088568227 26:-0.67703152 27:-0.65344337 28:0.597184 29:-0.14211389 30:-0.42886949 31:0.062424174 32:0.88067685 33:-0.42626668 34:0.63006519 35:-0.68851529 36:0.099372086 37:0.8578567 38:0.50708463 39:1 40:0.29512326 41:0.7833415 42:-0.48141214 43:-0.67454457 44:1 45:0.85528154 46:0.86532635 47:0.5462573 48:0.030531937 49:-0.15922347 50:-1 51:-0.5812392 52:0.29034943 53:1 54:0.038139579 55:-0.2735244 56:-0.56195149 57:-0.21597765 58:-0.14266883 59:0.22009188 60:0.016236125 61:-0.56320763 62:0.38268133 63:0.53547689 64:1 65:0.11324914 66:1 67:0.6093414 68:-1 69:-0.39090128 70:1 71:-0.38428033 72:0.5966437 73:-0.80608747 74:1 75:-0.47916753 76:0.61620716 77:0.8372707 78:1 79:0.10644863 80:0.8772667 81:0.43630141 82:-0.64670782 83:-0.33958064 84:-0.50646164 85:-0.90119785 86:1 87:-0.8543958 88:-0.077071637 89:1 90:-0.38938661 91:-0.80410286 92:1 93:1 94:-0.58740828 95:-0.56568542 96:0.20862911 97:1 98:-0.47725097 99:-0.41292714 100:0.85596067 101:-0.43241617 102:0.52369401 103:0.086670458 104:-0.31254626 105:-0.094123097 106:0.73743061 107:1 108:-0.20244132 109:-0.04947707 110:-0.30692626 111:0.12669246 112:0.62292415 113:-0.21250759 114:-0.18695846 115:1 116:0.66129681 117:0.87124649 118:1 119:-0.10973978 120:0.86213057 121:1 122:0.24992891 123:0.36505974 124:0.35260835 125:1 126:-0.30878951 127:-0 128:-0.42942647 129:-0.1363263 130:-0.52342627 131:0.041045733 132:0.28435118 133:0.63522541 
0.066368552651990903 1:-0.99344668 2:-1 3:-0.57849489 4:-1 5:0.36506756 6:-1 7:-0.84970456 8:0.12179652 9:1 10:0.84048323 11:0.46046465 12:0.51721004 13:1 14:0.093582911 15:1 16:1 17:1 18:-1 19:1 20:-0.46856593 21:1 22:1 23:1 24:1 25:1 26:0.94718267 27:0.76967947 28:1 29:1 30:-1 31:0.10463261 32:0.82706273 33:1 34:0.13359612 35:0.4249901 36:1 37:0.80270381 38:1 39:0.54777988 40:-1 41:-1 42:0.88506629 43:1 44:-0.55595865 45:0.86074002 46:0.86392764 47:-1 48:0.14604489 49:0.93440451 50:-1 51:1 52:0.87874955 53:1 54:0.41038146 55:-0.18633398 56:0.8574798 57:1 58:-0.50449579 59:-0.81065027 60:-0.86485272 61:0.85085182 62:1 63:-0.78666618 64:0.19310049 65:0.57341894 66:-0.68063029 67:1 68:1 69:-0.82765327 70:-0.64765971 71:1 72:-0.80933051 73:1 74:-1 75:0.018297105 76:-1 77:0.87971575 78:-1 79:-0.59378487 80:0.3807299 81:-0.7114138 82:-1 83:-0.98861255 84:0.96204499 85:-1 86:-0.56248132 87:-0.093963358 88:1 89:0.61573136 90:0.80974956 91:0.41539024 92:1 93:0.10205833 94:-0.44787029 95:-0.7490265 96:1 97:0.34137166 98:0.66765508 99:1 100:-1 101:1 102:-0.010260092 103:-1 104:-0.4322484 105:-0.99730676 106:-0.54337349 107:0.35978405 108:0.59966978 109:-1 110:1 111:0.80823505 112:1 113:1 114:-0.64168895 115:-1 116:0.35983269 117:0.83406685 118:0.068896473 119:0.52822575 120:0.86473782 121:-0.57938405 122:1 123:1 124:0.69968982 125:0.068896473 126:1 127:-0.35329777 128:1 129:1 130:0.82693932 131:-1 132:-1 133:-0.12772541 
0.066404085793005344 1:-0.41622652 2:0.38084321 3:-0.068808856 4:-0.30151118 5:-1 6:0.42793199 7:-0.39770871 8:-0.98755409 9:0.65162579 10:0.43729081 11:1 12:-0.9782971 13:-0.11871206 14:0.12972217 15:0.85073993 16:0.044498107 17:-1 18:1 19:-0.66814062 20:1 21:1 22:-0.76850309 23:0.17918643 24:-0.7580817 25:0.26641735 26:0.13376867 27:0.89967586 28:-0.24369567 29:0.57910047 30:0.8080907 31:1 32:0.37794432 33:-0.2424136 34:-0.33214815 35:1 36:1 37:0.37782297 38:-0.63142647 39:1 40:-0.36823889 41:1 42:-0.71756954 43:0.40530068 44:-0.24007888 45:0.43154494 46:0.48089421 47:1 48:0.81547943 49:-1 50:1 51:-0.23138149 52:1 53:-0.28280682 54:-0.99134214 55:0.11138646 56:-0.16903085 57:0.45028083 58:1 59:-0.70291561 60:-0.18533138 61:0.066597573 62:-0.52826076 63:-0.16903085 64:-0.30151134 65:-0.42809359 66:-0.8049256 67:0.50685408 68:1 69:-0.75921745 70:-0.29990684 71:-0.013191681 72:-0.16247364 73:-1 74:-1 75:-1 76:-0.45616155 77:0.41300834 78:0.11929765 79:-0.55728938 80:0.63955798 81:1 82:-0.21190735 83:-0.087893424 84:1 85:0.39985257 86:-0.68551028 87:-0.1653042 88:-1 89:-1 90:-0.40304183 91:-1 92:0.61339048 93:-0.77014602 94:0.33337819 95:0.3821431 96:-1 97:-0.23429436 98:1 99:0.95306403 100:-0.83654986 101:0.42316948 102:-0.048447404 103:-0.15510631 104:-1 105:1 106:0.75428526 107:-0.73234783 108:-0.29411613 109:-0.30151104 110:-0.16268622 111:-0.087584072 112:0.58137599 113:0.91228714 114:-0.67558967 115:-0.23252156 116:-0.73664468 117:0.43871626 118:-1 119:0.2945022 120:0.48087809 121:0.49617565 122:-0.65065989 123:-0.35355306 124:0.15247954 125:-1 126:-0.3358801 127:0.32128048 128:-1 129:-0.0050734878 130:0.056403896 131:-0.49691018 132:-0.30151118 133:-0.88856132 
0.06533800816252687 1:0.22702066 2:-0.17086316 3:-0.21036419 4:1 5:-0.010749113 6:-0.78528483 7:-0.0015894733 8:0.63354012 9:0.28897272 10:-0.29969708 11:-1 12:-0.33103722 13:-0.0090769558 14:1 15:0.10676557 16:1 17:-0.32344012 18:0.27867436 19:0.6732428 20:1 21:-0.35747954 22:-0.37984415 23:0.38292413 24:0.3484487 25:-0.124288 26:0.35950365 27:-1 28:-0.70050139 29:-0.5259817 30:0.13119229 31:-0.17378017 32:0.30733778 33:-0.9491 34:-0.3459154 35:-0.58546247 36:-0.012313346 37:0.32761102 38:-0.0040902302 39:1 40:-0.042244154 41:1 42:0.17950618 43:0.42116138 44:0.6578205 45:-0.29532078 46:-0.714504 47:1 48:-1 49:0.83651531 50:1 51:-0.46553963 52:1 53:-0.85710348 54:0.4472432 55:-1 56:1 57:-0.27543979 58:-0.17062075 59:-0.093800172 60:-0.27270816 61:0.018386717 62:0.16840065 63:1 64:1 65:0.57427654 66:0.97673212 67:0.70589502 68:1 69:-0.7737609 70:-0.16834118 71:1 72:0.35281508 73:-0.10285817 74:1 75:1 76:0.24193999 77:-0.30088215 78:-0.057867939 79:-0.21534557 80:-0.82557636 81:-1 82:0.021348892 83:0.74252076 84:0.30301234 85:0.38841616 86:1 87:0.80268417 88:0.60654351 89:-0.25090455 90:-0.16436654 91:0.73865511 92:-0.95981323 93:-0.85748105 94:-0.1103404 95:0.026697535 96:1 97:-1 98:0.0024094502 99:1 100:1 101:-0.94974113 102:0.78523157 103:-0.5597476 104:0.20685538 105:0.93070288 106:-0.97726322 107:-0.95635813 108:-0.2584458 109:1 110:-0.24255685 111:0.47048859 112:-0.96326678 113:0.4212065 114:-1 115:0.030567684 116:1 117:-0.30281135 118:0.084412525 119:-0.30285887 120:-0.70856596 121:1 122:0.49378468 123:1 124:0.55082891 125:0.084412525 126:-0.025487719 127:-0.19666663 128:-1 129:0.84055849 130:0.60667928 131:0.63119168 132:1 133:-0.056992322 
0.066102577366264403 1:-0.54346208 2:-0.26489594 3:-1 4:0 5:0.1607527 6:0.9547567 7:-0.22073665 8:1 9:0.92124604 10:0.57890863 11:0.72688071 12:1 13:-0.99366489 14:-0.66698378 15:0.69391445 16:-0.588705 17:0.018458927 18:-1 19:-0.085080551 20:0 21:0.09037507 22:0.13133942 23:-1 24:0.42374824 25:1 26:-0.74745866 27:-0.8090041 28:0.034006496 29:1 30:-1 31:0.34827263 32:0.6648977 33:-0.1248809 34:-0.13601905 35:-0.68025093 36:0.62833927 37:0.64484654 38:-0.48728259 39:0 40:0.75152946 41:0.20033396 42:0.8677554 43:0.92534335 44:-0.23637523 45:0.57931956 46:0.56026566 47:-0.16903085 48:-1 49:1 50:-0.16903085 51:-1 52:-0.16903085 53:1 54:0.33160513 55:-0.94108709 56:-0.16903085 57:1 58:-1 59:0.43615683 60:1 61:-0.9044516 62:-0.60005502 63:-0.16903085 64:-0.16903085 65:0.2009298 66:-0.25218222 67:-0.78502529 68:0 69:-1 70:1 71:-0.89659509 72:0.65410275 73:0.089087425 74:0.59944715 75:1 76:-1 77:0.5644562 78:0.35265592 79:1 80:0.28096218 81:1 82:0.69030237 83:-0.74713485 84:0.082312242 85:-0.31352034 86:-0.94962318 87:-1 88:-0.47643386 89:1 90:1 91:0.69348951 92:1 93:1 94:0.17145042 95:0.91066151 96:-1 97:0.92737097 98:-0.13452134 99:0.092272342 100:-0.51908992 101:-0.36316011 102:-1 103:-0.45370751 104:-0.27600346 105:0 106:1 107:1 108:1 109:-0.16903085 110:-0.13024338 111:-0.72681634 112:0.15918197 113:0.86709187 114:0.82288502 115:-0.16903085 116:-0.9454946 117:0.57926225 118:0.78665663 119:1 120:0.56193751 121:0.88165315 122:-0.42192349 123:0 124:-0.89983874 125:0.78665663 126:1 127:1 128:-0.24554972 129:-1 130:1 131:-0.50223204 132:0 133:-1 
0.066771059639817179 1:0.94031911 2:1 3:-0.0219421 4:1 5:0.4719035 6:-1 7:0.88401438 8:0.41531194 9:-1 10:-1 11:1 12:1 13:1 14:1 15:-1 16:1 17:-0.078970028 18:0.36058321 19:1 20:1 21:-1 22:0.33542625 23:0.52422014 24:0.51052828 25:1 26:0.93121642 27:0.78129262 28:0.88527562 29:-1 30:0.53517975 31:0.41650824 32:-1 33:-0.80975767 34:0.82136853 35:0.32063318 36:0.40546657 37:-1 38:-0.35685839 39:1 40:1 41:-1 42:0.69393419 43:-1 44:1 45:-1 46:-1 47:1 48:0.69363782 49:-0.26667876 50:1 51:1 52:1 53:1 54:-0.010321727 55:0.096028875 56:1 57:-1 58:-0.1392337 59:0.66077508 60:-0 61:0.70168663 62:0.15432766 63:1 64:1 65:-1 66:1 67:0.61858877 68:1 69:0.015426617 70:-0.1588128 71:1 72:1 73:0.0036047533 74:0.98680955 75:-0.81886119 76:1 77:-1 78:-0.015938663 79:0.10082973 80:-0.050045807 81:0.61085274 82:0.039894132 83:0.81046492 84:0.75807451 85:-0.45765052 86:1 87:1 88:1 89:1 90:-1 91:-0.59199931 92:1 93:0.76870057 94:0.99418156 95:0.68640647 96:1 97:0.66222971 98:0.016512181 99:-1 100:1 101:-0.86249756 102:0.27364028 103:0.30129643 104:-0.10677252 105:1 106:1 107:0.7213966 108:-1 109:1 110:-0.63072233 111:0.95594279 112:-1 113:-1 114:-0.66258916 115:1 116:1 117:-1 118:0.97417455 119:-1 120:-1 121:0.93106717 122:0.88182497 123:1 124:0.39499337 125:0.97417455 126:-0.95158959 127:0.47858384 128:1 129:1 130:0.80633909 131:0.74895596 132:1 133:1 
0.067525974939592795 1:0.43849497 2:-0.068657698 3:-0.3188818 4:-0.30151134 5:-0.15420173 6:0.83650574 7:-0.53233768 8:0.033927893 9:0.095200468 10:0.54351418 11:1 12:1 13:0.96745743 14:1 15:0.15604946 16:0.10075765 17:1 18:0.10674029 19:-0.45778891 20:-0.16903085 21:0.35570612 22:-0.32832379 23:1 24:-0.38120452 25:1 26:1 27:-0.37831515 28:0.74705531 29:0.40343771 30:0.91023868 31:-0.29007019 32:-0.13565818 33:-0.32347664 34:1 35:-0.47177869 36:-0.44328473 37:-0.12353488 38:-0.62645791 39:-0.16903085 40:-0.45654069 41:-0.039107127 42:0.2499162 43:0.21912574 44:0.12349121 45:0.53510715 46:0.71413345 47:-0.16903085 48:0.24282071 49:-0.59976014 50:-0.16903085 51:1 52:-0.30151134 53:1 54:1 55:-0.95682444 56:-0.24253562 57:0.13133694 58:0.099564908 59:-0.45889617 60:-0.20056239 61:1 62:-0.48504224 63:-0.30151134 64:-0.30151134 65:1 66:-0.18316399 67:1 68:-0.16903085 69:0.98265019 70:0.077105228 71:1 72:0.81745616 73:0.96229833 74:-0.26476039 75:-0.2847474 76:-0.14083251 77:0.5222356 78:-0.10468342 79:0.84586532 80:0.97418145 81:1 82:1 83:0.60860011 84:0.18633108 85:0.27012457 86:-0.35695857 87:-0.054605067 88:-0.062730898 89:1 90:0.039421966 91:0.035230719 92:0.93281972 93:1 94:0.10891158 95:-0.70111347 96:-0.13809941 97:1 98:-0.070189189 99:1 100:1 101:-0.58995276 102:1 103:-0.38105604 104:0.097775602 105:-0.16903085 106:0.8921228 107:1 108:0.42180008 109:-0.24253562 110:0.20803891 111:-0.79266354 112:0.62010672 113:0.020930915 114:-0.38120053 115:-0.2417029 116:-0.55919777 117:0.54945828 118:1 119:0.27420467 120:0.71664505 121:1 122:-0.59031764 123:-0.16903085 124:1 125:1 126:0.0041761961 127:0.089190972 128:0.15709519 129:0.67097817 130:1 131:-0.41138223 132:-0.30151134 133:0.61120953 
0.065927370680162772 1:0.24121971 2:1 3:-0.68732607 4:-0.16903085 5:0.86099802 6:0.022138846 7:-0.43457925 8:-0.10929202 9:-0.49096837 10:-1 11:-1 12:-0.58046596 13:-0.50947018 14:-0.69761734 15:-0.73261573 16:-0.011199913 17:0.048787978 18:0.91092129 19:-1 20:-0.30151123 21:-0.89614789 22:-0.9351933 23:-0.88085778 24:-1 25:0.057464057 26:-0.56907183 27:-1 28:0.041125725 29:-1 30:-0.31061554 31:0.11329358 32:-1 33:-0.13653425 34:0.1347779 35:0.16319216 36:0.82621033 37:-1 38:-0.45234759 39:-0.16903085 40:0.48157209 41:-0.30970849 42:0.69554982 43:-0.83051323 44:0.88197992 45:-1 46:-1 47:0 48:0.30739299 49:-0.88504448 50:-0.30151123 51:-0.61882725 52:0 53:-0.94450609 54:0.40935998 55:-1 56:0 57:-0.69707435 58:-0.0869753 59:0.28311785 60:-0.1255018 61:-0.65612681 62:-0.68470005 63:-0.16903085 64:-0.30151123 65:0.52563153 66:-1 67:-0.5354728 68:-0.35355327 69:-0.67614061 70:0.97483029 71:-0.6248174 72:-0.78071235 73:0.27383096 74:0.84631448 75:-0.71818485 76:0.43215004 77:-1 78:-0.4754632 79:0.048360972 80:-0.45842159 81:1 82:-1 83:-0.48754764 84:-0.36248448 85:0.59207447 86:0.36154675 87:-0.65032226 88:-1 89:-0.86906957 90:-0.8380502 91:0.18736426 92:-0.11447886 93:-0.69040703 94:1 95:0.022479006 96:1 97:-0.31560827 98:-0.34484191 99:0.35546136 100:-1 101:-0.034783264 102:-0.97163614 103:0.83698658 104:-1 105:-0.16903085 106:-0.037830404 107:-0.36632294 108:-0.73430647 109:-0.30151123 110:-0.93422989 111:-1 112:-1 113:-0.67092956 114:-0.88629017 115:-0.24217214 116:-0.76837832 117:-1 118:-0.95993623 119:-1 120:-1 121:0.9362501 122:0.081637952 123:-0.35355327 124:-0.62860061 125:-0.95993623 126:-0.72715985 127:-0.066059748 128:-0.061074019 129:-0.47997152 130:-1 131:-0.35052017 132:-0.35355327 133:0.72350069 
0.065321936914486844 1:0.58090346 2:-0.0072012543 3:1 4:-0.16903085 5:-0.076150275 6:0.52295366 7:1 8:0.90768212 9:0.91437762 10:1 11:0.34931308 12:0.63166218 13:-0.42881242 14:0.17854966 15:1 16:-1 17:-0.11260852 18:-1 19:-0.44166315 20:-0.24253563 21:1 22:1 23:-1 24:-1 25:0.83133584 26:-0.52219874 27:0.36056676 28:-0.18282372 29:-1 30:0.13774481 31:-0.24881933 32:1 33:0.73262132 34:-0.18269515 35:-0.37021188 36:-0.27874136 37:1 38:-0.42958227 39:-0.30151134 40:-0.024494488 41:0.49781558 42:1 43:1 44:1 45:1 46:1 47:-0.24253563 48:0.15221193 49:1 50:-0.30151134 51:-0.76013041 52:-0.24253563 53:0.65805315 54:-0.3755721 55:-0.62480936 56:-0.16903085 57:1 58:-0.9343782 59:-0.33603561 60:1 61:-0.72622615 62:-0.61703315 63:-0.24253563 64:-0.16903085 65:-0.18487445 66:1 67:-0.93091946 68:-0.30151134 69:-0.88603438 70:0.31374671 71:0.045310817 72:-1 73:0.085637437 74:0.64251179 75:1 76:0.33644922 77:1 78:1 79:-0.52501523 80:0.026610179 81:0.27853737 82:-0.017983783 83:-0.035609818 84:-0.75984577 85:-1 86:1 87:1 88:-0.91650794 89:0.53669126 90:1 91:0.20001854 92:0.54304263 93:0.72560199 94:0.2362073 95:-0.39801488 96:-0.46007086 97:0.85067767 98:-0.25878501 99:-0.2708684 100:-1 101:0.54673763 102:-0.94013402 103:0.33931082 104:-0.023841269 105:-0.24253563 106:1 107:0.75788214 108:1 109:-0.24253563 110:1 111:-0.45636871 112:1 113:1 114:-0.22800001 115:-0.16903085 116:-0.97947417 117:1 118:0.8298713 119:-0.26612263 120:1 121:0.55667041 122:-0.23485986 123:-0.16903085 124:-0.86231754 125:0.8298713 126:1 127:-0.29403115 128:-0.41647368 129:1 130:-0.052889782 131:-0.5900925 132:-0.24253563 133:-0.89191872 
0.066178761179399956 1:0.43327821 2:-0.85490845 3:0.077246186 4:-0.55595945 5:0.5181885 6:-0.50801908 7:1 8:-1 9:0.14904782 10:0.57542992 11:-1 12:-1 13:-0.49685953 14:-0.34507847 15:0.19698619 16:0.66121508 17:0.60568016 18:-0.51652595 19:0.59991837 20:0.63399302 21:0.48817244 22:0.93572207 23:-1 24:0.38982019 25:-1 26:-0.5390913 27:-0.15201072 28:-1 29:-0.88673493 30:1 31:-0.72649758 32:-0.10089941 33:0.92447241 34:-0.68777465 35:0.28286119 36:-1 37:-0.1099986 38:-1 39:0.38416102 40:0.64403081 41:-0.83885726 42:0.43582445 43:0.41820797 44:-1 45:0.55596477 46:0.71230836 47:0.060302269 48:0.81894839 49:-0.23570226 50:-0.74739957 51:-0.70674262 52:0.52764485 53:0.08334224 54:0.30947369 55:0.79708783 56:-0.30151134 57:-0.021416188 58:-0.056697446 59:0.39106546 60:-1 61:-0.53404734 62:1 63:-0.40406102 64:-0.54321448 65:0.033043493 66:-0.47278058 67:-1 68:1 69:0.11577604 70:-1 71:-0.22919348 72:-0.57182986 73:0.58996173 74:0.82116661 75:0.3617873 76:0.30289809 77:0.407792 78:-1 79:0.5836981 80:0.77174478 81:0.015271573 82:0.12996593 83:-1 84:-1 85:-0.93389461 86:0.30481799 87:0.25585522 88:0.69745683 89:0.1351361 90:-0.21807221 91:0.0444036 92:-0.65700687 93:-0.36613821 94:-1 95:-1 96:1 97:-1 98:-0.66163752 99:0.15578366 100:0.020070251 101:0.9241922 102:-1 103:1 104:0.19978493 105:0.54160685 106:-0.84937617 107:-1 108:-0.022133898 109:1 110:0.28864439 111:-1 112:0.60029702 113:0.2753222 114:-0.074149381 115:1 116:-0.076055705 117:0.58465864 118:-0.35018688 119:-1 120:0.71164738 121:0.049875308 122:0.11565255 123:-0.20290507 124:-0.72181532 125:-0.35018688 126:-0.32851493 127:-0.1910408 128:0.54829591 129:0.11266492 130:-0.015587884 131:1 132:-0.27778653 133:0.91068636 
0.066333575479971235 1:1 2:0.45155098 3:1 4:1 5:0.54217647 6:-1 7:0.16045381 8:-0.066609006 9:-0.96942213 10:-0.61428771 11:-0.13753545 12:-0.5851088 13:0.28734514 14:0.012593703 15:-0.52276852 16:1 17:-0.043153346 18:0.51694058 19:1 20:-0.24253563 21:-0.60891078 22:-0.21267388 23:-0.095317425 24:-1 25:-0.25369758 26:-0.14793937 27:1 28:-0.028101581 29:0.63287377 30:0.10686136 31:0.45792813 32:-0.32230141 33:-0.87894654 34:-0.40864214 35:0.46813407 36:0.9870466 37:-0.32464233 38:-0.47604624 39:0 40:1 41:1 42:-1 43:-0.90009165 44:0.60931494 45:-0.61115632 46:-0.81574736 47:-0.24253563 48:-0.29267549 49:-0.6789146 50:0 51:0.30180171 52:1 53:-0.44504349 54:-0.88030785 55:0.050775927 56:1 57:-0.81920585 58:-0.022037071 59:0.79994955 60:1 61:-0.10961336 62:-0.59527562 63:1 64:1 65:-0.96632925 66:0.69454325 67:-0.20328032 68:-0.24253562 69:-0.3092301 70:0.34413282 71:0.064302857 72:0.39064095 73:-0.1185801 74:-0.7605517 75:-0.50910984 76:1 77:-0.63623035 78:0.82417219 79:-1 80:0.62904376 81:-0.8168622 82:0.87287883 83:-1 84:-0.82409374 85:0.013701646 86:-0.40453803 87:-1 88:1 89:-0.41208454 90:-0.72448885 91:0.14346223 92:0.11526526 93:-0.28702174 94:0.62439144 95:1 96:-0.14920583 97:-0.5293717 98:-1 99:-1 100:-0.28451749 101:-0.70331255 102:-0.1928474 103:0.97934844 104:1 105:-0.24253562 106:-0.23876124 107:-0.51466893 108:-0.97046892 109:1 110:-0.6142209 111:-1 112:-0.90590564 113:-0.76600308 114:0.62561125 115:-0.43961575 116:0.66270261 117:-0.61614358 118:0.042068192 119:0.2723308 120:-0.81700468 121:-0.39764014 122:0.97841091 123:-0.24253562 124:-0.13084827 125:0.042068192 126:-0.79264252 127:-0.10488299 128:0.11310362 129:1 130:1 131:-0.51834283 132:1 133:0.76711133 
0.036931768359086327 1:-0.84390053 2:0 3:0 4:-0.16903085 5:-0.88786612 6:-0.031207855 7:-0.34976695 8:-0.84073684 9:-1 10:-1 11:-1 12:-0.18859755 13:-0.83408676 14:-0.81053103 15:-1 16:-0.84947787 17:0.21031136 18:1 19:-0.97000755 20:-0.16903085 21:-1 22:-1 23:-0.70227716 24:-0.9116169 25:-0.51157754 26:-0.60237959 27:-0.86267729 28:0 29:-0.90149828 30:-0.81899896 31:0 32:-0.90296621 33:1 34:0 35:1 36:0 37:-0.92578339 38:-0.38357501 39:0 40:0 41:-0.50352113 42:-0.86968758 43:-1 44:-0.97330169 45:-1 46:-1 47:0 48:-0.99871341 49:-1 50:0 51:-0.85579366 52:0 53:-0.11075004 54:0.15215095 55:0 56:-0.16903085 57:1 58:0 59:0 60:0 61:-0.73550596 62:-0.3388091 63:0 64:-0.16903085 65:0.0048327445 66:-0.96498757 67:-0.79066016 68:0 69:-0.93920329 70:0 71:-0.80507532 72:0 73:0.13725701 74:-0.92750169 75:-1 76:-1 77:-1 78:0 79:0 80:-1 81:-1 82:-0.99980661 83:-0.88218659 84:0 85:1 86:0 87:-0.96359858 88:-0.97505113 89:-0.68457829 90:-0.71475983 91:0.2797354 92:1 93:-0.12119411 94:0 95:-1 96:-0.91312249 97:-0.46752296 98:0 99:-0.0059778594 100:-0.84929546 101:1 102:-0.66935391 103:0 104:0 105:0 106:-1 107:-0.60978097 108:1 109:0 110:-0.26083558 111:-0.8950752 112:-1 113:-1 114:1 115:0 116:-0.90976897 117:-1 118:-0.048045653 119:-0.86600421 120:-1 121:-0.30633518 122:0 123:0 124:-0.85371352 125:-0.048045653 126:-0.80244085 127:0 128:0 129:-0.96602274 130:-0.83895196 131:-0.28273895 132:-0.16903085 133:-0.96124162 
0.066631877534123835 1:1 2:-0.27542194 3:-1 4:-0.41607848 5:0.68291712 6:-0.75316851 7:-0.73696027 8:-0.54902427 9:0.19964783 10:0.25710664 11:1 12:0.54006049 13:-0.29201385 14:-0.14829402 15:0.0016326511 16:1 17:0.1877317 18:-0.44852555 19:-0.18412782 20:-0.29377506 21:0.093111274 22:0.78673011 23:-0.43361202 24:-0.63110898 25:0.71136848 26:-0.53692059 27:-0.65152274 28:-0.16379059 29:0.16492277 30:1 31:0.51455441 32:0.13643499 33:-0.85093761 34:-0.34290388 35:0.44404461 36:-0.78465184 37:0.1506598 38:1 39:-0.16903085 40:-0.19426878 41:1 42:1 43:-0.12872586 44:-0.090005749 45:0.23764516 46:0.29966792 47:-0.27778653 48:0.99816174 49:-0.26667876 50:-0.24253563 51:-0.32484849 52:-0.54042295 53:0.79598264 54:0.30197562 55:-1 56:1 57:-0.59167583 58:-0.22379999 59:-0.33408255 60:0 61:-0.48962197 62:1 63:-0.29377506 64:-0.27645701 65:0.55493539 66:0.0010643374 67:-0.13437581 68:-0.23811518 69:-0.39825908 70:-0.23280612 71:0.07331516 72:-1 73:-0.19158029 74:-0.088882193 75:-0.81886119 76:1 77:0.22148479 78:0.1616899 79:0.30603346 80:1 81:1 82:-0.65002532 83:-0.68295262 84:0.3383665 85:-0.75004201 86:0.4618055 87:-0.67533139 88:-0.19111667 89:0.93910006 90:-0.3372322 91:0.42999714 92:0.76476986 93:0.8644457 94:-0.26419239 95:0.68640647 96:-0.61553869 97:1 98:-0.28736204 99:-0.46781487 100:-0.20292958 101:-0.90523468 102:-0.46457211 103:1 104:-0.21042875 105:-0.28179094 106:0.63503045 107:1 108:-0.73233593 109:-0.3118726 110:-0.43559064 111:-0.69927245 112:0.036557958 113:0.16557296 114:0 115:1 116:0.21553859 117:0.26221564 118:0.62785418 119:-1 120:0.29942272 121:1 122:1 123:-0.26552122 124:-0.15667728 125:0.62785418 126:-0.61470925 127:-0.28187367 128:-1 129:-0.64575072 130:-0.71245017 131:1 132:-0.16903085 133:0.70569256 
0.066355027440317807 1:-0.67758252 2:0 3:0 4:0.88345221 5:-0.85526375 6:1 7:0.96348807 8:-1 9:-0.79148935 10:-0.38832579 11:-1 12:-0.29205062 13:-0.79295691 14:1 15:-0.31190929 16:-0.94567498 17:-0.51768895 18:1 19:-0.47224853 20:-1 21:-0.26233651 22:-0.60321555 23:-0.9651091 24:0 25:-0.91793256 26:0 27:-1 28:-1 29:-0.48280313 30:0.82166741 31:-0.11606221 32:-0.49662429 33:-0.05700422 34:-0.39162893 35:0.11157569 36:0.28115831 37:-0.50446006 38:-0.28198918 39:-0.0359675 40:-0.081514607 41:-1 42:0.77883544 43:-0.18513083 44:1 45:-0.38750712 46:-0.34567927 47:0 48:-1 49:-1 50:0.5498148 51:-0.34937561 52:0.16201645 53:0.050789695 54:0 55:0.99980055 56:-0.60461468 57:-0.38210077 58:-0.25128437 59:0.27600479 60:0.66994051 61:0 62:0 63:-0.71428571 64:-0.4508071 65:-0.32511721 66:0.0043192061 67:-0.86370385 68:-0.85938466 69:-0.83630808 70:-0.19966365 71:0.18903252 72:0.31811326 73:0.074051324 74:0.20160104 75:-1 76:0.20919517 77:-0.39810621 78:0.38143238 79:-0.57675362 80:-1 81:-1 82:-0.033777136 83:-0.56736762 84:-0.56983889 85:0.43971948 86:0.22259961 87:0.6077014 88:-0.68460231 89:-0.47788809 90:-0.54710915 91:1 92:-0.37494485 93:-0.71578018 94:0 95:0.60368161 96:0.93418773 97:-1 98:-0.63490943 99:-0.75943203 100:-0.076427236 101:0.01220531 102:-0.32437511 103:-0.1716212 104:-0.48795084 105:-0.80161434 106:-0.2764213 107:-1 108:-0.3928662 109:0.10878566 110:-0.56227487 111:-0.19951811 112:-0.22605827 113:-0.2647638 114:1 115:-0.85358709 116:-0.84038488 117:-0.39123356 118:-0.73069195 119:0.21621488 120:-0.34554456 121:0.10329085 122:-1 123:-0.82208543 124:-0.639876 125:-0.73069195 126:-0.67014761 127:-0 128:0.70024316 129:0 130:-0.62948157 131:1 132:0 133:0.52930995 
0.066830657187561163 1:1 2:-0.39278905 3:-0.46986399 4:-0.16903085 5:-0.021079457 6:-0.28240386 7:-0.43457925 8:1 9:-0.15647513 10:0.27015388 11:0.51124445 12:-0.36386085 13:-0.22016539 14:-0.27635707 15:-0.17831523 16:0.30626371 17:0.58774223 18:-0.791218 19:1 20:-0.30151123 21:0.24543685 22:0.47329035 23:0.73336756 24:0.32345538 25:-0.89255911 26:-0.24067563 27:1 28:-1 29:0.51601294 30:1 31:-0.21637149 32:-0.12438377 33:-0.31006188 34:-1 35:0.01467709 36:-0.25300068 37:-0.1244999 38:-0.45234759 39:-0.16903085 40:-1 41:-0.70779334 42:0.56699637 43:0.10351108 44:0.85029504 45:0.25940371 46:0.39465566 47:0 48:-0.090362551 49:0.12643493 50:-0.30151123 51:-0.047236634 52:0 53:-0.39858575 54:0.33564923 55:-0.63088698 56:0 57:-0.78490649 58:-0.37888895 59:-1 60:-0.34109407 61:-0.086673983 62:-0.68470005 63:-0.16903085 64:-0.30151123 65:0.58964909 66:0.81661054 67:-0.21233875 68:-0.35355327 69:-0.4858271 70:-0.60498405 71:-0.42043965 72:-0.61015011 73:1 74:0.43935711 75:-0.10259784 76:1 77:0.24333775 78:-0.63345342 79:-0.21981993 80:1 81:-0.8033858 82:0.095478335 83:1 84:-1 85:-0.44715249 86:-0.77139627 87:-0.30279097 88:1 89:-0.099952933 90:-0.57635675 91:0.44068621 92:-1 93:-0.29347407 94:-0.20917612 95:-0.78676521 96:0.19601876 97:-0.64838425 98:-0.61773316 99:0.27148436 100:-0.22996887 101:-0.33297239 102:0.98266216 103:-0.061461972 104:-0.60897751 105:-0.16903085 106:-1 107:-0.36759365 108:-0.79900372 109:-0.30151123 110:-0.10917695 111:0.15241555 112:0.39889437 113:0.094652779 114:-0.30617297 115:-0.24217214 116:1 117:0.27265121 118:-0.40790936 119:0.58109613 120:0.39401797 121:-0.66387116 122:0.34950385 123:-0.35355327 124:0.034834764 125:-0.40790936 126:-0.51123839 127:-0.28972919 128:0.34026925 129:1 130:0.16537479 131:-0.35052017 132:-0.35355327 133:-0.17814313 
0.066668758928805888 1:0.30628779 2:-0.75630415 3:0.34638841 4:1 5:0.74983756 6:0.51064574 7:-0.35276868 8:-0.1039686 9:-0.1460524 10:0.30494677 11:0.50884349 12:0.60594891 13:0.39537202 14:-0.67306253 15:0.10392044 16:-0.79279858 17:-0.049107403 18:0.089180559 19:0.77040759 20:-0.24253562 21:0.37430684 22:0.080293027 23:-0.49405791 24:0.32870626 25:0.45123282 26:-0.16552169 27:0.81269714 28:-1 29:0.48226445 30:0.77360364 31:-0.86545906 32:0.0090236038 33:-0.26301857 34:-0.85887096 35:-0.40668628 36:-1 37:0.0053562061 38:-0.46655985 39:-0.16903085 40:-0.37855955 41:-0.90416372 42:-0.81797774 43:0.033214395 44:-1 45:0.30182081 46:0.41703975 47:-0.16903085 48:-0.097256818 49:-0.15272071 50:-0.16903085 51:0.91982404 52:-0.24253562 53:0.45624787 54:-0.20238663 55:0.60421671 56:-0.16903085 57:-0.24387035 58:0.14042976 59:-0.48120324 60:-0.090814818 61:-0.074060896 62:-0.45713497 63:1 64:1 65:-0.17074477 66:-0.27660233 67:-0.62301179 68:1 69:-0.14159824 70:-0.12641535 71:-0.91917532 72:-0.40483511 73:-0.0070437273 74:-0.51513686 75:0.24618298 76:0.31803677 77:0.30332776 78:0.19774973 79:1 80:-0.16249073 81:0.54897018 82:-0.27223314 83:0.32334207 84:-0.78552478 85:-0.26586081 86:-0.82358476 87:-1 88:0.77237976 89:0.96768979 90:-0.30822722 91:0.34575213 92:0.58250954 93:0.99293504 94:-0.53046676 95:-0.5585982 96:0.6206283 97:0.67042436 98:-0.58782469 99:-0.30794862 100:-0.86876275 101:-0.18906082 102:0.13763094 103:0.33228421 104:-0.49033318 105:0 106:-0.26095507 107:0.83226182 108:-0.30694471 109:1 110:0.2240317 111:-0.53720471 112:0.43508191 113:-0.34779803 114:0.95784149 115:1 116:0.63023723 117:0.30697857 118:1 119:1 120:0.41588543 121:0.4378274 122:-0.2015321 123:1 124:-0.33296839 125:1 126:-0.30522819 127:0.1651529 128:0.50262261 129:0.50040019 130:-0.64948533 131:1 132:1 133:-1 
0.071323897416953594 1:-0.33056735 2:-0.17246762 3:0.052317586 4:1 5:0.29918401 6:0.13106259 7:0.55700576 8:0.80608732 9:-1 10:-1 11:-0.22698318 12:1 13:-0.19259572 14:0.60592779 15:-1 16:1 17:-0.14269011 18:1 19:0.54095481 20:0.50860565 21:-1 22:0.032852748 23:0.098139416 24:0.060691405 25:0.30391193 26:-0.19447776 27:0.29924918 28:0.14438531 29:-1 30:0.19917014 31:-0.078069385 32:-1 33:-0.70293271 34:-0.18735834 35:0.46119592 36:0.34006991 37:-1 38:-0.61934553 39:0.70945765 40:0.57849599 41:-0.99106865 42:0.18096914 43:-1 44:0.67568154 45:-1 46:-1 47:0.04237136 48:-0.11114502 49:-1 50:1 51:-0.35980418 52:0.70442771 53:1 54:0.12106177 55:-0.17949462 56:0.046274481 57:-0.93294629 58:-0.19889499 59:-0.17177071 60:0.04688976 61:-0.076977209 62:0.58691915 63:0.63436526 64:0.95322776 65:0.60691884 66:0.43850903 67:-0.62030523 68:0.25611661 69:0.32396557 70:-0.17954396 71:0.15064475 72:0.82818193 73:0.067163943 74:-0.42984836 75:-1 76:1 77:-1 78:0.052958474 79:0.4484035 80:-1 81:0.72054045 82:0.070327132 83:0.41740189 84:-0.063195016 85:-0.236587 86:0.49561091 87:0.60610004 88:0.55277593 89:0.691331 90:-0.75369414 91:0.43014822 92:1 93:1 94:-0.57030043 95:-1 96:1 97:0.91219681 98:0.81657632 99:0.50459146 100:0.071237297 101:-0.69057275 102:1 103:-0.35273562 104:0.30721489 105:0.71524601 106:1 107:0.99362581 108:-0.8534415 109:0.47698025 110:-0.62365845 111:-0.63219844 112:-1 113:-0.9802064 114:1 115:-0.84243166 116:0.9202748 117:-1 118:1 119:-0.97842987 120:-1 121:0.76931724 122:-0.0135982 123:0.96215674 124:-0.22759515 125:1 126:-0.74269367 127:0 128:1 129:0.84732229 130:0.32520817 131:0.25983484 132:0.3583576 133:0.73655129 
0.06644630807097722 1:0.32597777 2:-0.18883234 3:1 4:1 5:-0.72071756 6:-0.49531117 7:0.2268646 8:-0.7508878 9:-0.54399045 10:0.34419922 11:-0.91360049 12:-1 13:-0.4449655 14:-0.43725962 15:-0.55119305 16:-0.63607412 17:-1 18:-0.58785915 19:1 20:0.079989118 21:-0.54816506 22:-0.50799958 23:1 24:0.063315021 25:-0.50138804 26:-0.62360812 27:-0.046173523 28:0.13642051 29:-0.45476979 30:1 31:-0.54391488 32:0.27032101 33:0.31780274 34:-0.15532366 35:-0.89721103 36:0.52447565 37:0.25011055 38:-1 39:0.19433312 40:0.76764792 41:1 42:1 43:0.00045929256 44:1 45:0.33788173 46:0.38782771 47:0.66779024 48:-1 49:1 50:1 51:-0.28103175 52:-0.47911091 53:0.078779537 54:-0.14252846 55:0.097810018 56:-0.86243544 57:-0.95532886 58:-0.16051152 59:0.077318821 60:0.13343502 61:-0.50448848 62:-0.44859826 63:0.35027116 64:0.5488213 65:-0.40049963 66:-0.20910087 67:-0.80860837 68:-0.97982725 69:-0.26366073 70:-1 71:-0.38015551 72:1 73:0.044092532 74:0.077386268 75:1 76:0.63165595 77:0.34020434 78:0.31951259 79:-0.38770879 80:-0.46762827 81:-1 82:0.49552036 83:-0.75946865 84:-0.40438124 85:0.72666374 86:1 87:0.037896913 88:1 89:-0.049152132 90:-0.014766284 91:-0.016589213 92:-1 93:-0.6733764 94:-0.25032185 95:-0.54498835 96:-0.53245605 97:-0.88140185 98:-0.22384826 99:0.40767177 100:0.3944498 101:-0.41997132 102:0.75139544 103:-0.81078231 104:0.77147769 105:0.30548095 106:-1 107:-1 108:-0.15738427 109:-0.60816364 110:-0.39982975 111:1 112:0.39694672 113:-0.76231709 114:0.65062974 115:-0.12406227 116:0.84002344 117:0.33979606 118:-0.71630102 119:-0.42171024 120:0.38686918 121:1 122:0.77451482 123:0.40160966 124:-0.5148786 125:-0.71630102 126:-0.26074931 127:-0.13590979 128:-0.54813118 129:0.13564253 130:0.54690631 131:0.49412163 132:0.98964917 133:-0.18204234 
0.066323004723357198 1:-0.20132052 2:1 3:-0.13692069 4:0.270232 5:1 6:0.51765349 7:-0.54514977 8:0.56784056 9:0.42592219 10:1 11:1 12:1 13:0.15336192 14:-0.63926337 15:0.78061806 16:0.18281366 17:-0.44445985 18:0.87488752 19:1 20:0.63245553 21:0.86193477 22:-1 23:-0.25587937 24:-0.84613433 25:0.50397274 26:-0.33509638 27:-0.32964001 28:1 29:0.83428206 30:-0.33259887 31:-0.016884181 32:1 33:0.95188725 34:0.88863988 35:-0.96855871 36:0.12830246 37:1 38:-1 39:0.68945733 40:0.71979919 41:1 42:1 43:1 44:-0.71068117 45:0.9895328 46:0.94094923 47:1 48:-0.14367294 49:-1 50:-0.086737087 51:-0.25101946 52:0.16903085 53:1 54:0.14999441 55:-1 56:1 57:0.71175527 58:-0.53623459 59:-0.05108699 60:0.45063461 61:-0.45954692 62:-1 63:-0.095372804 64:-0.065512178 65:0.34546604 66:-0.19033981 67:-0.57065839 68:1 69:1 70:-0.80337732 71:-0.56065314 72:-0.077887742 73:0.15951499 74:-1 75:-0.8072921 76:-0.71093477 77:0.96451468 78:0.21674507 79:0.39964396 80:0.26583839 81:-0.17667651 82:-0.79905398 83:0.97409091 84:0.58525516 85:1 86:-1 87:-0.69844751 88:0.90226008 89:1 90:0.950012 91:0.1123939 92:1 93:1 94:1 95:1 96:-1 97:0.77481328 98:0.15193091 99:0.1758488 100:0.69114209 101:0.16874697 102:-0.63134418 103:0.42400698 104:-0.21991117 105:1 106:-0.27178961 107:1 108:1 109:0.18530454 110:0.88117134 111:-0.37696934 112:1 113:0.57233006 114:-0.90334032 115:-0.51384805 116:0.22209925 117:1 118:1 119:0.0078589533 120:0.94289939 121:1 122:-0.75774303 123:-0.63074224 124:-0.58812073 125:1 126:1 127:-0.10642918 128:-1 129:-0.51213086 130:-0.49478926 131:-0.94491216 132:1 133:-0.18350984 
0.049450009537109568 1:0 2:0 3:0 4:0 5:0 6:0 7:0 8:0 9:0.73242537 10:0.1689468 11:-0.077073948 12:-0.26056569 13:0 14:0 15:0.17978525 16:0 17:0 18:0.0421964 19:0 20:0 21:0.38482438 22:1 23:0 24:0 25:0.016104178 26:0 27:0 28:0 29:0 30:0 31:0 32:0.18339653 33:0.44916774 34:0 35:-0.56943772 36:0 37:0.25668546 38:0 39:0 40:0 41:0 42:0 43:0.21657319 44:0 45:0.18298238 46:0.19524188 47:0 48:0 49:0.61911626 50:0 51:0 52:0 53:-0.6239783 54:0 55:0 56:0 57:0.13631741 58:0 59:0 60:0 61:0 62:0 63:0 64:0 65:0 66:0 67:0 68:0 69:0 70:0 71:0 72:0 73:0 74:0 75:0.46033567 76:0.34567141 77:0.22674024 78:0 79:0 80:0.33336819 81:-0.30331513 82:0 83:0 84:0 85:-1 86:0 87:0 88:0 89:-0.76297439 90:0.62844694 91:0 92:-0.35116177 93:-1 94:0 95:0.42781424 96:0 97:0.048051171 98:0 99:0 100:0 101:-0.070382715 102:0 103:0 104:0 105:0 106:-1 107:-0.61997082 108:0.82518706 109:0 110:0.17937527 111:0 112:0.62887233 113:0.41995017 114:0.21660427 115:0 116:0 117:0.20550592 118:-0.52190907 119:0 120:0.23985561 121:-1 122:0 123:0 124:0 125:-0.52190907 126:0.39501094 127:0 128:0 129:0 130:0 131:0 132:0 133:0 
0.066190946968903541 1:-1 2:-0.25799084 3:0.37323094 4:-1 5:0.99139667 6:0.70036597 7:-0.27534003 8:-1 9:-0.75616213 10:0.20126226 11:0.69686609 12:-0.60695629 13:0.74122403 14:-0.74697501 15:-0.1531862 16:1 17:-0.26472051 18:0.38234186 19:-0.76205127 20:-1 21:-0.0028591885 22:-0.79612828 23:-1 24:-1 25:-0.18861592 26:-0.32248981 27:-0.88073742 28:0.90550976 29:0.1075642 30:-1 31:0.33430999 32:0.35256386 33:1 34:0.094956832 35:-0.20129805 36:-1 37:0.34241048 38:1 39:-1 40:-0.093331045 41:1 42:1 43:-0.36589315 44:-1 45:0.20260324 46:0.12703568 47:-1 48:-0.63165253 49:-0.62549884 50:-1 51:0.1404156 52:-1 53:-0.53714996 54:-0.35036355 55:0.36546833 56:-1 57:0.049273053 58:-0.26345242 59:-0.37604759 60:0.12047381 61:-0.67936106 62:1 63:-1 64:-1 65:-0.6848119 66:0.31212525 67:-0.64456946 68:-1 69:1 70:-0.41202261 71:-0.19133323 72:0.43104203 73:-0.91007765 74:-0.7784294 75:-0.98813621 76:-0.35939248 77:0.20852909 78:0.44775639 79:-0.53690489 80:0.9983056 81:-0.33967998 82:0.25146477 83:1 84:-1 85:0.79293564 86:-0.53847699 87:-1 88:-0.75428468 89:-0.49709351 90:-0.38275173 91:1 92:-0.086429401 93:-0.0052242339 94:-0.059789822 95:1 96:-1 97:0.52678999 98:0.09559016 99:-0.93870503 100:-0.17429819 101:1 102:-0.66867219 103:0.63635272 104:-0.14639001 105:-1 106:-0.62952523 107:0.19566261 108:0.056038638 109:-1 110:-0.6250299 111:-1 112:0.12256576 113:-0.52618057 114:-0.94397264 115:-0.24600647 116:-1 117:0.20198626 118:-0.12714292 119:0.37862163 120:0.12753564 121:1 122:-0.53853298 123:-1 124:0.28697927 125:-0.12714292 126:-0.013687695 127:-0 128:-0.64106514 129:-0.49404922 130:1 131:-1 132:-1 133:-0.80332939 
0.066333526450474134 1:-0.7817124 2:-0.82797041 3:0.35887782 4:-0.67977486 5:1 6:1 7:0.72196162 8:0.71450131 9:-0.76881887 10:-1 11:-0.58740566 12:-1 13:0.53155084 14:-0.98205623 15:-1 16:0.15311279 17:-0.5136178 18:1 19:-0.69349954 20:-0.46725672 21:-1 22:0.0032397253 23:-1 24:1 25:-0.69014776 26:0.099321838 27:0.27659768 28:-0.57470503 29:-0.035240033 30:-0.45532348 31:-0.39940393 32:-1 33:-0.86208462 34:-0.38138861 35:-1 36:-0.28374232 37:-1 38:0.26194722 39:-1 40:-0.066586626 41:0.74019985 42:0.07176371 43:-1 44:0.65868964 45:-1 46:-1 47:-1 48:0.3961581 49:-1 50:-1 51:0.30927742 52:-0.74230749 53:-0.67726316 54:-0.51205876 55:0.96509135 56:-0.23659061 57:-1 58:-0.24617602 59:-0.13944054 60:0.91926934 61:-0.049509517 62:0.55952571 63:-0.22628764 64:-1 65:-1 66:0.97959636 67:-0.83517227 68:0.12002356 69:0.13492477 70:0.47157273 71:-0.92643433 72:-0.031120966 73:-0.25750803 74:-0.53715535 75:-1 76:1 77:-1 78:0.14040659 79:0.50737658 80:-1 81:-0.60466151 82:0.19289164 83:-0.5482275 84:-0.024964454 85:0.0093678152 86:0.17949437 87:1 88:-0.76693204 89:-0.53408643 90:-0.75536214 91:0.341018 92:-0.39438874 93:-1 94:-0.54353997 95:-0.86284031 96:-1 97:-0.83036509 98:0.11589866 99:-0.29247373 100:0.577999 101:-0.86972551 102:-0.88997957 103:1 104:0.75698768 105:1 106:-0.18617571 107:-0.67130694 108:-1 109:0.59051094 110:-0.60745907 111:1 112:-1 113:-1 114:1 115:0.250291 116:-1 117:-1 118:-0.94815426 119:-0.3878509 120:-1 121:1 122:-1 123:-0.73029674 124:-0.29209646 125:-0.94815426 126:-0.69668914 127:-0.20606736 128:-0.38297396 129:-0.28885906 130:0.67424508 131:-0.5113479 132:-0.76335538 133:0.41207221 
0.066207060340392865 1:-0.7817124 2:-0.56479606 3:-1 4:0.84971858 5:-0.34160143 6:-0.77735752 7:0.32192494 8:0.69446856 9:0.28339497 10:0.35620802 11:-0.88236496 12:-0.03495567 13:-0.77883512 14:-0.99732213 15:0.75535245 16:-0.18820481 17:0.15655477 18:-1 19:0.095938671 20:1 21:0.55296883 22:0.90960916 23:-1 24:-0.87325959 25:-0.36563985 26:-0.17050129 27:0.43953886 28:-1 29:-0.78489164 30:-0.57511626 31:-0.27701189 32:0.36986605 33:-0.5345834 34:-0.5723843 35:-0.7526297 36:-0.60081309 37:0.37509535 38:1 39:-0.38949042 40:-1 41:0.46334078 42:-1 43:0.42739785 44:0.28341167 45:0.36613125 46:0.37236343 47:-1 48:0.50168301 49:0.38592249 50:1 51:-0.68932362 52:-1 53:-0.65588822 54:0.78633053 55:-1 56:-0.23659061 57:-0.54657466 58:0.28775332 59:-1 60:-0.30395214 61:-0.43211073 62:0.83363039 63:1 64:0.0359675 65:0.56338448 66:-0.15057297 67:-1 68:0.12002356 69:-0.2417434 70:0.88622883 71:-1 72:0.21583357 73:-0.1579704 74:1 75:0.78782245 76:1 77:0.36587302 78:0.94353313 79:-1 80:1 81:-0.26667816 82:0.2698458 83:1 84:-0.093176363 85:-0.91457161 86:0.43694296 87:-1 88:0.1111103 89:-0.23025195 90:0.091133018 91:-0.24198332 92:0.33982618 93:-0.011719239 94:-0.81428748 95:0.73009564 96:-0.071805947 97:0.20556082 98:0.025240459 99:0.14791945 100:1 101:-0.54600259 102:-1 103:-0.0046783357 104:1 105:0.35768329 106:0.4167246 107:0.52879474 108:-0.53832245 109:1 110:-0.17705995 111:0.59964731 112:0.41721709 113:0.41237067 114:-0.10391889 115:0.20242673 116:1 117:0.35097874 118:-0.10604073 119:0.016863083 120:0.37223948 121:-0.90149935 122:0.21873342 123:-1 124:-0.96069692 125:-0.10604073 126:0.31861737 127:-0.05221368 128:-0.275377 129:0.68949148 130:0.36490579 131:0.55581294 132:-1 133:-1 
0.064920569130872866 1:-0.73777836 2:-0.83107373 3:0.14622401 4:-0.16903085 5:0.34487912 6:0.072886708 7:-0.43457925 8:1 9:-0.43421364 10:-0.60778218 11:-1 12:-1 13:-0.57393289 14:-0.68906248 15:-0.42123469 16:-0.55280747 17:-0.23520311 18:0.94413377 19:-0.50270582 20:-0.30151123 21:-0.55785626 22:-0.5263387 23:-0.99793837 24:-1 25:-1 26:-0.6997842 27:0.45178096 28:-0.21726806 29:-1 30:-0.3038355 31:-0.1813841 32:-0.27118622 33:-0.5096867 34:-0.33088293 35:0.16237335 36:-0.044332298 37:-0.27132316 38:1 39:-0.16903085 40:-1 41:0.015199552 42:0.56089768 43:-0.51535516 44:0.88091621 45:-0.59542998 46:-0.78900814 47:0 48:0.6523798 49:-0.88504448 50:-0.30151123 51:-0.68673531 52:0 53:-0.99849478 54:0.18825657 55:0.2500582 56:0 57:-0.83861719 58:-0.52023478 59:-1 60:0.11686611 61:-0.7790308 62:1 63:-0.16903085 64:-0.30151123 65:0.30855675 66:-1 67:-0.46752402 68:-0.35355327 69:-1 70:-0.59594264 71:-0.62244393 72:0.67237882 73:-1 74:0.26524089 75:-0.71818485 76:0.79455669 77:-0.57549519 78:0.54160144 79:0.3915635 80:-0.43859173 81:0.29091865 82:-0.42763011 83:1 84:0.11317613 85:0.2926655 86:1 87:0.68931784 88:-0.96182492 89:-1 90:-0.84979698 91:0.053711248 92:-0.41045837 93:-1 94:-1 95:0.022479006 96:-0.98544712 97:-1 98:-0.15250738 99:0.39717938 100:-0.62893964 101:-0.60944173 102:-1 103:-0.22920851 104:-0.73847863 105:-0.16903085 106:-1 107:-1 108:-0.86957027 109:-0.30151123 110:-0.77012069 111:0.42401679 112:-0.771088 113:-0.45090821 114:-0.30617297 115:-0.24217214 116:-0.76892855 117:-0.6090131 118:-1 119:-0.5038501 120:-0.78757731 121:0.99505752 122:0.015720123 123:-0.35355327 124:-0.55882894 125:-1 126:-0.83873857 127:0.131336 128:-0.21018659 129:-0.9345774 130:0.8988085 131:-0.35052017 132:-0.35355327 133:0.72254535 
0.064909236775253148 1:-0.78895436 2:-0.44465944 3:0.29705156 4:-0.55595945 5:0.075167794 6:1 7:-0.37888837 8:0.64165831 9:1 10:1 11:0.53750706 12:0.61178129 13:-0.30625725 14:-0.15870897 15:1 16:1 17:-0.79297387 18:0.014704814 19:-0.24465945 20:-0.037293707 21:1 22:0.63559571 23:-0.19920807 24:-0.32281985 25:0.092846172 26:-0.21862396 27:0.23619057 28:0.20000791 29:-0.88673493 30:-0.15408621 31:1 32:1 33:0.94288463 34:0.10938397 35:0.55954537 36:1 37:1 38:0.4823008 39:0.38416102 40:-0.66391126 41:0.49198227 42:0.087648468 43:1 44:0.41016656 45:1 46:1 47:-0.66332496 48:0.06299603 49:-0.94280904 50:-0.74739957 51:-0.15401567 52:-1 53:1 54:-0.98286127 55:0.38585953 56:0.42211588 57:1 58:-0.45464176 59:-0.63993606 60:0.55671209 61:1 62:0.87123231 63:-0.40406102 64:7.5433269e-16 65:-0.3744133 66:0.29657823 67:0.5923437 68:0.041702883 69:0.3735887 70:-0.53406141 71:-0.35332323 72:1 73:-1 74:-1 75:-0.94064699 76:-0.96319011 77:1 78:0.2804661 79:0.27687752 80:0.74000499 81:0.032910433 82:-0.1933025 83:0.44222718 84:0.61288131 85:-0.6335692 86:0.75534171 87:0.24568879 88:-0.25452216 89:1 90:1 91:-1 92:0.40593939 93:0.8937465 94:-1 95:-0.30151134 96:-0.49442928 97:0.48871867 98:0.21771422 99:-0.3854459 100:0.24352039 101:0.94469825 102:-0.75124518 103:0.0069830108 104:0.47881516 105:-0.13073269 106:0.38074062 107:0.49329 108:1 109:-1 110:0.56532775 111:-0.31019848 112:1 113:1 114:-0.074149381 115:-0.94971567 116:-0.99434059 117:1 118:0.87413373 119:-0.86329713 120:1 121:0.3750815 122:-0.95696237 123:-0.86695801 124:0.05348784 125:0.87413373 126:1 127:1 128:-1 129:0.94710726 130:0.44354616 131:0.055957714 132:-0.99209474 133:0.064762466 
0.064787556374079069 1:0.47193574 2:-0.19523253 3:-0.84431257 4:1 5:1 6:-1 7:0.5258944 8:0.60858592 9:0.72379504 10:1 11:1 12:0.97551545 13:0.10662922 14:-0.78817741 15:1 16:0.18366169 17:0.35342844 18:-0.60107143 19:0.95256408 20:1 21:1 22:0.32686218 23:0.44108672 24:0.32919419 25:1 26:-0.62001705 27:-0.34403805 28:-0.08608364 29:0.46252605 30:-0.083824961 31:-0.24108334 32:1 33:0.78231583 34:-0.24594703 35:0.6228226 36:0.068119984 37:1 38:0.13737152 39:0.070186241 40:0.10502656 41:0.90768104 42:-0.17745712 43:0.79978793 44:0.68791819 45:1 46:1 47:0.5293385 48:-0.13835836 49:0.017871396 50:1 51:-0.40746509 52:0.64210017 53:1 54:0.66037312 55:0.20985184 56:0.7433581 57:1 58:-0.22994562 59:-0.32172482 60:-0.14936508 61:-0.73460495 62:0.056019267 63:1 64:0.29961996 65:0.21340097 66:-0.17200509 67:-0.93015386 68:0.55139641 69:0.28614042 70:-0.21982914 71:-0.86056919 72:-0.46012652 73:0.051109077 74:0.57981711 75:0.46381904 76:-1 77:1 78:-0.45388702 79:-0.25501223 80:1 81:-0.22296679 82:0.089787844 83:0.99081112 84:-0.19550206 85:-0.3282693 86:-0.32282238 87:0.65165027 88:0.93663922 89:0.43174 90:0.72242377 91:-0.33048518 92:0.62700108 93:1 94:0.425287 95:1 96:0.5090509 97:0.63718198 98:-0.33376051 99:0.33683412 100:0.20685055 101:0.82397356 102:0.34373067 103:-0.46390942 104:0.087606286 105:0.65925036 106:1 107:1 108:1 109:0.31508588 110:0.477147 111:0.56977257 112:1 113:0.81246987 114:-0.15366996 115:0.2662281 116:0.97233431 117:1 118:0.60153901 119:0.96524553 120:1 121:0.6372923 122:1 123:0.70061183 124:-1 125:0.60153901 126:0.83823452 127:-0 128:-0.42179019 129:0.35823104 130:-0.054411812 131:0.4844174 132:1 133:0.15760604 
0.066353627558972408 1:0.1579861 2:-0.081251608 3:0.20305733 4:0.81857643 5:1 6:-0.2806212 7:-1 8:0.38427829 9:1 10:1 11:0.34586923 12:-0.88927195 13:-0.011400449 14:-0.56280261 15:1 16:0.78872946 17:-1 18:-0.78758726 19:0.54095481 20:0.90664485 21:1 22:1 23:0.73814643 24:0.32287827 25:-0.91442611 26:0.60956538 27:0.67273429 28:0.61073153 29:-0.84480142 30:-0.12315658 31:-0.17302912 32:1 33:0.94955461 34:-0.16645395 35:0.44971578 36:0.095877214 37:1 38:1 39:1 40:-0.71567412 41:1 42:1 43:1 44:0.82912016 45:1 46:1 47:1 48:0.50206887 49:0.57274455 50:0.56067042 51:0.19206761 52:1 53:0.020365115 54:-1 55:0.019328431 56:0.46274481 57:1 58:-0.19565552 59:-0.21358159 60:0.2090017 61:-0.048841587 62:-0.68082621 63:0.98570601 64:0.59945251 65:0.0052527218 66:0.42580715 67:-0.046435437 68:0.25611661 69:-0.24905718 70:-0.21951361 71:0.079470824 72:0.33244075 73:-0.50054292 74:0.23243035 75:0.93490342 76:-0.57780072 77:1 78:0.1809716 79:-0.36283803 80:0.5150838 81:-1 82:-0.47656781 83:0.75891253 84:1 85:-1 86:0.5429139 87:0.61258882 88:0.45377129 89:0.12624037 90:1 91:0.27353217 92:0.21893824 93:1 94:1 95:-1 96:0.81556872 97:1 98:0.89971543 99:-0.94630662 100:0.91737593 101:1 102:-0.053092851 103:1 104:-0.74412704 105:1 106:-0.42115752 107:1 108:1 109:0.78361041 110:1 111:0.8943295 112:1 113:1 114:-1 115:-0.040700891 116:0.80624911 117:1 118:0.31398617 119:-1 120:1 121:0.19134693 122:0.23125317 123:0.96215674 124:-0.47101042 125:0.31398617 126:1 127:0 128:-1 129:0.86688703 130:1 131:-0.63337184 132:1 133:0.8569051 
0.066283877605562549 1:-0.15571424 2:-0.1732004 3:0.60909439 4:-0.48612214 5:0.71067526 6:-1 7:0.3757947 8:-0.49315277 9:0.85242053 10:0.45440273 11:1 12:0.49502273 13:0.14872056 14:1 15:0.35142779 16:-0.40893417 17:0.30693252 18:-0.97496752 19:0.10113476 20:-0.43524169 21:0.23787687 22:1 23:-0.48082936 24:-1 25:1 26:0.24025419 27:-1 28:-1 29:-1 30:0.97512639 31:-0.20700186 32:0.086993273 33:0.32158338 34:0.037937095 35:-0.60295487 36:-0.2155607 37:0.050926948 38:1 39:0.00010935217 40:-0.44807414 41:0.14528628 42:0.47885593 43:0.4664881 44:-0.22630694 45:0.46483629 46:0.62287814 47:-0.34747649 48:0.52950432 49:-0.049206783 50:-0.4069258 51:-0.48047653 52:-0.15961786 53:-0.051208227 54:-0.39774931 55:1 56:-0.51460152 57:-0.1407253 58:-0.16670186 59:-0.29086914 60:-0.29896889 61:-0.1803904 62:1 63:-0.84563973 64:-0.051159614 65:-0.49699209 66:0.88981826 67:0.3537523 68:-0.79556033 69:-0.16029183 70:-0.17135043 71:1 72:1 73:-0.37714086 74:0.78938563 75:0.41208169 76:0.39862811 77:0.49017958 78:-0.1792603 79:-0.23184836 80:1 81:-0.84232091 82:0.593456 83:1 84:-0.81003847 85:-1 86:1 87:1 88:0.027073145 89:0.66704641 90:0.12906164 91:0.018497698 92:0.066257838 93:-0.2622788 94:-0.28394672 95:-0.93441372 96:0.062370596 97:-0.24924715 98:-0.20344943 99:-1 100:0.71415303 101:0.29369155 102:-0.099494575 103:0.31974444 104:-0.034025989 105:-0.16195548 106:-1 107:-0.54818532 108:-0.12126915 109:-0.15661971 110:0.3737612 111:1 112:0.39405464 113:0.62211684 114:-0.46690246 115:0.41905313 116:0.22591824 117:0.45323507 118:0.4104247 119:-1 120:0.62390225 121:0.066707081 122:0.73671756 123:-0.49749309 124:0.35666035 125:0.4104247 126:0.42410354 127:-0.16559864 128:-0.16694373 129:1 130:1 131:0.55451912 132:-0.45282683 133:1 
0.067623408307474819 1:0.2338119 2:-0.29689603 3:-0.53736046 4:1 5:-0.25046281 6:0.31613405 7:0.700157 8:0.45780093 9:-0.17147568 10:0.16680464 11:0.46116684 12:0.56669069 13:-0.65946749 14:-0.11489857 15:0.027711365 16:1 17:1 18:-0.21919242 19:1 20:1 21:0.33161857 22:0.28654476 23:1 24:0.68424295 25:0.73945231 26:-0.55301825 27:0.53656338 28:-0.042425671 29:-0.61554737 30:0.32359756 31:-0.18869966 32:0.2826167 33:-0.55408723 34:-0.29224736 35:0.65752357 36:-0.0029322443 37:0.2788258 38:0.2885554 39:1 40:-0.0092463862 41:0.61212397 42:0.71260715 43:-0.16110563 44:0.10942214 45:0.16710442 46:0.10672825 47:1 48:0.37435622 49:0.074743509 50:1 51:-0.42397706 52:1 53:0.91966523 54:0.73890679 55:-1 56:1 57:-0.14638061 58:-0.19736814 59:-0.15815494 60:-0 61:-0.30696047 62:0.33290535 63:1 64:1 65:0.63139003 66:0.26846343 67:-0.44904744 68:1 69:0.11305502 70:-0.18983824 71:-0.3984593 72:0.32418645 73:0.41935567 74:0.82962689 75:-0.46359473 76:0.25951105 77:0.1472871 78:-0.67766581 79:-0.11753545 80:0.87954022 81:0.45956339 82:-0.28120279 83:0.24140842 84:0.12588464 85:-0.47508926 86:0.45010901 87:0.38695876 88:1 89:0.81016912 90:-0.31713452 91:-0.13692649 92:0.80210119 93:0.83283399 94:0.023408405 95:1 96:1 97:0.79189489 98:-0.20498918 99:0.5208942 100:0.13169974 101:-0.35174073 102:1 103:-0.609074 104:-0.11739022 105:0.78509379 106:0.87964388 107:0.85040366 108:-0.39111496 109:0.83786418 110:-0.30952992 111:0.1408334 112:0.20753089 113:-0.18836616 114:0.68836315 115:0.091728511 116:1 117:0.16678773 118:1 119:-0.96402814 120:0.10757044 121:0.18083547 122:-0.065708531 123:1 124:-0.46562817 125:1 126:-0.2959108 127:0.1691555 128:-0.31010568 129:0.55017514 130:0.64493408 131:0.99964487 132:0.98517365 133:0.5306169 
0.066253302189025434 1:-0.80963501 2:1 3:0.11509744 4:-0.16903085 5:0.77254648 6:0.50730774 7:-0.51957714 8:-0.7144994 9:-0.47054215 10:0.42589188 11:0.5816703 12:0.069596403 13:0.88608691 14:0.99500047 15:-0.1578843 16:0.60719172 17:-1 18:-0.064824759 19:0.027455164 20:1 21:-0.47921662 22:-0.040592373 23:1 24:-1 25:0.15131193 26:1 27:-1 28:0.99649643 29:-1 30:1 31:0.057284153 32:0.67323562 33:0.028307012 34:0.54186616 35:-0.88856404 36:0.43974241 37:0.69889557 38:-0.53799394 39:1 40:1 41:1 42:-0.77199012 43:0.91282725 44:0.68617222 45:0.42730074 46:0.27644457 47:1 48:0.24124489 49:0.50709255 50:1 51:0.55673928 52:0 53:0.6184159 54:-0.27242963 55:0.3302233 56:-0.16903085 57:-0.44616546 58:0.25474312 59:1 60:0.31248213 61:1 62:-0.61892126 63:-0.16903085 64:0 65:-0.22960569 66:-0.14006954 67:1 68:-0.16903085 69:1 70:-1 71:1 72:-1 73:-1 74:-0.29287803 75:0.13595437 76:0.50953787 77:0.47393658 78:0.1642116 79:-0.10025675 80:-0.37290175 81:0.06143642 82:0.17352915 83:-1 84:1 85:-0.10314946 86:1 87:-1 88:-0.056591223 89:-0.29815799 90:0.88471134 91:-1 92:0.1273411 93:-0.41949164 94:1 95:0.85113067 96:-1 97:-0.93229594 98:0.60924999 99:0.16361405 100:1 101:-0.5995394 102:0.79423321 103:-0.13785015 104:-0.91343985 105:-0.24253563 106:0.16769573 107:-0.97269851 108:0.56805536 109:1 110:-0.12778911 111:-0.3559714 112:0.35488277 113:0.097850342 114:-0.9941072 115:-0.27233657 116:0.67804766 117:0.4294642 118:-0.010840471 119:-1 120:0.27767502 121:-0.27314079 122:-0.11295584 123:-0.24253563 124:0.74234042 125:-0.010840471 126:1 127:0.42283268 128:-0.48080257 129:-0.19019549 130:0.31924768 131:-0.7615068 132:-0.16903085 133:0.69995461 
0.065836812441833911 1:-0.88784074 2:-0.77946607 3:0.59667136 4:-0.35355339 5:1 6:1 7:-0.71961076 8:0.28648364 9:-0.74263484 10:-0.19918411 11:-0.34338544 12:-0.052417857 13:-0.21520982 14:-0.27016931 15:-0.57346668 16:0.11702286 17:-1 18:0.14904159 19:-0.89333791 20:-0.24253563 21:-0.58816371 22:-0.1306706 23:0.33532305 24:1 25:-0.52650122 26:-0.19411472 27:0.25742175 28:-1 29:-1 30:-1 31:1 32:-0.0050447885 33:-0.83742728 34:-1 35:0.49151764 36:1 37:-0.02400952 38:-0.47604624 39:0 40:-0.23502237 41:1 42:0.68071049 43:-1 44:1 45:-0.19051271 46:-0.29433006 47:-0.24253563 48:-0.15643657 49:0.27955307 50:0 51:-0.19180956 52:-0.24253563 53:-0.10401646 54:-1 55:1 56:-0.24253563 57:-0.61240284 58:-0.65656317 59:-0.22300366 60:0.30694541 61:-0.18555072 62:-0.59527562 63:-0.24253562 64:-0.35355339 65:-1 66:1 67:0.28155638 68:-0.24253562 69:0.28992969 70:-1 71:-0.25965449 72:-0.096827838 73:-1 74:-0.8355849 75:0.029947637 76:0.81560818 77:-0.17995011 78:0.3471806 79:-0.7403229 80:-0.17545936 81:-0.62455497 82:0.18108791 83:-0.078777273 84:1 85:-0.045785354 86:0.38811079 87:-0.016451366 88:-0.27430377 89:-0.30527939 90:-0.72631147 91:0.0044718043 92:-0.54734109 93:-0.34827604 94:-0.5909503 95:-0.31026955 96:0.53244799 97:-0.43330299 98:1 99:-1 100:0.77618835 101:-0.65097524 102:0.045923695 103:1 104:-0.40417078 105:-0.24253562 106:-1 107:-0.35290728 108:-0.83041672 109:-0.16903085 110:-0.39573048 111:-0.90757325 112:-0.94485291 113:-1 114:-1 115:-0.43961575 116:-0.021704396 117:-0.20284241 118:-0.30084787 119:-0.70841943 120:-0.29490774 121:-0.19917978 122:-0.84638198 123:-0.24253562 124:0.12482923 125:-0.30084787 126:-0.66215206 127:-0.087993713 128:0.085166554 129:0.33101263 130:1 131:-0.51834283 132:-0.24253562 133:0.79185544 
0.066958797957824182 1:0.0027859204 2:0.55370755 3:0.74188383 4:-0.16903085 5:0.54355081 6:0.23450825 7:-0.34976695 8:0.84301419 9:0.32995625 10:0.60079601 11:0.41462499 12:0.8168278 13:1 14:0.68731492 15:0.12383297 16:0.4371682 17:-0.31169275 18:-0.66693559 19:0.83162227 20:-0.16903085 21:0.46199564 22:-0.10550335 23:0.6417346 24:0.82687152 25:1 26:0.28508394 27:-0.010714486 28:0.47866275 29:0.70456741 30:0.70375107 31:-0.1041089 32:0.61872282 33:-0.42581319 34:0.37259425 35:1 36:0.11996595 37:0.61921861 38:-0.38357501 39:0 40:1 41:1 42:-0.073511374 43:0.23461965 44:1 45:0.59648604 46:0.60654197 47:0 48:1 49:0.50495552 50:0 51:0.3904109 52:0 53:-0.26092109 54:-0.88897091 55:-0.2395521 56:-0.16903085 57:-0.37993542 58:0.82045006 59:1 60:0.46180268 61:0.28737554 62:-0.3388091 63:0 64:-0.16903085 65:0.43831331 66:1 67:1 68:0 69:1 70:1 71:0.44678218 72:0.81550096 73:-0.42590531 74:1 75:0.20046442 76:-0.10000856 77:0.5725898 78:-0.064337344 79:-0.30343765 80:0.53615458 81:0.19170936 82:0.97549703 83:0.026441983 84:1 85:0.10466222 86:0.7876339 87:1 88:0.96470075 89:0.93398771 90:-0.12544798 91:-0.23340355 92:-1 93:0.5407318 94:0.86912276 95:-0.10101525 96:0.92371202 97:-0.0022099248 98:1 99:-0.29572485 100:0.74609243 101:-0.41264705 102:0.83708979 103:1 104:0.86540617 105:0 106:1 107:-0.25452178 108:-0.39435382 109:0 110:0.06249341 111:1 112:0.49940634 113:0.16056763 114:0.99020037 115:0 116:1 117:0.60111758 118:1 119:0.22093392 120:0.60573295 121:1 122:-0.4919276 123:0 124:1 125:1 126:-0.33371995 127:-0.056153542 128:-1 129:1 130:0.21779502 131:-0.28273895 132:-0.16903085 133:1 
0.065773536343214534 1:1 2:-0.74626986 3:0.024750765 4:-0.30151134 5:1 6:-1 7:1 8:0.63142482 9:1 10:0.48313914 11:1 12:1 13:-0.32731653 14:0.18257948 15:1 16:0.39436395 17:-0.97737812 18:-0.14724614 19:-0.86966237 20:-0.16903085 21:0.34141729 22:0.15573444 23:-0.94258002 24:-0.38155218 25:1 26:-0.35952832 27:1 28:-1 29:1 30:0.5112509 31:-0.40533255 32:0.769861 33:0.49792751 34:-1 35:-0.46931559 36:-0.3111255 37:0.7768665 38:1 39:-0.16903085 40:-1 41:0.56571737 42:1 43:1 44:0.12265958 45:0.50099598 46:0.35487047 47:-0.16903085 48:1 49:0.47980812 50:-0.16903085 51:0.14992868 52:-0.30151134 53:1 54:-0.198035 55:-0.53298899 56:-0.24253562 57:1 58:-0.038677307 59:-0.63283869 60:-0.016968751 61:-0.13074386 62:1 63:-0.30151134 64:-0.30151134 65:0.63309438 66:-0.18410975 67:-0.68396108 68:-0.16903085 69:-0.72528272 70:0.60724052 71:-0.26106836 72:-0.16609742 73:0.50966064 74:0.88201269 75:0.8542422 76:-1 77:0.6018242 78:-0.42521215 79:0.13170035 80:-0.549857 81:1 82:-0.32746291 83:0.26340697 84:-1 85:-0.23557265 86:-1 87:-0.055306665 88:-1 89:1 90:1 91:-0.16312818 92:1 93:1 94:-1 95:0.11308282 96:0.29201799 97:0.98860386 98:-1 99:0.17388887 100:-0.27657747 101:0.26167457 102:-0.70656301 103:-0.300209 104:-0.6263182 105:-0.16903085 106:1 107:1 108:1 109:-0.24253562 110:-0.11195937 111:-0.458474 112:0.43763491 113:1 114:-0.90901665 115:-0.2417029 116:0.70014942 117:0.47829054 118:1 119:1 120:0.36378337 121:1 122:1 123:-0.16903085 124:-0.37086386 125:1 126:1 127:0.50316798 128:0.15635036 129:0.66999681 130:0.54296488 131:1 132:-0.30151134 133:-0.96681227 
0.06628418082840945 1:-1 2:1 3:-1 4:0.05944383 5:1 6:-0.90538733 7:-0.59120672 8:-0.46639384 9:1 10:1 11:0.42035241 12:0.8920444 13:-0.55442718 14:-0.80902142 15:1 16:-0.27196321 17:1 18:-0.26958413 19:-1 20:1 21:1 22:1 23:-0.25066648 24:-1 25:-0.30514844 26:-0.22522273 27:-0.86707646 28:1 29:-1 30:-0.82974958 31:1 32:1 33:0.92845697 34:1 35:0.59766371 36:1 37:1 38:1 39:0.42129369 40:-0.051745008 41:0.23203373 42:0.18489529 43:1 44:-1 45:1 46:1 47:1 48:1 49:1 50:0.35759927 51:-0.42161808 52:-0.43789421 53:0.92268256 54:1 55:-0.12055464 56:-0.15789215 57:1 58:1 59:-0.20587792 60:-0.89987344 61:-0.84902378 62:-1 63:1 64:0.84332407 65:0.29899731 66:-0.14701574 67:-0.93693362 68:0.12722929 69:0.52167388 70:1 71:-0.29910968 72:1 73:0.59904207 74:0.57249342 75:0.2074131 76:-1 77:1 78:-0.3375618 79:-1 80:-0.21910446 81:0.44819192 82:1 83:-1 84:1 85:-1 86:0.54456952 87:-0.14070256 88:-1 89:0.56019633 90:1 91:-1 92:0.23898406 93:0.50208065 94:1 95:-0.54828231 96:-0.33576827 97:0.3313838 98:1 99:0.838756 100:0.16098255 101:1 102:-0.93565594 103:-1 104:-1 105:-0.41555808 106:0.7165732 107:0.59383359 108:1 109:-0.083881662 110:1 111:-0.43644003 112:1 113:1 114:0.032091527 115:-0.64965743 116:-0.32690534 117:1 118:0.8674358 119:-1 120:1 121:0.03844571 122:0.63776612 123:-0.44916348 124:-1 125:0.8674358 126:1 127:-0 128:-0.14658868 129:-0.64715807 130:0.5262958 131:-1 132:1 133:-0.25955935 
0.06641216757910845 1:-0.096065807 2:-0.35976678 3:0.071043344 4:-1 5:0.7269161 6:-1 7:0.40130384 8:0.10147721 9:-0.35366654 10:-0.53212841 11:0.70068829 12:1 13:-0.27736611 14:-0.38864875 15:0.18234041 16:-0.75373486 17:0.83452165 18:0.24630833 19:-0.39180924 20:0.63245553 21:0.71880889 22:-0.68587429 23:0.81344165 24:0.29717894 25:0.84570602 26:-0.32008628 27:1 28:-0.038479433 29:0.29679219 30:-0.36194583 31:0.11730699 32:-0.62910688 33:-0.84543171 34:-0.50244947 35:1 36:0.91201181 37:-0.61143975 38:0.73261969 39:0.68945733 40:-0.052896713 41:-0.53146143 42:0.23688381 43:-1 44:-0.10557796 45:-0.52976075 46:-0.4260514 47:0.57930899 48:0.98260661 49:-1 50:-0.086737087 51:-0.38242288 52:0.16903085 53:1 54:-0.29704163 55:0.45493108 56:-1 57:0.29539035 58:-0.1953547 59:-0.50829945 60:-0.54834116 61:-0.22670987 62:0.30512505 63:-0.095372804 64:-0.065512178 65:-0.33852042 66:0.40160703 67:0.065612902 68:-0.71012194 69:0.51669442 70:0.75963378 71:-0.23237388 72:0.087200456 73:0.22743071 74:0.2923621 75:-1 76:-0.46607098 77:-0.52887146 78:-0.21695402 79:-0.25129045 80:1 81:1 82:0.24259973 83:0.3656682 84:-0.50490708 85:0.21595885 86:-0.18577483 87:-0.14832459 88:-0.22269706 89:0.83832941 90:-1 91:-1 92:0.58264049 93:0.5268387 94:-1 95:0.64797392 96:0.77585108 97:0.52806062 98:-0.51380851 99:0.28422492 100:-1 101:-0.026107982 102:0.48766612 103:-0.33050559 104:0.24589801 105:-0.7490265 106:1 107:0.54106652 108:-0.87457559 109:-0.76769023 110:-0.5595502 111:0.2004683 112:-0.29738925 113:-0.24370134 114:-0.31206302 115:-0.57125413 116:0.93793964 117:-0.53420545 118:1 119:0.37330513 120:-0.43053306 121:0.89248311 122:0.65990824 123:1 124:0.020347855 125:1 126:-1 127:1 128:0.23137501 129:0.1263618 130:-1 131:-0.064808474 132:-0.068821761 133:-0.039493769 
0.066683623470992034 1:0.80384921 2:0.92692166 3:1 4:-0.05944383 5:1 6:-0.0087657734 7:0.54422015 8:0.19820066 9:-1 10:-0.8374992 11:-0.50198857 12:-1 13:-0.50979267 14:-1 15:-0.8981962 16:0.25719017 17:-0.20083083 18:1 19:-0.01436504 20:-0.055641488 21:-0.94992145 22:-1 23:-1 24:-0.6823682 25:-1 26:-0.81919492 27:-0.051314061 28:-0.3819738 29:-1 30:-0.55838064 31:-1 32:-0.83783374 33:0.46750542 34:-0.093347846 35:0.35723592 36:-0.37507011 37:-0.88715629 38:0.0047137368 39:1 40:-1 41:-1 42:-0.61938267 43:-0.78864956 44:1 45:-0.85044618 46:-0.83670414 47:1 48:1 49:-1 50:0.2480356 51:-0.72650011 52:-0.69192018 53:-1 54:-0.32292153 55:1 56:-1 57:-0.29358569 58:0.027498241 59:-0.077795769 60:0.2993368 61:-1 62:-0.38178556 63:-0.93647761 64:0.38274902 65:-0.22505977 66:-0.3072271 67:-0.8101943 68:-1 69:-1 70:0.10181387 71:-1 72:-1 73:0.19785524 74:0.7610936 75:-0.82122993 76:0.099718191 77:-0.89490901 78:-1 79:-0.73634643 80:-1 81:-1 82:-0.69943173 83:-0.71079133 84:-0.21581419 85:1 86:0.195494 87:-0.28936614 88:0.1318761 89:-1 90:-0.74557599 91:-0.33903904 92:0.56012986 93:-0.97956923 94:0.6653875 95:0.33333333 96:0.11277496 97:0.45673228 98:-0.71232959 99:-0.069630886 100:-1 101:0.46480638 102:-1 103:1 104:1 105:0.52852516 106:-1 107:0.19320577 108:-0.29557453 109:0.61562939 110:-0.84890444 111:1 112:-1 113:-0.9814341 114:-0.13892061 115:0.57256087 116:1 117:-0.85893796 118:-1 119:-0.61497149 120:-0.8667962 121:0.18276103 122:-0.039542576 123:-0.53452248 124:-1 125:-1 126:-0.67701692 127:-0 128:0.52160141 129:-0.13076234 130:-0.33168456 131:0.50843418 132:0.25416428 133:-0.68650611 
0.066441838604410927 1:0.49393616 2:0.23329714 3:0.29105377 4:-0.26483569 5:-0.95802476 6:-0.66695559 7:0.74509688 8:-0.52516128 9:0.30201391 10:0.8984156 11:0.51167513 12:-0.29439923 13:0 14:0.3834043 15:0.43345807 16:-0.49661776 17:-0.78085445 18:-0.55848853 19:-0.44995771 20:1 21:0.47067202 22:-0.316835 23:-0.3354577 24:-0.29670712 25:-0.80610558 26:-0.33977183 27:0.50892921 28:0.77729268 29:-1 30:-0.83111028 31:-0.2274084 32:0.96201356 33:0.41855239 34:-0.22292892 35:-1 36:-0.37940927 37:0.94191913 38:0 39:0 40:0 41:-1 42:-1 43:0.74656242 44:1 45:0.90034564 46:0.86981678 47:1 48:1 49:1 50:-0.62463325 51:0 52:1 53:-0.75613701 54:-1 55:0 56:-0.3257208 57:-0.2113715 58:-0.14191924 59:0 60:-0 61:-0.039927297 62:-0.53084907 63:1 64:0 65:0 66:1 67:0.8920558 68:-0.67269158 69:-1 70:-0.1715028 71:1 72:-1 73:-1 74:-0.026884014 75:1 76:-0.0047084475 77:0.9162942 78:-0.28732415 79:-0.47388452 80:-0.16904198 81:-0.57459525 82:-0.39057822 83:0 84:0.023213252 85:0.68794906 86:1 87:0 88:-0.35278252 89:0.35812476 90:0.26220311 91:-0.83533494 92:-0.38149818 93:0.92818782 94:1 95:-0.36285379 96:0.65710624 97:0.7545006 98:-0.23268669 99:-1 100:-1 101:-0.18412204 102:-0.13518089 103:0.19740513 104:0.40879053 105:1 106:-0.98292309 107:0.84695867 108:0.24558038 109:1 110:0.70718875 111:0.53836767 112:0.91485562 113:0.3210229 114:1 115:0.44159264 116:0.8240619 117:0.9011641 118:0.74645278 119:-1 120:0.86989263 121:0.78009059 122:0.45334886 123:1 124:1 125:0.74645278 126:0.22715548 127:0.16999189 128:0.81757884 129:0.67922937 130:-0.10318368 131:-1 132:1 133:0.89542452 
0.066178991585117766 1:1 2:-0.50401002 3:0.51384251 4:-0.24253562 5:-1 6:-0.28624429 7:-0.50014723 8:0.23368767 9:1 10:1 11:-1 12:1 13:-0.094829192 14:0.2866705 15:1 16:-1 17:-1 18:0.64572187 19:0.51050293 20:-0.24253562 21:1 22:-1 23:1 24:-1 25:1 26:-0.32347084 27:1 28:-0.97896616 29:-1 30:0.95996764 31:0.5838555 32:1 33:1 34:-0.81326467 35:-1 36:0.74254493 37:1 38:-0.56863268 39:-0.30151134 40:-0.92391677 41:0.46151537 42:-0.31666326 43:1 44:0.82885409 45:1 46:1 47:-0.24253562 48:1 49:-0.089442719 50:-0.30151133 51:0.30833564 52:0 53:1 54:-0.95844943 55:0.43356475 56:-0.16903085 57:1 58:-0.089971804 59:-0.93589867 60:-0.084931769 61:0.61003532 62:1 63:-0.24253562 64:-0.24253562 65:-0.51901252 66:1 67:-0.042919716 68:-0.35355338 69:-0.66268109 70:-0.18791383 71:-0.0037037848 72:1 73:-0.91324138 74:0.45119812 75:0.1152245 76:-1 77:1 78:0.058160575 79:1 80:-0.5083991 81:-0.91882275 82:0.14035593 83:1 84:-1 85:1 86:1 87:0.56512118 88:-0.084701185 89:0.99439385 90:0.89064565 91:-0.35678913 92:-0.79902293 93:1 94:-0.89122395 95:-1 96:0.14597109 97:0.84981494 98:-1 99:-1 100:1 101:1 102:1 103:-0.22707211 104:-0.88031536 105:-0.30151134 106:1 107:1 108:1 109:-0.24253561 110:0.078214619 111:-1 112:1 113:1 114:-1 115:-0.27764717 116:0.74368309 117:1 118:1 119:-1 120:1 121:-1 122:-0.15774162 123:-0.35355339 124:0.33978019 125:1 126:0.94562805 127:1 128:-1 129:-0.66185436 130:-1 131:-0.49257639 132:-0.30151134 133:1 
0.065984686108843574 1:0.49679388 2:-0.22162156 3:1 4:-0.24253563 5:0.084710043 6:0.45157779 7:-0.51092428 8:1 9:-0.072019268 10:-1 11:0.60632182 12:0.7060755 13:-0.75161882 14:-1 15:-0.81089002 16:0.4116387 17:0.24945976 18:-0.70750788 19:0.40852089 20:-0.16903085 21:-0.74619138 22:0.043651452 23:-0.83575007 24:-0.68175079 25:0.64042946 26:-0.9182396 27:-0.50050688 28:-0.062198008 29:-0.98612118 30:0.41427424 31:-0.30797966 32:-1 33:-1 34:-0.24219407 35:1 36:-0.49281386 37:-1 38:-0.64724958 39:-0.24253562 40:0.37743025 41:0.095141898 42:0.41131016 43:-1 44:0.75584008 45:-1 46:-1 47:-0.24253562 48:1 49:0.51796977 50:-0.24253563 51:-1 52:-0.16903085 53:0.91744947 54:0.19614148 55:0.17200953 56:-0.16903085 57:-1 58:-0.92486444 59:-0.031412866 60:1 61:-1 62:-0.61752938 63:-0.30151134 64:-0.24253562 65:-0.071047042 66:-1 67:-0.76604596 68:-0.30151134 69:-0.55412781 70:-1 71:-0.75557722 72:-0.41184721 73:0.21589594 74:0.4853497 75:0.27971344 76:1 77:-1 78:0.68697532 79:0.34883259 80:-0.28347168 81:0.75987763 82:0.4508231 83:0.15188444 84:-0.040071033 85:-0.14981873 86:1 87:0.56611672 88:0.12620117 89:0.54908276 90:-1 91:-0.018039358 92:0.86034689 93:0.67968532 94:-0.20950727 95:0.27317918 96:-0.51245131 97:0.59505633 98:-0.069783088 99:-0.00022421762 100:0.034347176 101:-1 102:-0.93317416 103:0.13242125 104:0.65545476 105:-0.24253563 106:0.87645887 107:0.71254505 108:-1 109:-0.24253563 110:-0.99427725 111:0.26293181 112:-1 113:-0.65009795 114:-0.27394423 115:-0.16903085 116:1 117:-1 118:0.70973768 119:-1 120:-1 121:0.50979147 122:-0.2067169 123:-0.30151134 124:-1 125:0.70973768 126:-1 127:-0.28789095 128:0.13139587 129:-0.64202756 130:1 131:-0.44358359 132:-0.24253562 133:0.88461851 
0.066539241716621123 1:0.15280719 2:0.42387846 3:0.12679147 4:1 5:0.45231035 6:-0.32610613 7:-0.46864747 8:-0.33250459 9:-0.59564241 10:-0.6013319 11:-0.90948486 12:-0.6397931 13:0.12550513 14:0.74184877 15:-0.12993566 16:-0.47403688 17:0.029498023 18:0.013852035 19:-0.69840313 20:-0.16903085 21:-0.2769084 22:-0.13381086 23:1 24:0.11713938 25:0.24503232 26:0.75474103 27:-1 28:0.51016512 29:1 30:-0.092424534 31:-0.55944347 32:-0.41582128 33:-0.53611077 34:0.32799426 35:0.29628865 36:-0.52827423 37:-0.40498112 38:0.50401357 39:-0.16903085 40:-0.74304095 41:-1 42:-0.31524339 43:-0.5217502 44:-0.30099697 45:-0.60721773 46:-0.69240352 47:-0.16903085 48:-0.64165106 49:0.15947523 50:-0.16903085 51:0.57663968 52:-0.16903085 53:0.21097212 54:-0.69087621 55:1 56:1 57:-0.71923826 58:-0.63221784 59:-0.59660954 60:-0.14573773 61:0.85194354 62:-0.48078694 63:1 64:1 65:-0.73711662 66:-0.32411303 67:0.39323683 68:0 69:0.039822703 70:-0.26386967 71:0.78172399 72:-0.1519094 73:0.22705554 74:-0.7540062 75:0.01710214 76:0.67231724 77:-0.61318677 78:0.12902725 79:1 80:-0.073473795 81:-0.93342682 82:-0.65807813 83:0.13618935 84:0.20193818 85:-0.042474879 86:-0.93431714 87:-0.99822242 88:0.67016722 89:-0.32483452 90:-0.5507657 91:0.65022652 92:1 93:-0.57228433 94:0.63173899 95:1 96:1 97:-0.35167704 98:0.001296022 99:-0.24236771 100:0.46667551 101:-0.48140124 102:1 103:0.61930182 104:0.95384784 105:-0.16903085 106:1 107:-0.3886019 108:-0.5937983 109:1 110:-0.47773046 111:1 112:-0.43220784 113:-0.51498933 114:0.23995691 115:-0.46843555 116:0.82985345 117:-0.59954153 118:-0.37088892 119:0.88030815 120:-0.69395887 121:-0.26446974 122:0.24390969 123:1 124:0.58971694 125:-0.37088892 126:-0.66160229 127:0.16800456 128:0.0072261832 129:-0.51063756 130:-1 131:-0.50479677 132:1 133:-0.24036543 
0.066329786632562018 1:-1 2:-0.77724687 3:1 4:-1 5:-1 6:1 7:0.74224968 8:1 9:0.48983439 10:-0.68166573 11:0.98551743 12:0.021775869 13:-0.28889598 14:-0.96873873 15:0.077113839 16:1 17:-0.12860279 18:-1 19:-0.82319263 20:-0.82520674 21:-0.74896509 22:0.61881948 23:-1 24:-1 25:-0.74970565 26:-0.82001073 27:0.21560167 28:-1 29:-0.55206776 30:1 31:1 32:-1 33:-0.66623485 34:-0.047340811 35:0.33099703 36:-1 37:-0.89005171 38:-0.85939381 39:-0.77370022 40:0 41:1 42:-1 43:-0.23877032 44:-1 45:-0.69670852 46:-0.41697193 47:-0.78773215 48:-0.59483678 49:1 50:-1 51:1 52:-0.67573097 53:-0.24269072 54:0.12133881 55:0.15305737 56:-0.69335387 57:0.014863865 58:-0.37805461 59:0 60:0.17308811 61:-0.63161906 62:1 63:-1 64:-0.86504593 65:-0.048428142 66:-0.86143481 67:-0.93766403 68:-1 69:-1 70:-0.47329501 71:-1 72:-1 73:-0.049577641 74:-1 75:1 76:-0.027668742 77:-0.5973486 78:0.3849405 79:0.77835323 80:-0.68402374 81:-0.88340736 82:-0.39201145 83:-1 84:-1 85:-0.60249261 86:-0.33936775 87:-1 88:-0.83258301 89:0.13827429 90:0.25871866 91:0.33249722 92:0.13290115 93:0.30978632 94:-1 95:-0.13783908 96:-0.2551599 97:-0.21504995 98:0.29836287 99:0.14986739 100:1 101:-1 102:-0.94236159 103:1 104:0.77154999 105:-1 106:-0.3827111 107:-0.025725803 108:-0.23479154 109:-1 110:-0.90980932 111:-1 112:-0.79209981 113:0.22498468 114:0.73994007 115:0.34767908 116:-1 117:-0.67695825 118:0.37655989 119:0.10993438 120:-0.4163279 121:-0.41522987 122:-1 123:-1 124:-0.65943526 125:0.37655989 126:-0.346685 127:-0.52580936 128:-1 129:-1 130:-1 131:0.49407399 132:-0.93037372 133:-1 
0.065148641748395159 1:-0.81623082 2:0.032287036 3:0.16833424 4:-0.30151134 5:-1 6:-0.12514275 7:-0.53233768 8:-1 9:0.093875015 10:0.11591576 11:-0.93356303 12:-0.9446202 13:-0.64476022 14:-0.80778676 15:0.72934869 16:-1 17:-0.073102129 18:-1 19:0.30554477 20:-0.16903085 21:-0.25641075 22:0.53799879 23:-0.99579081 24:-0.94666257 25:-0.9398856 26:-0.57737783 27:0.73188019 28:-0.60392807 29:-0.32555873 30:-1 31:-1 32:0.063207082 33:0.22466438 34:-0.39038093 35:-0.46804833 36:-1 37:0.093235598 38:-0.62645791 39:-0.16903085 40:-0.16136022 41:-0.31832067 42:-1 43:0.82058361 44:-0.76413782 45:0.1169771 46:0.17111477 47:-0.16903085 48:0.1645854 49:1 50:-0.16903085 51:-0.91572194 52:-0.30151134 53:-1 54:-0.084097132 55:0.82868537 56:-0.24253562 57:0.26021177 58:0 59:-0.36076515 60:-0.15550668 61:-0.52856875 62:-0.48504224 63:-0.30151134 64:-0.30151134 65:-0.14447096 66:0.82437839 67:-0.4676934 68:-0.16903085 69:-0.53754748 70:0 71:-0.84276785 72:0.33868335 73:-0.040900682 74:-1 75:1 76:-0.48370109 77:0.1311042 78:-0.041059685 79:0 80:-0.76022354 81:-0.92457327 82:0.061362668 83:0.26599889 84:0.89008829 85:-0.63027744 86:-0.4795704 87:1 88:0.42233692 89:-1 90:0.98073384 91:-0.041115756 92:-0.94411144 93:-0.9989123 94:0.28437181 95:0.11308282 96:-1 97:-1 98:0.5777821 99:0.81859518 100:-1 101:-0.013788333 102:-0.72993266 103:-0.42413241 104:0 105:-0.16903085 106:-1 107:-1 108:0.53725269 109:-0.24253562 110:-0.92439824 111:1 112:0.095668912 113:0.53196961 114:0.67443171 115:-0.2417029 116:-1 117:0.11635307 118:-1 119:-0.079238111 120:0.16998382 121:-0.9384953 122:0 123:-0.16903085 124:-0.64651161 125:-1 126:0.87613725 127:0.21001138 128:0 129:0.66999681 130:-1 131:-0.41138223 132:-0.30151134 133:-0.17823276 
0.066578148397589368 1:1 2:-0.4003039 3:0.65411132 4:0.038263937 5:0 6:1 7:0.33503469 8:0 9:-1 10:-1 11:-1 12:-0.69025388 13:-0.56537871 14:0.79633723 15:-1 16:0 17:1 18:1 19:1 20:0.41848481 21:-1 22:-0.50228142 23:1 24:0.99163638 25:-0.68088635 26:0.79318901 27:-0.025497152 28:-1 29:-0.036412057 30:-0.29525557 31:0.056849731 32:-1 33:-0.81005622 34:-0.22477667 35:-1 36:1 37:-1 38:0.69656597 39:0.52849711 40:-0.58795261 41:0 42:0 43:-1 44:0.60388897 45:-1 46:-1 47:-0.056433265 48:0.022564553 49:-1 50:-0.31486881 51:-0.55678134 52:1 53:-0.42835587 54:-1 55:1 56:-0.55486171 57:-1 58:0 59:-0.57509809 60:-0.57094651 61:0.73633694 62:-0.68123105 63:0.06681531 64:-0.20628425 65:-0.2823436 66:0.46499248 67:1 68:-1 69:-0.47599397 70:-0.35894571 71:-0.68133587 72:-0.34128676 73:0.8888861 74:-1 75:-0.97181639 76:1 77:-1 78:-0.12264539 79:0.025003571 80:-0.57604121 81:0.55331255 82:0.018086551 83:0.91431192 84:-1 85:0.52784577 86:0.26324905 87:0.68894238 88:1 89:-1 90:-1 91:0.30237619 92:-0.3976532 93:-1 94:0.72118577 95:0.14586499 96:0 97:-1 98:-0.71801527 99:-0.47190334 100:-0.86673858 101:-0.81443369 102:0.93663603 103:0.32992329 104:0 105:0 106:-0.54285964 107:-1 108:-1 109:0 110:-1 111:0.89214759 112:-1 113:-1 114:-0.34554737 115:-1 116:-0.63144294 117:-1 118:-1 119:-0.18241464 120:-1 121:-1 122:-1 123:1 124:1 125:-1 126:-1 127:-0 128:0 129:1 130:0.24465027 131:0.22359068 132:-0.36822985 133:0.1123877 
0.068324403898665995 1:0.89488402 2:1 3:-1 4:0.73224184 5:-0.076405696 6:-0.49583815 7:1 8:0.19588539 9:-1 10:-0.70712418 11:1 12:0.6202106 13:0 14:1 15:-0.71844211 16:0.49875016 17:0.41531093 18:0.82282849 19:1 20:1 21:-0.63796253 22:-0.38881548 23:1 24:1 25:0.2162684 26:1 27:0.31254867 28:0.081825064 29:0.4206279 30:-0.77571342 31:-0.35411023 32:-0.48990912 33:-0.6242714 34:-0.29560967 35:-0.057930908 36:-0.42605165 37:-0.49932316 38:0 39:0 40:0 41:1 42:0.27302699 43:-1 44:0.27458223 45:-0.69047671 46:-0.82269929 47:1 48:-0.051667852 49:-0.74720322 50:0.93094934 51:0 52:1 53:0.005294203 54:1 55:0 56:1 57:-0.86697474 58:-0.27275452 59:0 60:-0.44668404 61:0.31482683 62:-0.29941223 63:1 64:0 65:0 66:0.47957638 67:1 68:1 69:0.58091174 70:-0.28252538 71:1 72:-0.47506852 73:0.93327324 74:0.54123106 75:-1 76:0.87955818 77:-0.68257237 78:-0.46175617 79:-0.39392787 80:0.23511201 81:0.27122692 82:-0.087631653 83:0 84:-0.32128144 85:0.40775823 86:-0.77746333 87:0 88:1 89:-0.25413557 90:-0.69390256 91:-0.18779667 92:0.088925602 93:0.0013231085 94:1 95:-0.24578321 96:1 97:0.083032609 98:-0.24858858 99:0.53693349 100:0.50412491 101:-0.62285203 102:0.66258892 103:-0.28150854 104:0.13993797 105:1 106:-0.16865209 107:0.058137992 108:-0.73975164 109:1 110:-0.36912767 111:0.79433135 112:-0.68324393 113:-1 114:-0.4790824 115:1 116:1 117:-0.71069053 118:-0.53925068 119:-0.067784686 120:-0.82262951 121:0.36029383 122:0.38441747 123:1 124:0.79670249 125:-0.53925068 126:-0.74093399 127:0.032824202 128:-0.7451644 129:1 130:0.75024598 131:1 132:1 133:0.62781749 
0.065904280323188486 1:-0.61222962 2:0.58489559 3:0.88317575 4:-1 5:0.84924241 6:-0.98750986 7:-0.97528483 8:0.12999041 9:0.19463789 10:-0.27626872 11:-1 12:-0.22245355 13:0.1021916 14:-1 15:0.14251362 16:-0.79317271 17:-1 18:0.7348509 19:0.25119603 20:0.71428571 21:-0.19004255 22:-0.58515029 23:0.46730147 24:0.18054018 25:-1 26:-0.85027767 27:0.63901741 28:0.66087827 29:-1 30:-1 31:-0.2161854 32:-0.085826303 33:-0.1489635 34:0.15994494 35:0.20173388 36:0.11505962 37:-0.094555983 38:-1 39:-0.0359675 40:1 41:-0.063977023 42:0.51244042 43:0.20737686 44:1 45:-0.27174224 46:-0.36202854 47:0.4450823 48:-0.19109697 49:0.023938795 50:-1 51:-0.31837577 52:0.16201645 53:-0.5484275 54:-0.63640611 55:0.062171396 56:-1 57:-0.33470707 58:-0.86464848 59:0.86314773 60:1 61:-1 62:0.28440477 63:1 64:0.25480402 65:-0.14303923 66:1 67:0.085737582 68:-1 69:-0.41776428 70:1 71:-0.73157447 72:0.91669204 73:-1 74:-0.64335782 75:0.33186166 76:0.091754999 77:-0.27979318 78:1 79:-0.52592747 80:-0.64186714 81:-0.33483458 82:0.31601937 83:-0.54624535 84:1 85:0.41796716 86:1 87:-0.36327227 88:0.040270724 89:-0.70408469 90:-0.29946184 91:0.089313644 92:-0.65803541 93:-0.95589161 94:0.37427384 95:0.60368161 96:-0.75326163 97:-0.6040126 98:0.68342343 99:-0.75962764 100:-1 101:-0.10189086 102:0.078697281 103:0.62918727 104:-0.42665952 105:0.30831321 106:-0.60463097 107:-0.46704343 108:-0.35457434 109:1 110:-0.49186921 111:-0.3394399 112:-0.3903083 113:0.30292179 114:1 115:0.78781155 116:-0.060008751 117:-0.28313282 118:-0.42892149 119:-0.37553111 120:-0.36164665 121:0.76167905 122:0.62446509 123:1 124:-0.22897515 125:-0.42892149 126:-0.40663694 127:-0 128:0.045533717 129:0.72147371 130:-0.20602203 131:-0.79354146 132:0.61237244 133:0.37996109 
0.066052352072663176 1:0.8596692 2:-0.10683635 3:-0.80048481 4:-0.69510864 5:-0.97181604 6:0.051153675 7:0.92909894 8:-0.28462852 9:-0.10581239 10:-0.53052403 11:-0.39423322 12:-0.43935649 13:-0.16189627 14:-0.54113087 15:-0.040447733 16:0.49939848 17:0.35883761 18:0.62194437 19:-1 20:0.18966081 21:-0.44613428 22:-0.73044353 23:-0.33251852 24:-0.1476992 25:0.023780728 26:-0.66527422 27:-0.42358582 28:-0.16127545 29:-0.86459736 30:-0.80405816 31:-0.50323819 32:-0.2181923 33:0.0012204036 34:-0.1940438 35:-0.52962721 36:-0.75396134 37:-0.12411186 38:-0.28282179 39:-0.46412999 40:-0.084088857 41:0.83609881 42:-0.14845215 43:0.53449686 44:0.3213292 45:-0.54263226 46:-0.62599981 47:0.26028199 48:-0.97236243 49:-0.5488213 50:0.49016501 51:-0.30544339 52:0.40160966 53:0.25880229 54:0.052986022 55:1 56:-0.52228943 57:-0.36984072 58:-0.010502128 59:-0.34947665 60:-0.18467007 61:-0.43129753 62:0.057299719 63:0.52764485 64:0.54918786 65:-0.85192893 66:-0.59664976 67:-0.63449593 68:0.34219296 69:0.38305291 70:0.068335624 71:-0.91555915 72:0.44731047 73:-0.61742889 74:-1 75:-0.85609522 76:0.35628539 77:-0.50591853 78:0.12379559 79:-0.27274705 80:-0.74917437 81:-0.46335794 82:0.053955816 83:0.72796909 84:-0.79168951 85:0.93530716 86:0.37558261 87:0.54872186 88:-1 89:0.31460758 90:0.16796213 91:-0.26783441 92:-1 93:1 94:0.062410786 95:-0.40487668 96:0.46816503 97:1 98:-0.48349539 99:-0.78693314 100:-1 101:-0.49021208 102:0.13535347 103:0.93948869 104:0.36127894 105:-1 106:-0.4389994 107:1 108:0.30977581 109:-1 110:0.43073186 111:1 112:-0.42461998 113:-0.047850652 114:-1 115:0.29087024 116:0.81978127 117:-0.52439691 118:0.90789466 119:-0.55573583 120:-0.63293647 121:0.67316127 122:-0.14757503 123:0.62375277 124:-0.40729858 125:0.90789466 126:1 127:0.3271507 128:-1 129:-1 130:-0.0057422013 131:0.23755504 132:1 133:0.072804239 
0.066255390066572509 1:0.50537036 2:-1 3:0.60864552 4:-0.6401844 5:-0.35145636 6:-0.14322601 7:-0.49357059 8:-1 9:0.88457707 10:0.50872372 11:1 12:1 13:1 14:0.40291048 15:0.71095518 16:0.78534453 17:0.25066378 18:-1 19:-0.83978221 20:1 21:0.71267517 22:1 23:0.48005799 24:0.66401046 25:1 26:-0.40535615 27:0.41670545 28:0.10585306 29:0.66388194 30:0.014043275 31:-0.67316655 32:0.14009229 33:0.93327093 34:0.042714939 35:0.28924868 36:-0.60763626 37:0.14743479 38:-0.37784403 39:-0.14725386 40:0.66921802 41:-0.011278678 42:-0.55743856 43:0.63731653 44:-0.46686754 45:0.51391322 46:0.63024661 47:0.30814849 48:0.066081147 49:1 50:-1 51:1 52:0.087874955 53:1 54:-0.21801668 55:-0.034622422 56:0.8574798 57:0.77533294 58:0.69352403 59:0.40728091 60:-0.32518658 61:0.0055371582 62:0.99861176 63:1 64:0.19310049 65:-0.50104661 66:-0.23551842 67:1 68:1 69:-0.18967683 70:1 71:-0.33650134 72:-0.46087584 73:0.41213933 74:-1 75:1 76:-0.46214741 77:0.52412204 78:-0.20347024 79:-1 80:0.45923394 81:-0.37652552 82:0.43684215 83:-0.1418824 84:0.73724738 85:-1 86:-0.51479852 87:-0.5217193 88:-0.97809696 89:1 90:0.39902413 91:1 92:1 93:1 94:-1 95:1 96:0.35541724 97:1 98:0.063081993 99:0.13215294 100:-0.046066211 101:1 102:0.41488396 103:0.22751525 104:-1 105:-0.16235226 106:1 107:1 108:0.1485029 109:-0.21055872 110:-0.065555117 111:0.081126467 112:0.62147098 113:0.9463393 114:0.45834925 115:1 116:1 117:0.50694634 118:1 119:0.87442312 120:0.63032329 121:-0.78285655 122:0.059654424 123:-0.67915728 124:0.51952812 125:1 126:0.18240539 127:-0.74473536 128:-0.030719542 129:-0.57182405 130:0.30356 131:-0.23881948 132:-0.074743509 133:-0.37534904 
0.08541752418813027 1:-1 2:0 3:0 4:-0.16903085 5:-1 6:-0.18221691 7:-0.3364965 8:-1 9:-0.54951172 10:-1 11:-0.87553386 12:-1 13:-0.18299668 14:-0.68865949 15:-0.58433224 16:-1 17:-0.30939341 18:-0.50142094 19:-1 20:-0.24253562 21:-1 22:0.086407813 23:-0.70804225 24:-1 25:-1 26:-0.72898284 27:-1 28:0 29:-1 30:-1 31:0 32:-1 33:-1 34:0 35:0.98715456 36:0 37:-1 38:-0.34427442 39:-0.30151134 40:0 41:-0.093161549 42:-1 43:-0.84943919 44:-1 45:-1 46:-1 47:-0.24253562 48:-1 49:1 50:-0.24253562 51:0.11949128 52:-0.24253563 53:-1 54:-0.21706024 55:0 56:-0.16903085 57:-1 58:0 59:0 60:0 61:-0.71187728 62:-0.3664972 63:-0.16903085 64:0 65:0.16901348 66:-1 67:-0.60850018 68:-0.24253562 69:-0.82599522 70:0 71:-0.58923454 72:0 73:-0.17071117 74:-1 75:1 76:1 77:-1 78:0 79:0 80:-0.2507083 81:1 82:-1 83:-1 84:0 85:-0.34576076 86:0 87:-1 88:-1 89:-0.17121848 90:-0.81482672 91:0.28154112 92:-0.79115874 93:-0.30689394 94:0 95:-0.28874633 96:-1 97:0.13425885 98:0 99:-0.16149538 100:-1 101:-1 102:-0.48644753 103:0 104:0 105:-0.30151134 106:-0.98805092 107:-0.12247786 108:-1 109:0 110:-0.67126456 111:-1 112:-1 113:-0.56290973 114:0.24519931 115:-0.16903085 116:-1 117:-1 118:0.75484916 119:-1 120:-1 121:-0.80084607 122:0 123:-0.16903085 124:-0.79394103 125:0.75484916 126:-0.71632873 127:0 128:0 129:-1 130:-1 131:-0.44351644 132:-0.16903085 133:-1 
0.066031337244201738 1:0.62831038 2:0.47692623 3:0.97585189 4:-1 5:1 6:1 7:0.79522215 8:-0.35584758 9:0.4729647 10:0.45077675 11:1 12:1 13:-0.70785613 14:-0.95760775 15:-0.19786146 16:0.096241725 17:0.1701905 18:-0.35978801 19:-0.99616416 20:-0.71818485 21:0.38464691 22:0.089175975 23:-1 24:-0.4463824 25:1 26:-0.9746647 27:0.24385243 28:-0.75735209 29:-1 30:1 31:0.046285111 32:0.43097421 33:-0.49543207 34:-0.076885215 35:0.67659215 36:-0.059079133 37:0.43333659 38:-1 39:-0.49423044 40:1 41:0.95431824 42:-0.73527944 43:-0.57045743 44:1 45:0.45137786 46:0.46704897 47:-0.20642154 48:0.36361528 49:-0.29002095 50:-0.66258916 51:-1 52:0.96343991 53:1 54:-0.39487818 55:-0.14866949 56:-1 57:0.24317809 58:-0.14176654 59:1 60:-0.027067907 61:-0.99970374 62:-0.52644173 63:-0.91853152 64:-0.64039869 65:-0.085371318 66:1 67:-1 68:-1 69:-1 70:0.21659817 71:-0.65112103 72:1 73:-0.28132758 74:1 75:-1 76:-0.40625971 77:0.4596135 78:1 79:-1 80:1 81:1 82:-1 83:-1 84:-0.69075505 85:-0.1591054 86:1 87:0.76047269 88:-0.95620735 89:1 90:-0.17865361 91:-0.36625411 92:0.16065334 93:1 94:0.94669929 95:0.49236596 96:-0.40744206 97:1 98:-0.91124763 99:-0.88818465 100:-0.6191788 101:-0.2144563 102:-1 103:1 104:0.17851163 105:-0.32550901 106:1 107:1 108:-0.20661137 109:-0.436648 110:-0.67143136 111:0.22665096 112:0.19704916 113:-0.39714127 114:1 115:0.13498207 116:-1 117:0.44949201 118:1 119:-1 120:0.46675758 121:1 122:-0.76441281 123:0.80439967 124:-1 125:1 126:-0.2794211 127:0 128:-0.60856936 129:0.99280715 130:0.36272205 131:0.62996322 132:-0.966496 133:1 
0.066253689523352158 1:-1 2:-0.46417825 3:1 4:-0.30151134 5:0.22215188 6:-1 7:-0.53233768 8:1 9:-1 10:-1 11:-0.95836033 12:-0.91963364 13:-0.73853678 14:-0.84336263 15:-1 16:1 17:-1 18:1 19:1 20:-0.16903085 21:-1 22:-1 23:-0.84566723 24:0.460097 25:-1 26:-0.59640629 27:-1 28:1 29:-0.51445449 30:0.17015543 31:0.0034437432 32:-1 33:0.48109638 34:1 35:-0.50428014 36:-0.017818114 37:-1 38:0.47451229 39:-0.16903085 40:0.71835968 41:1 42:1 43:-1 44:0.12349121 45:-1 46:-1 47:-0.16903085 48:-1 49:-1 50:-0.16903085 51:-0.87024698 52:-0.30151134 53:-0.95112399 54:-0.2845552 55:0.1586721 56:-0.24253562 57:-1 58:-0.34142463 59:0.62566264 60:0.052676284 61:-0.50098988 62:-0.48504224 63:-0.30151134 64:-0.30151134 65:-0.63858242 66:-0.18316399 67:-0.78550617 68:-0.16903085 69:-0.49539215 70:-0.0047429405 71:-0.78915039 72:0.31103675 73:-1 74:1 75:-1 76:0.76090584 77:-1 78:0.41117372 79:0.64519646 80:-1 81:-0.99477063 82:-0.46468503 83:-0.38944605 84:1 85:1 86:-0.28262319 87:-0.054605067 88:1 89:-1 90:-1 91:0.73193116 92:-1 93:-0.89358104 94:-0.3394223 95:-1 96:0.29235433 97:-0.98327354 98:1 99:-1 100:0.98072306 101:0.21594088 102:-0.73295767 103:-0.042389195 104:0.037463444 105:-0.16903085 106:-0.85853126 107:-0.92952689 108:-0.91496621 109:-0.24253562 110:-1 111:0.05343392 112:-1 113:-1 114:-0.90901665 115:-0.2417029 116:0.28062951 117:-1 118:-0.96917641 119:-0.53883968 120:-1 121:-1 122:0.94396842 123:-0.16903085 124:-0.87101469 125:-0.96917641 126:-1 127:0.92537947 128:-1 129:1 130:-0.0071604442 131:-0.41138223 132:-0.30151134 133:-0.17749324 
0.06567494238307113 1:0.22139459 2:-0.97263068 3:-0.32170645 4:-0.35355339 5:-0.11143279 6:0.54804615 7:-0.42806519 8:0.67735438 9:0.48761498 10:0.60277557 11:-0.33467656 12:-0.39983201 13:1 14:1 15:0.35715288 16:-0.38921795 17:-0.23720146 18:0.34202248 19:0.97537447 20:-0.24253556 21:0.037811838 22:-0.5979071 23:1 24:0.058180786 25:-0.71861518 26:0.44720847 27:-1 28:1 29:0.25125816 30:-1 31:-0.40974277 32:0.88070228 33:1 34:0.64328502 35:1 36:-0.36497459 37:0.87528354 38:-0.59569504 39:-0.24253556 40:0.1559358 41:-0.39425362 42:-0.049347102 43:0.37314136 44:-0.76479893 45:0.60458259 46:0.46159189 47:-0.24253556 48:0.78062218 49:-0.20851441 50:-0.30151127 51:1 52:-0.30151126 53:0.13766085 54:0.066287001 55:-0.027529412 56:-0.24253563 57:0.71890023 58:-1 59:-0.073416051 60:-0.1835534 61:1 62:0.35427474 63:-0.40160966 64:-0.40160966 65:0.63154208 66:-0.72115847 67:1 68:-0.40160959 69:-0.25627936 70:1 71:1 72:0.34325471 73:-0.43763429 74:-1 75:-0.45024951 76:-0.77678003 77:0.57925056 78:-0.096172233 79:1 80:-0.26776501 81:-0.4824105 82:-0.93437189 83:-0.0039587157 84:0.20652472 85:0.59581502 86:-0.19950807 87:0.89962463 88:1 89:-0.43161436 90:0.22653735 91:0.40271654 92:-0.17849977 93:-0.2316107 94:-1 95:1 96:0.26657568 97:-0.42775311 98:-0.10941755 99:0.29169859 100:-1 101:1 102:1 103:-0.69163794 104:-0.043712041 105:-0.40160966 106:-0.87540756 107:-0.37884579 108:0.70870979 109:-0.24253556 110:-0.35325512 111:0.45904849 112:-0.0098588197 113:0.43576984 114:0.29361011 115:-0.22438088 116:-0.56581378 117:0.59861587 118:-0.51831026 119:0.49362555 120:0.46081793 121:-0.40319877 122:0.14390579 123:-0.30151134 124:1 125:-0.51831026 126:-0.00078174229 127:-0.26479939 128:0.23144398 129:-0.83568323 130:-1 131:-0.62575664 132:-0.40160966 133:0.098155364 
